{"learner":{"attributes":{"best_iteration":"93","best_score":"0.8859252271109233","scikit_learn":"{\"_estimator_type\": \"ranker\"}"},"feature_names":["case_type_entropy","pos_count_union","weighted_rank_score","rank_std","appear_count","agreement_ratio","kings_consensus","is_king_top1","mean_importance","weighted_mean_importance","sem_sim_candidate","rationale_len_mean","rationale_certainty_mean","feat_nli_entailment","feat_soft_consensus","rank__claude-haiku-4-5-20251001","imp__claude-haiku-4-5-20251001","hit__claude-haiku-4-5-20251001","rank__deepseek-r1-0528","imp__deepseek-r1-0528","hit__deepseek-r1-0528","rank__deepseek-v3.2-exp","imp__deepseek-v3.2-exp","hit__deepseek-v3.2-exp","rank__gemini-2.5-flash-preview-05-20-nothinking","imp__gemini-2.5-flash-preview-05-20-nothinking","hit__gemini-2.5-flash-preview-05-20-nothinking","rank__gpt-3.5-turbo","imp__gpt-3.5-turbo","hit__gpt-3.5-turbo","rank__gpt-4o-mini","imp__gpt-4o-mini","hit__gpt-4o-mini","rank__gpt-5","imp__gpt-5","hit__gpt-5","rank__o3-mini","imp__o3-mini","hit__o3-mini","rank__qwen3-14b","imp__qwen3-14b","hit__qwen3-14b","rank__qwen3-235b-a22b-instruct-2507","imp__qwen3-235b-a22b-instruct-2507","hit__qwen3-235b-a22b-instruct-2507","rank__qwen3-32b","imp__qwen3-32b","hit__qwen3-32b","rank__qwen3-8b","imp__qwen3-8b","hit__qwen3-8b"],"feature_types":["float","float","float","float","float","float","float","float","float","float","float","float","float","float","float","float","float","float","float","float","float","float","float","float","float","float","float","float","float","float","float","float","float","float","float","float","float","float","float","float","float","float","float","float","float","float","float","float","float","float","float"],"gradient_booster":{"model":{"cats":{"enc":[],"feature_segments":[],"sorted_idx":[]},"gbtree_model_param":{"num_parallel_tree":"1","num_trees":"144"},"iteration_indptr":[0,1,2,3,4,5,6,7,8,9,10,11,12,13,14,15,16,17,18,19,20,21,22,23,24,25,26,27,28,29,30,31,32,33,34,35,36,37,38,39,40,41,42,43,44,45,46,47,48,49,50,51,52,53,54,55,56,57,58,59,60,61,62,63,64,65,66,67,68,69,70,71,72,73,74,75,76,77,78,79,80,81,82,83,84,85,86,87,88,89,90,91,92,93,94,95,96,97,98,99,100,101,102,103,104,105,106,107,108,109,110,111,112,113,114,115,116,117,118,119,120,121,122,123,124,125,126,127,128,129,130,131,132,133,134,135,136,137,138,139,140,141,142,143,144],"tree_info":[0,0,0,0,0,0,0,0,0,0,0,0,0,0,0,0,0,0,0,0,0,0,0,0,0,0,0,0,0,0,0,0,0,0,0,0,0,0,0,0,0,0,0,0,0,0,0,0,0,0,0,0,0,0,0,0,0,0,0,0,0,0,0,0,0,0,0,0,0,0,0,0,0,0,0,0,0,0,0,0,0,0,0,0,0,0,0,0,0,0,0,0,0,0,0,0,0,0,0,0,0,0,0,0,0,0,0,0,0,0,0,0,0,0,0,0,0,0,0,0,0,0,0,0,0,0,0,0,0,0,0,0,0,0,0,0,0,0,0,0,0,0,0,0],"trees":[{"base_weights":[2.286383E-3,4.1123274E-1,-3.1590465E-2,4.8892626E-1,2.7293421E-2,-2.88203E-1,7.75763E-3,3.830182E-1,5.9891075E-1,-2.396708E-1,1.4860594E-1,8.53918E-2,-4.163269E-1,4.193736E-1,-1.121554E-2,3.4600723E-1,7.034679E-1,2.5749028E-1,6.7283285E-1,-4.3137893E-2,-2.572754E-2,-1.8499814E-1,3.3545974E-1,6.3953507E-1,4.2890526E-2,-4.615309E-1,4.061249E-1,2.4769861E-2,5.837987E-1,1.3838618E-1,-6.624292E-2,2.667916E-1,5.2368504E-1,7.667719E-1,9.503005E-3,1.987898E-2,6.382268E-1,-7.202677E-3,6.921505E-1,1.5782042E-1,-3.8963893E-1,-3.7788206E-1,-3.9707977E-2,4.7543582E-1,6.193128E-2,3.572969E-2,1.1243101E-2,-3.5509282E-1,8.9117706E-2,3.0821064E-1,-5.0113696E-1,5.3014314E-1,-2.1207644E-2,9.423527E-2,-4.0786484E-1,6.1687165E-1,-4.848245E-2,-2.078645E-1,1.6792856E-1,-3.4278077E-1,-3.477844E-2,1.6932026E-2,-1.7439415E-3,9.232871E-3,3.0648297E-2,8.938962E-3,4.1412946E-2,1.0542166E-2,-2.3510778E-2,3.514853E-2,8.017913E-3,3.529584E-2,-6.530608E-4,-1.7927131E-3,2.0705586E-2,-2.3820953E-2,-6.81023E-3,-4.565768E-3,-2.4423122E-2,-9.458706E-3,1.1559712E-2,2.7644826E-2,6.568154E-3,-1.1193081E-2,1.9441769E-2,1.3369317E-2,-2.646005E-2,-1.5617761E-2,6.0229744E-3,-7.992554E-3,2.2464288E-2,-2.7271751E-2,5.834451E-3,7.118258E-3,2.9440356E-2,-1.2276468E-2,9.397186E-3,-3.0556312E-2,7.6403137E-4,1.9832788E-2,3.6161605E-2,1.1530245E-2,-9.740943E-3,-2.2907687E-2,-4.297001E-3,-2.7309605E-3,1.0180429E-2,-1.8684698E-2,2.7521288E-2,-8.373271E-3,5.71039E-4],"categories":[],"categories_nodes":[],"categories_segments":[],"categories_sizes":[],"default_left":[0,0,0,0,0,0,0,0,0,0,0,0,0,0,0,0,0,0,0,0,0,0,0,0,0,0,0,0,0,0,0,0,0,0,0,0,0,0,0,0,0,0,0,0,0,0,0,0,0,0,0,0,0,0,0,0,0,0,0,0,0,0,0,0,0,0,0,0,0,0,0,0,0,0,0,0,0,0,0,0,0,0,0,0,0,0,0,0,0,0,0,0,0,0,0,0,0,0,0,0,0,0,0,0,0,0,0,0,0,0,0],"id":0,"left_children":[1,3,5,7,9,11,13,15,17,19,21,23,25,27,29,31,33,35,37,39,-1,41,43,45,47,49,51,53,55,57,59,61,63,65,-1,67,69,-1,71,73,75,77,79,81,83,-1,-1,85,87,89,91,93,-1,95,97,99,101,103,105,107,109,-1,-1,-1,-1,-1,-1,-1,-1,-1,-1,-1,-1,-1,-1,-1,-1,-1,-1,-1,-1,-1,-1,-1,-1,-1,-1,-1,-1,-1,-1,-1,-1,-1,-1,-1,-1,-1,-1,-1,-1,-1,-1,-1,-1,-1,-1,-1,-1,-1,-1],"loss_changes":[3.9930458E1,6.5640564E0,2.6879354E1,1.9060745E0,1.2717768E0,1.697636E1,1.8036556E1,8.9718246E-1,2.051777E0,6.4273596E-1,1.7364533E0,2.1207273E0,9.991619E0,6.588299E0,1.8187096E1,1.1014109E0,1.4642668E-1,1.5533499E0,1.2335129E0,6.372456E-1,0E0,2.7331242E-1,6.433791E-1,3.9302826E-2,1.6098795E0,7.789402E0,1.6943271E0,9.693593E-1,1.5311089E0,6.1122417E0,1.4040632E1,1.3779154E0,6.78421E-1,1.2933397E-1,0E0,1.1932905E0,9.208107E-2,0E0,6.923027E-1,3.0994296E-1,8.201778E-3,9.174287E-2,3.265828E-1,2.331903E-1,7.5022846E-1,0E0,0E0,1.1307681E0,1.014771E0,9.219488E-1,6.5927505E0,2.0873761E-1,0E0,9.218002E-1,3.9407384E-1,1.3127041E0,2.2852728E-1,1.399565E0,4.3622885E0,4.7581387E0,8.897545E0,0E0,0E0,0E0,0E0,0E0,0E0,0E0,0E0,0E0,0E0,0E0,0E0,0E0,0E0,0E0,0E0,0E0,0E0,0E0,0E0,0E0,0E0,0E0,0E0,0E0,0E0,0E0,0E0,0E0,0E0,0E0,0E0,0E0,0E0,0E0,0E0,0E0,0E0,0E0,0E0,0E0,0E0,0E0,0E0,0E0,0E0,0E0,0E0,0E0,0E0],"parents":[2147483647,0,0,1,1,2,2,3,3,4,4,5,5,6,6,7,7,8,8,9,9,10,10,11,11,12,12,13,13,14,14,15,15,16,16,17,17,18,18,19,19,21,21,22,22,23,23,24,24,25,25,26,26,27,27,28,28,29,29,30,30,31,31,32,32,33,33,35,35,36,36,38,38,39,39,40,40,41,41,42,42,43,43,44,44,47,47,48,48,49,49,50,50,51,51,53,53,54,54,55,55,56,56,57,57,58,58,59,59,60,60],"right_children":[2,4,6,8,10,12,14,16,18,20,22,24,26,28,30,32,34,36,38,40,-1,42,44,46,48,50,52,54,56,58,60,62,64,66,-1,68,70,-1,72,74,76,78,80,82,84,-1,-1,86,88,90,92,94,-1,96,98,100,102,104,106,108,110,-1,-1,-1,-1,-1,-1,-1,-1,-1,-1,-1,-1,-1,-1,-1,-1,-1,-1,-1,-1,-1,-1,-1,-1,-1,-1,-1,-1,-1,-1,-1,-1,-1,-1,-1,-1,-1,-1,-1,-1,-1,-1,-1,-1,-1,-1,-1,-1,-1,-1],"split_conditions":[9.99E2,6.3E1,3.5E0,6.7E1,7.1E0,5.7E1,9.99E2,2.2857144E0,2.0146732E0,7.3E1,4.7E1,1E0,2E0,4.2E1,9.017659E-1,2.3350017E0,2.3582377E0,8E0,-1.6666667E-1,9.3466395E-1,-2.572754E-2,5.4545456E-1,7.8E1,1.7E1,9.99E2,9.99E2,2.5E1,4.5E1,4.8E1,7E0,8E0,2.244057E0,9.8120856E-1,8.1E0,9.503005E-3,3.3566433E-1,5E-1,-7.202677E-3,2.0591261E0,9.40218E-1,9.33215E-1,2.2336917E0,9.3535054E-1,2.5580032E0,9.090909E0,3.572969E-2,1.1243101E-2,3.05E1,1E1,9E0,2E0,3E0,-2.1207644E-2,1.4E1,2.324251E0,7E1,7E1,9.1057634E-1,9.0600157E-1,5E0,4.7E1,1.6932026E-2,-1.7439415E-3,9.232871E-3,3.0648297E-2,8.938962E-3,4.1412946E-2,1.0542166E-2,-2.3510778E-2,3.514853E-2,8.017913E-3,3.529584E-2,-6.530608E-4,-1.7927131E-3,2.0705586E-2,-2.3820953E-2,-6.81023E-3,-4.565768E-3,-2.4423122E-2,-9.458706E-3,1.1559712E-2,2.7644826E-2,6.568154E-3,-1.1193081E-2,1.9441769E-2,1.3369317E-2,-2.646005E-2,-1.5617761E-2,6.0229744E-3,-7.992554E-3,2.2464288E-2,-2.7271751E-2,5.834451E-3,7.118258E-3,2.9440356E-2,-1.2276468E-2,9.397186E-3,-3.0556312E-2,7.6403137E-4,1.9832788E-2,3.6161605E-2,1.1530245E-2,-9.740943E-3,-2.2907687E-2,-4.297001E-3,-2.7309605E-3,1.0180429E-2,-1.8684698E-2,2.7521288E-2,-8.373271E-3,5.71039E-4],"split_indices":[24,11,8,1,8,1,36,2,0,11,1,8,28,1,10,0,0,25,12,14,0,12,11,1,42,21,11,11,11,45,48,0,13,8,0,2,3,0,3,10,10,0,14,0,8,0,0,11,45,21,34,28,0,1,0,1,1,14,14,19,1,0,0,0,0,0,0,0,0,0,0,0,0,0,0,0,0,0,0,0,0,0,0,0,0,0,0,0,0,0,0,0,0,0,0,0,0,0,0,0,0,0,0,0,0,0,0,0,0,0,0],"split_type":[0,0,0,0,0,0,0,0,0,0,0,0,0,0,0,0,0,0,0,0,0,0,0,0,0,0,0,0,0,0,0,0,0,0,0,0,0,0,0,0,0,0,0,0,0,0,0,0,0,0,0,0,0,0,0,0,0,0,0,0,0,0,0,0,0,0,0,0,0,0,0,0,0,0,0,0,0,0,0,0,0,0,0,0,0,0,0,0,0,0,0,0,0,0,0,0,0,0,0,0,0,0,0,0,0,0,0,0,0,0,0],"sum_hessian":[2.880334E3,2.1949908E2,2.660835E3,1.8232962E2,3.7169464E1,3.5291833E2,2.3079167E3,9.51697E1,8.715992E1,1.1308334E1,2.5861132E1,9.020992E1,2.627084E2,1.0076449E2,2.207152E3,8.718038E1,7.989316E0,1.6310534E1,7.084938E1,7.2684746E0,4.03986E0,9.288179E0,1.6572952E1,5.425345E0,8.478458E1,2.4943755E2,1.3270866E1,2.9975924E1,7.078857E1,5.931241E2,1.6140281E3,6.2027622E1,2.515276E1,6.673026E0,1.3162898E0,1.0690798E1,5.6197367E0,1.4875621E0,6.9361824E1,4.9450517E0,2.3234231E0,3.3027048E0,5.9854746E0,1.0474532E1,6.09842E0,3.9814112E0,1.4439337E0,8.127871E0,7.665671E1,1.1874542E1,2.37563E2,1.1860723E1,1.4101443E0,2.6502731E1,3.4731925E0,6.7293015E1,3.495549E0,4.6152996E1,5.4697107E2,1.6387291E2,1.4501552E3,4.9997227E1,1.20303955E1,5.882675E0,1.9270086E1,1.0016792E0,5.6713467E0,8.103195E0,2.5876029E0,4.5343475E0,1.0853889E0,6.803277E1,1.3290557E0,3.3064961E0,1.6385554E0,1.0753525E0,1.2480707E0,1.4279599E0,1.874745E0,4.0516996E0,1.9337747E0,8.054349E0,2.4201825E0,3.421987E0,2.6764333E0,1.6593915E0,6.4684796E0,4.9017386E0,7.175497E1,2.719301E0,9.155241E0,2.2177867E2,1.5784337E1,2.0088305E0,9.851892E0,5.3791327E0,2.1123598E1,2.04609E0,1.4271024E0,2.3456478E1,4.3836536E1,1.0043106E0,2.4912384E0,1.421482E1,3.1938175E1,7.5503105E1,4.71468E2,1.589533E2,4.9196234E0,3.7383975E2,1.0763154E3],"tree_param":{"num_deleted":"0","num_feature":"51","num_nodes":"111","size_leaf_vector":"1"}},{"base_weights":[-2.1933513E-3,-1.0152212E-1,6.456152E-1,3.6863482E-1,-2.0185022E-1,4.0122736E-1,7.5262713E-1,1.3585964E-1,5.094495E-1,-1.862065E-2,-3.4475818E-1,2.557041E-1,7.866642E-1,8.108292E-1,5.648094E-1,4.2451955E-2,5.069156E-1,5.988734E-1,2.8948265E-1,-4.5572E-1,3.3350922E-2,-1.7998835E-2,-3.8219023E-1,1.7259257E-2,3.713463E-1,8.205399E-1,-2.4225004E-2,-1.0651429E-1,8.171775E-1,3.064155E-1,7.6981413E-1,3.6093733E-1,-1.6730772E-2,-4.0606625E-2,5.814847E-1,6.2263674E-1,2.931425E-1,7.992304E-2,5.530746E-1,-9.252646E-2,-6.274456E-1,-4.7964174E-3,3.505682E-1,-2.3616123E-1,2.4448563E-1,-2.2562665E-1,-4.5006076E-1,1.1135809E-1,-3.8393512E-1,4.6217412E-1,1.0151856E-1,2.6301292E-1,8.910555E-1,2.9845415E-2,-3.3643138E-2,3.5372707E-1,8.299967E-1,3.9384213E-1,-5.827421E-1,8.5998964E-1,1.6526148E-1,3.303064E-2,3.5845235E-3,1.3019482E-3,-2.1051092E-2,3.1310666E-2,-8.181999E-3,-1.1980663E-3,3.1451255E-2,3.8384806E-2,-7.94114E-3,6.4222575E-3,-3.0034546E-2,1.3191761E-2,3.4796707E-2,7.1804575E-3,-1.161795E-2,-4.054743E-4,-3.3752125E-2,-1.41071305E-2,1.6953889E-3,9.286945E-3,2.8885229E-2,-4.1860122E-2,-9.889439E-3,1.9572251E-3,2.644722E-2,-1.19420355E-2,3.8277697E-2,-2.5747448E-2,-1.504978E-2,3.3607848E-2,3.0814956E-3,-2.4730792E-2,6.358061E-3,-1.769506E-2,2.4571577E-2,-7.963311E-3,1.6652046E-2,-8.292159E-3,3.6432702E-2,2.2238648E-2,4.5384314E-2,-2.4311375E-2,4.42561E-2,4.1985955E-2,2.3510251E-3,-3.2482337E-2,2.362803E-2,-4.242644E-2,2.5208404E-2,-8.879946E-3,4.5384735E-2,-2.0019287E-2,4.1435722E-2],"categories":[],"categories_nodes":[],"categories_segments":[],"categories_sizes":[],"default_left":[0,0,0,0,0,0,0,0,0,0,0,0,0,0,0,0,0,0,0,0,0,0,0,0,0,0,0,0,0,0,0,0,0,0,0,0,0,0,0,0,0,0,0,0,0,0,0,0,0,0,0,0,0,0,0,0,0,0,0,0,0,0,0,0,0,0,0,0,0,0,0,0,0,0,0,0,0,0,0,0,0,0,0,0,0,0,0,0,0,0,0,0,0,0,0,0,0,0,0,0,0,0,0,0,0,0,0,0,0,0,0,0,0,0,0],"id":1,"left_children":[1,3,5,7,9,11,13,15,17,19,21,23,25,27,29,31,33,35,37,39,41,43,45,47,49,51,-1,53,55,57,59,61,63,-1,65,67,69,71,73,75,77,79,81,83,85,87,89,91,93,95,97,99,101,-1,-1,103,105,107,109,111,113,-1,-1,-1,-1,-1,-1,-1,-1,-1,-1,-1,-1,-1,-1,-1,-1,-1,-1,-1,-1,-1,-1,-1,-1,-1,-1,-1,-1,-1,-1,-1,-1,-1,-1,-1,-1,-1,-1,-1,-1,-1,-1,-1,-1,-1,-1,-1,-1,-1,-1,-1,-1,-1,-1],"loss_changes":[4.8649146E2,3.0929187E2,2.5985016E1,3.773105E1,1.4147557E2,1.708797E1,7.171112E0,1.5091297E1,1.3953415E1,5.382292E1,3.7121582E1,6.2044115E0,4.0146904E0,3.176422E0,8.684734E0,6.592529E0,9.088537E0,3.5202942E0,1.1528873E1,1.5644962E1,2.5629942E1,1.7984066E1,2.883844E1,2.8594387E0,3.6691914E0,2.9968987E0,0E0,2.2065752E0,2.8372192E0,6.150002E0,4.940998E0,4.7029853E0,5.1229024E0,0E0,2.8852272E0,1.9648285E0,8.411039E0,3.9703789E0,3.6436806E0,2.7409654E0,5.028679E0,2.031384E1,8.404766E0,3.7889824E0,8.3075905E0,1.09962845E1,1.8212097E1,1.6655855E0,8.774686E-1,2.8757877E0,2.4360178E0,2.246964E0,1.3470459E-1,0E0,0E0,7.539202E0,3.8583984E0,6.051997E0,2.5139875E0,4.165638E0,5.338247E0,0E0,0E0,0E0,0E0,0E0,0E0,0E0,0E0,0E0,0E0,0E0,0E0,0E0,0E0,0E0,0E0,0E0,0E0,0E0,0E0,0E0,0E0,0E0,0E0,0E0,0E0,0E0,0E0,0E0,0E0,0E0,0E0,0E0,0E0,0E0,0E0,0E0,0E0,0E0,0E0,0E0,0E0,0E0,0E0,0E0,0E0,0E0,0E0,0E0,0E0,0E0,0E0,0E0,0E0],"parents":[2147483647,0,0,1,1,2,2,3,3,4,4,5,5,6,6,7,7,8,8,9,9,10,10,11,11,12,12,13,13,14,14,15,15,16,16,17,17,18,18,19,19,20,20,21,21,22,22,23,23,24,24,25,25,27,27,28,28,29,29,30,30,31,31,32,32,34,34,35,35,36,36,37,37,38,38,39,39,40,40,41,41,42,42,43,43,44,44,45,45,46,46,47,47,48,48,49,49,50,50,51,51,52,52,55,55,56,56,57,57,58,58,59,59,60,60],"right_children":[2,4,6,8,10,12,14,16,18,20,22,24,26,28,30,32,34,36,38,40,42,44,46,48,50,52,-1,54,56,58,60,62,64,-1,66,68,70,72,74,76,78,80,82,84,86,88,90,92,94,96,98,100,102,-1,-1,104,106,108,110,112,114,-1,-1,-1,-1,-1,-1,-1,-1,-1,-1,-1,-1,-1,-1,-1,-1,-1,-1,-1,-1,-1,-1,-1,-1,-1,-1,-1,-1,-1,-1,-1,-1,-1,-1,-1,-1,-1,-1,-1,-1,-1,-1,-1,-1,-1,-1,-1,-1,-1,-1,-1,-1,-1,-1],"split_conditions":[4E0,9.99E2,7E1,5E1,9.028746E-1,8E-1,9.3636966E-1,2E0,5.5E1,9.0600157E-1,9.99E2,4.4E1,1.7142857E0,6E0,8.3333336E-2,8.9836943E-1,7E0,5E0,8.545455E0,6.8E1,3E0,6.7E1,6.4E1,3.8666668E1,9.369893E-1,7.75E0,-2.4225004E-2,2.432633E0,4E0,1E1,9.6E1,9.950972E-1,1.0833334E0,-4.0606625E-2,1.2727273E0,1.5838344E0,3E0,7.5E1,9.278526E-1,2.6E1,9.99E2,3.25E0,6.8E1,9E0,9.2515427E-1,2.2857144E0,8.3333336E-2,2E0,9.468989E-1,8.790935E-1,5.6E1,6E0,9.117343E-1,2.9845415E-2,-3.3643138E-2,8.3333336E-2,9E0,1.7480905E0,1E1,9.366653E-1,9.8575705E-1,3.303064E-2,3.5845235E-3,1.3019482E-3,-2.1051092E-2,3.1310666E-2,-8.181999E-3,-1.1980663E-3,3.1451255E-2,3.8384806E-2,-7.94114E-3,6.4222575E-3,-3.0034546E-2,1.3191761E-2,3.4796707E-2,7.1804575E-3,-1.161795E-2,-4.054743E-4,-3.3752125E-2,-1.41071305E-2,1.6953889E-3,9.286945E-3,2.8885229E-2,-4.1860122E-2,-9.889439E-3,1.9572251E-3,2.644722E-2,-1.19420355E-2,3.8277697E-2,-2.5747448E-2,-1.504978E-2,3.3607848E-2,3.0814956E-3,-2.4730792E-2,6.358061E-3,-1.769506E-2,2.4571577E-2,-7.963311E-3,1.6652046E-2,-8.292159E-3,3.6432702E-2,2.2238648E-2,4.5384314E-2,-2.4311375E-2,4.42561E-2,4.1985955E-2,2.3510251E-3,-3.2482337E-2,2.362803E-2,-4.242644E-2,2.5208404E-2,-8.879946E-3,4.5384735E-2,-2.0019287E-2,4.1435722E-2],"split_indices":[37,24,1,1,10,2,10,4,11,14,33,1,12,33,12,10,1,49,8,1,28,1,1,11,10,8,0,0,39,49,1,13,12,0,12,0,24,11,14,1,21,8,1,1,14,2,12,1,10,10,1,42,10,0,0,12,22,0,37,10,13,0,0,0,0,0,0,0,0,0,0,0,0,0,0,0,0,0,0,0,0,0,0,0,0,0,0,0,0,0,0,0,0,0,0,0,0,0,0,0,0,0,0,0,0,0,0,0,0,0,0,0,0,0,0],"split_type":[0,0,0,0,0,0,0,0,0,0,0,0,0,0,0,0,0,0,0,0,0,0,0,0,0,0,0,0,0,0,0,0,0,0,0,0,0,0,0,0,0,0,0,0,0,0,0,0,0,0,0,0,0,0,0,0,0,0,0,0,0,0,0,0,0,0,0,0,0,0,0,0,0,0,0,0,0,0,0,0,0,0,0,0,0,0,0,0,0,0,0,0,0,0,0,0,0,0,0,0,0,0,0,0,0,0,0,0,0,0,0,0,0,0,0],"sum_hessian":[7.558534E3,6.5543896E3,1.0041441E3,1.1522146E3,5.4021753E3,3.0723883E2,6.969053E2,4.35037E2,7.171777E2,2.3676372E3,3.0345378E3,2.2423965E2,8.299918E1,5.2950275E2,1.6740254E2,3.4843756E2,8.6599434E1,5.0866556E2,2.0851212E2,2.5077359E2,2.1168638E3,3.120458E2,2.7224922E3,7.3610344E1,1.5062932E2,8.119002E1,1.8091625E0,3.530668E0,5.259721E2,7.516149E1,9.224104E1,5.3803143E1,2.946344E2,4.1044807E0,8.249496E1,4.710184E2,3.7647156E1,1.1688777E2,9.162435E1,8.100008E1,1.6977353E2,1.8905038E3,2.263599E2,1.7046507E2,1.4158073E2,8.2460925E2,1.8978828E3,6.021058E1,1.3399762E1,1.1216138E2,3.846794E1,9.646952E0,7.154307E1,1.5506959E0,1.9799722E0,1.4926674E1,5.110454E2,6.894001E1,6.2214823E0,7.9900505E1,1.2340538E1,2.5794615E1,2.8008526E1,2.6729318E2,2.7341213E1,7.797389E1,4.521061E0,4.5811973E0,4.664372E2,1.8023891E1,1.9623266E1,1.09866486E2,7.021286E0,3.1233835E1,6.0390514E1,3.0116034E1,5.0884045E1,1.2199736E1,1.5757379E2,2.3074481E2,1.6597589E3,1.3222443E2,9.413546E1,8.980623E0,1.6148445E2,8.288586E1,5.869488E1,8.145095E2,1.0099714E1,1.3205789E3,5.77304E2,3.884732E0,5.6325848E1,1.1041016E1,2.3587465E0,3.4979224E0,1.0866345E2,1.8237486E1,2.0230455E1,5.356993E0,4.2899585E0,3.5670156E0,6.797605E1,5.81699E0,9.109684E0,5.047059E2,6.339513E0,4.3271165E0,6.461289E1,5.1752715E0,1.0462105E0,3.392413E0,7.6508095E1,6.875301E0,5.4652367E0],"tree_param":{"num_deleted":"0","num_feature":"51","num_nodes":"115","size_leaf_vector":"1"}},{"base_weights":[-2.8031867E-3,-1.00070134E-1,6.208311E-1,3.7373546E-1,-2.136006E-1,2.2293176E-1,7.1843076E-1,2.0473371E-1,4.9232185E-1,-3.5974953E-2,-3.6268967E-1,8.066532E-1,9.882883E-2,5.6094146E-1,7.542779E-1,7.4553627E-1,1.6129105E-1,5.357355E-1,1.5877578E-1,-9.316876E-2,2.9171056E-1,-4.8179042E-1,2.4940357E-1,-3.1699024E-2,4.534052E-2,6.7777984E-2,3.3370603E-2,3.9196306E-1,8.2158715E-1,4.724115E-2,7.2133356E-1,4.1597265E-1,8.683541E-1,3.0332154E-1,1.6637314E-2,4.7445375E-1,7.18619E-1,6.7282933E-1,-1.2360172E-1,-4.1415057E-1,-3.0031359E-2,1.0603706E-1,5.229568E-1,-2.6520362E-1,-5.9842855E-1,-1.0476281E-1,5.248634E-1,9.8701864E-2,-4.656654E-1,-2.2808788E-2,4.0800777E-1,2.3808248E-1,8.656144E-1,6.0307217E-1,7.911567E-1,-1.6990071E-2,3.419741E-2,4.441637E-2,1.29840365E-2,1.6705267E-2,-1.6656207E-2,-7.3543855E-4,2.8694917E-2,2.5969088E-2,-1.2839285E-3,-2.4683712E-2,3.7745424E-2,-2.0701848E-2,4.0945984E-2,4.0782616E-3,-2.6685977E-2,2.314679E-3,-3.2744642E-2,-2.0006757E-2,3.0525785E-4,-4.1763883E-2,6.905805E-3,2.8654575E-2,-1.0948018E-3,3.6443744E-2,-1.4029625E-2,-3.372794E-2,-2.0874787E-2,-1.2772041E-2,6.5986216E-3,1.2874166E-2,3.4952436E-2,1.024509E-3,1.7816922E-2,2.1643316E-2,-3.490756E-2,2.2621254E-2,1.4981942E-3,-2.5929635E-2,3.185922E-2,4.4611555E-2,1.0102584E-2,3.354233E-2,6.108175E-3,3.4890704E-2,4.3318782E-2],"categories":[],"categories_nodes":[],"categories_segments":[],"categories_sizes":[],"default_left":[0,0,0,0,0,0,0,0,0,0,0,0,0,0,0,0,0,0,0,0,0,0,0,0,0,0,0,0,0,0,0,0,0,0,0,0,0,0,0,0,0,0,0,0,0,0,0,0,0,0,0,0,0,0,0,0,0,0,0,0,0,0,0,0,0,0,0,0,0,0,0,0,0,0,0,0,0,0,0,0,0,0,0,0,0,0,0,0,0,0,0,0,0,0,0,0,0,0,0,0,0],"id":2,"left_children":[1,3,5,7,9,11,13,15,17,19,21,23,25,27,29,31,33,35,37,39,41,43,45,-1,-1,47,-1,49,51,-1,53,55,57,59,61,63,65,67,69,71,73,75,77,79,81,83,85,87,89,-1,91,93,95,97,99,-1,-1,-1,-1,-1,-1,-1,-1,-1,-1,-1,-1,-1,-1,-1,-1,-1,-1,-1,-1,-1,-1,-1,-1,-1,-1,-1,-1,-1,-1,-1,-1,-1,-1,-1,-1,-1,-1,-1,-1,-1,-1,-1,-1,-1,-1],"loss_changes":[4.0345996E2,3.0958658E2,3.469098E1,2.2196457E1,1.229238E2,1.2830567E1,3.6427917E0,1.069813E1,9.371948E0,3.9750126E1,1.8410443E2,5.063343E0,2.569637E0,5.731148E0,2.9830017E0,1.013504E0,8.778298E0,6.1307983E0,1.1207428E1,3.6573765E1,1.3478287E1,5.3220978E1,4.0224045E1,0E0,0E0,2.3810403E0,0E0,1.346798E0,1.1591835E0,0E0,3.6676025E0,2.488645E0,5.8942795E-2,4.336437E0,3.7266388E0,9.798195E0,6.663254E0,4.6780252E0,4.276684E0,3.29144E1,2.0192835E1,5.432484E0,3.8400993E0,1.1546467E1,1.8625305E1,6.489057E0,1.0614517E1,2.7053554E0,1.9589865E0,0E0,1.4009228E0,1.8729848E0,6.857834E-1,6.1284866E0,1.5888214E0,0E0,0E0,0E0,0E0,0E0,0E0,0E0,0E0,0E0,0E0,0E0,0E0,0E0,0E0,0E0,0E0,0E0,0E0,0E0,0E0,0E0,0E0,0E0,0E0,0E0,0E0,0E0,0E0,0E0,0E0,0E0,0E0,0E0,0E0,0E0,0E0,0E0,0E0,0E0,0E0,0E0,0E0,0E0,0E0,0E0,0E0],"parents":[2147483647,0,0,1,1,2,2,3,3,4,4,5,5,6,6,7,7,8,8,9,9,10,10,11,11,12,12,13,13,14,14,15,15,16,16,17,17,18,18,19,19,20,20,21,21,22,22,25,25,27,27,28,28,30,30,31,31,32,32,33,33,34,34,35,35,36,36,37,37,38,38,39,39,40,40,41,41,42,42,43,43,44,44,45,45,46,46,47,47,48,48,50,50,51,51,52,52,53,53,54,54],"right_children":[2,4,6,8,10,12,14,16,18,20,22,24,26,28,30,32,34,36,38,40,42,44,46,-1,-1,48,-1,50,52,-1,54,56,58,60,62,64,66,68,70,72,74,76,78,80,82,84,86,88,90,-1,92,94,96,98,100,-1,-1,-1,-1,-1,-1,-1,-1,-1,-1,-1,-1,-1,-1,-1,-1,-1,-1,-1,-1,-1,-1,-1,-1,-1,-1,-1,-1,-1,-1,-1,-1,-1,-1,-1,-1,-1,-1,-1,-1,-1,-1,-1,-1,-1,-1],"split_conditions":[4E0,9.99E2,5E1,6E1,9.025894E-1,5E0,7E1,9.99E2,6.5E1,3E0,3E0,5E0,8E0,7.3015875E-1,8.997887E-1,1.5E1,9.201422E-1,9E0,2E0,3.25E0,5.7E1,6.4E1,6.7E1,-3.1699024E-2,4.534052E-2,4.5E1,3.3370603E-2,6E0,7.4444447E0,4.724115E-2,8.3333336E-2,2.229407E0,1.0198039E0,6E1,5E0,4.1904762E-1,9.0875113E-1,9.194925E-1,7.5E1,5.8E1,9.0639305E-1,6E0,2.8E1,1E0,8.3333336E-2,5.3E1,9.254383E-1,4.2E1,2E0,-2.2808788E-2,2.5124457E0,3E0,2.4536734E0,9.369893E-1,9.308629E-1,-1.6990071E-2,3.419741E-2,4.441637E-2,1.29840365E-2,1.6705267E-2,-1.6656207E-2,-7.3543855E-4,2.8694917E-2,2.5969088E-2,-1.2839285E-3,-2.4683712E-2,3.7745424E-2,-2.0701848E-2,4.0945984E-2,4.0782616E-3,-2.6685977E-2,2.314679E-3,-3.2744642E-2,-2.0006757E-2,3.0525785E-4,-4.1763883E-2,6.905805E-3,2.8654575E-2,-1.0948018E-3,3.6443744E-2,-1.4029625E-2,-3.372794E-2,-2.0874787E-2,-1.2772041E-2,6.5986216E-3,1.2874166E-2,3.4952436E-2,1.024509E-3,1.7816922E-2,2.1643316E-2,-3.490756E-2,2.2621254E-2,1.4981942E-3,-2.5929635E-2,3.185922E-2,4.4611555E-2,1.0102584E-2,3.354233E-2,6.108175E-3,3.4890704E-2,4.3318782E-2],"split_indices":[37,24,1,1,10,18,1,27,11,28,34,1,25,2,10,1,10,25,24,8,1,1,1,0,0,11,0,39,8,0,12,0,3,11,4,2,14,14,11,1,14,1,11,8,12,1,14,1,27,0,0,42,0,10,10,0,0,0,0,0,0,0,0,0,0,0,0,0,0,0,0,0,0,0,0,0,0,0,0,0,0,0,0,0,0,0,0,0,0,0,0,0,0,0,0,0,0,0,0,0,0],"split_type":[0,0,0,0,0,0,0,0,0,0,0,0,0,0,0,0,0,0,0,0,0,0,0,0,0,0,0,0,0,0,0,0,0,0,0,0,0,0,0,0,0,0,0,0,0,0,0,0,0,0,0,0,0,0,0,0,0,0,0,0,0,0,0,0,0,0,0,0,0,0,0,0,0,0,0,0,0,0,0,0,0,0,0,0,0,0,0,0,0,0,0,0,0,0,0,0,0,0,0,0,0],"sum_hessian":[6.6492554E3,5.752837E3,8.964185E2,1.1115647E3,4.641272E3,1.7721667E2,7.1920184E2,4.594758E2,6.520889E2,2.1185088E3,2.5227632E3,3.0107128E1,1.4710954E2,1.3643642E2,5.8276544E2,3.2963497E1,4.265123E2,5.7645294E2,7.5636E1,1.8043037E3,3.1420514E2,2.1120203E3,4.1074283E2,1.6106166E0,2.8496511E1,1.4055301E2,6.5565248E0,8.42927E1,5.2143715E1,8.182468E1,5.0094073E2,1.0140326E1,2.2823172E1,2.1465404E2,2.1185828E2,4.3446426E2,1.4198865E2,2.6326767E1,4.930924E1,2.956583E2,1.5086454E3,1.7508417E2,1.3912099E2,7.404124E2,1.3716079E3,1.7997003E2,2.3077278E2,1.3362189E2,6.9311304E0,1.0557011E0,8.3237E1,4.107928E0,4.803579E1,1.895433E2,3.1139743E2,2.5841603E0,7.5561647E0,2.1653183E1,1.1699877E0,2.0520374E2,9.450306E0,2.0149759E2,1.0360689E1,3.9861713E2,3.584716E1,3.760511E0,1.3822813E2,2.9020803E0,2.3424686E1,3.340104E1,1.5908201E1,1.0178734E2,1.9387096E2,1.3330334E2,1.375342E3,4.9448967E0,1.7013927E2,1.2735094E2,1.1770048E1,1.0580463E1,7.29832E2,9.6348047E2,4.0812738E2,1.0992536E2,7.004467E1,9.2011055E1,1.3876173E2,1.0333241E2,3.028947E1,1.2475572E0,5.6835732E0,7.430945E1,8.927553E0,1.3151245E0,2.792803E0,4.585198E1,2.183811E0,1.6578435E2,2.3758953E1,1.4354405E2,1.6785338E2],"tree_param":{"num_deleted":"0","num_feature":"51","num_nodes":"101","size_leaf_vector":"1"}},{"base_weights":[1.0418847E-3,-9.2826545E-2,5.9357E-1,3.4651178E-1,-2.0003444E-1,2.6928473E-1,7.136305E-1,1.510622E-1,4.6075606E-1,-2.723178E-1,2.2531375E-1,1.0707995E-1,6.5948784E-1,6.6759264E-1,8.546556E-1,3.0879641E-2,5.021816E-1,5.335848E-1,2.5031903E-1,-9.3913876E-2,-4.1420323E-1,-1.1761002E-1,4.5759454E-1,-1.590219E-1,2.4241646E-1,-2.7877573E-2,6.903308E-1,6.928639E-1,3.683316E-1,2.5764188E-1,8.785864E-1,-4.8685513E-2,2.947268E-1,7.620681E-1,3.9562395E-1,5.4335576E-1,-4.6422774E-1,-5.3665113E-2,5.1280344E-1,-1.3429526E-2,-2.336814E-1,-4.7045225E-1,9.8482825E-2,-4.347129E-2,-7.704056E-2,3.6250123E-1,6.49598E-1,-3.916884E-2,-9.9572316E-2,3.710647E-1,4.670817E-2,4.4811627E-1,8.383601E-1,8.87079E-1,6.6126543E-1,4.0168215E-2,1.3193485E-1,3.6868975E-2,-2.8093455E-2,4.433788E-2,3.314908E-3,4.1091703E-3,-1.989551E-2,1.9387338E-2,-1.8809784E-2,3.390918E-3,3.949667E-2,3.4697965E-2,1.2093913E-2,-4.4770655E-3,2.7809048E-2,-2.9845744E-2,-4.416059E-3,-1.4559694E-2,6.4500794E-3,3.1868286E-2,5.487314E-3,1.32370135E-2,-3.0753778E-3,-2.8950725E-2,-1.018872E-2,-3.7808564E-2,-2.128548E-2,1.7762626E-2,-1.6770957E-2,2.0094922E-4,-1.8536717E-2,2.4821764E-2,1.0486004E-2,2.5154913E-3,3.3900347E-2,1.7866826E-2,-8.796218E-3,2.2895288E-2,-4.4435263E-3,2.2361396E-2,-2.7271765E-3,9.856057E-3,3.513008E-2,4.4104647E-2,1.8810358E-2,6.182917E-3,4.4943213E-2,2.3989907E-2,3.631676E-2,3.3973157E-2,-3.3031811E-3],"categories":[],"categories_nodes":[],"categories_segments":[],"categories_sizes":[],"default_left":[0,0,0,0,0,0,0,0,0,0,0,0,0,0,0,0,0,0,0,0,0,0,0,0,0,0,0,0,0,0,0,0,0,0,0,0,0,0,0,0,0,0,0,0,0,0,0,0,0,0,0,0,0,0,0,0,0,0,0,0,0,0,0,0,0,0,0,0,0,0,0,0,0,0,0,0,0,0,0,0,0,0,0,0,0,0,0,0,0,0,0,0,0,0,0,0,0,0,0,0,0,0,0,0,0,0,0],"id":3,"left_children":[1,3,5,7,9,11,13,15,17,19,21,23,25,27,29,31,33,35,37,39,41,43,45,47,49,-1,51,53,55,57,59,61,63,65,67,69,71,73,75,77,79,81,83,-1,85,87,89,-1,91,93,95,97,99,101,103,-1,105,-1,-1,-1,-1,-1,-1,-1,-1,-1,-1,-1,-1,-1,-1,-1,-1,-1,-1,-1,-1,-1,-1,-1,-1,-1,-1,-1,-1,-1,-1,-1,-1,-1,-1,-1,-1,-1,-1,-1,-1,-1,-1,-1,-1,-1,-1,-1,-1,-1,-1],"loss_changes":[3.370791E2,2.4648244E2,3.207608E1,2.285289E1,1.2937926E2,1.420466E1,3.3525696E0,1.6027794E1,9.788284E0,9.097528E1,4.8762436E1,5.8190613E0,2.8635826E0,3.2244873E0,1.8473053E0,5.9827647E0,2.3814697E0,4.9326477E0,1.3458827E1,1.792902E1,5.779367E1,7.489045E0,6.4244995E0,1.9529485E0,2.6714745E0,0E0,1.949419E0,2.0102234E0,3.7981935E0,3.16976E0,8.646927E-1,1.005494E1,4.2656407E0,4.7055054E-1,3.0791235E0,3.9124298E0,2.0637774E-1,3.461129E0,4.469963E0,1.3559236E1,5.8975086E0,2.2748535E1,2.2268621E1,0E0,5.6233406E0,4.933964E0,2.0013542E0,0E0,1.8457159E0,2.6086235E0,1.7885122E0,1.5699353E0,4.5843124E-1,3.9523315E-1,3.9952393E0,0E0,2.8411942E0,0E0,0E0,0E0,0E0,0E0,0E0,0E0,0E0,0E0,0E0,0E0,0E0,0E0,0E0,0E0,0E0,0E0,0E0,0E0,0E0,0E0,0E0,0E0,0E0,0E0,0E0,0E0,0E0,0E0,0E0,0E0,0E0,0E0,0E0,0E0,0E0,0E0,0E0,0E0,0E0,0E0,0E0,0E0,0E0,0E0,0E0,0E0,0E0,0E0,0E0],"parents":[2147483647,0,0,1,1,2,2,3,3,4,4,5,5,6,6,7,7,8,8,9,9,10,10,11,11,12,12,13,13,14,14,15,15,16,16,17,17,18,18,19,19,20,20,21,21,22,22,23,23,24,24,26,26,27,27,28,28,29,29,30,30,31,31,32,32,33,33,34,34,35,35,36,36,37,37,38,38,39,39,40,40,41,41,42,42,44,44,45,45,46,46,48,48,49,49,50,50,51,51,52,52,53,53,54,54,56,56],"right_children":[2,4,6,8,10,12,14,16,18,20,22,24,26,28,30,32,34,36,38,40,42,44,46,48,50,-1,52,54,56,58,60,62,64,66,68,70,72,74,76,78,80,82,84,-1,86,88,90,-1,92,94,96,98,100,102,104,-1,106,-1,-1,-1,-1,-1,-1,-1,-1,-1,-1,-1,-1,-1,-1,-1,-1,-1,-1,-1,-1,-1,-1,-1,-1,-1,-1,-1,-1,-1,-1,-1,-1,-1,-1,-1,-1,-1,-1,-1,-1,-1,-1,-1,-1,-1,-1,-1,-1,-1,-1],"split_conditions":[4E0,9.99E2,6E1,5E1,3E0,7.3015875E-1,8.9E1,2E0,5.6E1,6.5E1,6.6E1,2.9E1,5E0,2.5771823E0,1.8504449E0,2.4355285E0,8E0,2.560382E0,8.545455E0,6.5555553E0,3E0,9E0,9.254383E-1,7E0,9.300414E-1,-2.7877573E-2,4E0,1E1,9.277519E-1,9.9887806E-1,1E1,2.2349222E0,9.987362E-1,9E0,7E0,-1.6666667E-1,6.714286E0,2.126225E0,2.50621E0,9E0,1.1E1,3.25E0,2.4E1,-4.347129E-2,2.3810656E0,3.5E1,3.25E0,-3.916884E-2,2.000691E0,2.44107E0,1.9716758E0,3.9E1,5.6E1,6.428571E0,7.3E1,4.0168215E-2,8E1,3.6868975E-2,-2.8093455E-2,4.433788E-2,3.314908E-3,4.1091703E-3,-1.989551E-2,1.9387338E-2,-1.8809784E-2,3.390918E-3,3.949667E-2,3.4697965E-2,1.2093913E-2,-4.4770655E-3,2.7809048E-2,-2.9845744E-2,-4.416059E-3,-1.4559694E-2,6.4500794E-3,3.1868286E-2,5.487314E-3,1.32370135E-2,-3.0753778E-3,-2.8950725E-2,-1.018872E-2,-3.7808564E-2,-2.128548E-2,1.7762626E-2,-1.6770957E-2,2.0094922E-4,-1.8536717E-2,2.4821764E-2,1.0486004E-2,2.5154913E-3,3.3900347E-2,1.7866826E-2,-8.796218E-3,2.2895288E-2,-4.4435263E-3,2.2361396E-2,-2.7271765E-3,9.856057E-3,3.513008E-2,4.4104647E-2,1.8810358E-2,6.182917E-3,4.4943213E-2,2.3989907E-2,3.631676E-2,3.3973157E-2,-3.3031811E-3],"split_indices":[37,24,1,1,34,2,1,4,11,1,1,1,1,0,0,0,27,3,8,8,28,1,14,1,14,0,19,42,14,13,49,0,13,1,25,12,8,0,0,27,1,8,11,0,0,11,8,0,0,0,0,11,1,8,1,0,1,0,0,0,0,0,0,0,0,0,0,0,0,0,0,0,0,0,0,0,0,0,0,0,0,0,0,0,0,0,0,0,0,0,0,0,0,0,0,0,0,0,0,0,0,0,0,0,0,0,0],"split_type":[0,0,0,0,0,0,0,0,0,0,0,0,0,0,0,0,0,0,0,0,0,0,0,0,0,0,0,0,0,0,0,0,0,0,0,0,0,0,0,0,0,0,0,0,0,0,0,0,0,0,0,0,0,0,0,0,0,0,0,0,0,0,0,0,0,0,0,0,0,0,0,0,0,0,0,0,0,0,0,0,0,0,0,0,0,0,0,0,0,0,0,0,0,0,0,0,0,0,0,0,0,0,0,0,0,0,0],"sum_hessian":[6.058438E3,5.230642E3,8.277961E2,1.02558E3,4.205062E3,2.245435E2,6.0325256E2,3.791872E2,6.463927E2,3.5945645E3,6.104978E2,1.595105E2,6.5033005E1,4.5910938E2,1.441432E2,2.8330453E2,9.588267E1,4.790618E2,1.6733092E2,1.5930972E3,2.0014672E3,2.4673236E2,3.6376544E2,5.371661E1,1.05793884E2,1.1852912E0,6.3847713E1,4.221458E2,3.6963566E1,6.008642E0,1.3813455E2,2.1829227E2,6.501225E1,2.609271E1,6.9789955E1,4.7486716E2,4.1946363E0,7.7904724E1,8.94262E1,1.01164386E3,5.8145337E2,1.8036619E3,1.9780525E2,1.1586464E1,2.3514589E2,2.4520909E2,1.18556366E2,3.6114166E0,5.0105194E1,6.329265E1,4.250124E1,2.5746664E1,3.810105E1,5.5283054E1,3.6686276E2,1.2169706E1,2.479386E1,3.8532116E0,2.1554306E0,1.3666808E2,1.4664743E0,1.5934412E2,5.894816E1,5.746684E1,7.545415E0,1.1393838E0,2.4953327E1,2.2539526E1,4.7250435E1,9.312887E0,4.6555426E2,2.6657486E0,1.5288877E0,3.360834E1,4.4296383E1,6.787005E1,2.1556145E1,1.4841841E2,8.632254E2,4.4879017E1,5.365744E2,2.4205287E2,1.561609E3,1.2438144E2,7.342381E1,1.8505656E2,5.0089336E1,1.2946532E2,1.15743774E2,5.491151E0,1.13065216E2,6.6471205E0,4.3458073E1,5.3243988E1,1.0048661E1,7.886751E0,3.4614487E1,1.385564E1,1.1891023E1,3.397718E1,4.1238723E0,1.0151744E0,5.426788E1,9.9037926E1,2.6782483E2,5.9389973E0,1.8854862E1],"tree_param":{"num_deleted":"0","num_feature":"51","num_nodes":"107","size_leaf_vector":"1"}},{"base_weights":[1.5246915E-3,-8.622558E-2,5.777434E-1,3.4936363E-1,-1.9003366E-1,5.430816E-1,8.2008135E-1,3.9227757E-1,1.1958395E-1,-2.5976068E-1,2.4386929E-1,6.959409E-1,4.982192E-1,8.404763E-1,2.6548925E-1,3.4693584E-1,5.31661E-1,-1.8010488E-1,3.1476632E-1,-5.5923533E-2,-4.5065284E-1,3.3048436E-1,1.411892E-1,5.661015E-1,8.0814874E-1,3.731731E-1,5.8126265E-1,3.030066E-3,8.5687214E-1,2.6295891E-2,-1.4655516E-2,2.3073359E-1,4.3387496E-1,-5.404131E-2,5.611922E-1,-1.1322232E-1,-2.9776404E-2,4.433451E-1,-1.667406E-1,-1.2018737E-1,2.5909E-1,5.685575E-1,-4.5983964E-1,8.0702595E-2,3.7472665E-1,-2.6279035E-1,1.9787626E-1,6.381209E-1,2.0381269E-1,4.0971503E-2,3.883422E-1,4.665002E-1,-8.943906E-4,2.9008985E-1,6.20632E-1,4.427059E-3,4.3453828E-2,1.2438519E-2,-3.182813E-2,-1.7464971E-2,2.2302862E-2,-2.2606237E-2,1.36055425E-2,2.585276E-2,4.11505E-2,-7.1002343E-3,2.8091738E-2,8.5545E-3,2.9914001E-2,-1.652131E-2,1.3568522E-2,-2.063117E-2,-2.5628859E-3,1.848223E-2,4.441085E-3,3.4207337E-2,-1.0627001E-2,-2.454481E-2,-8.898401E-3,-1.3644315E-2,1.4520459E-2,1.6229175E-2,2.7763981E-2,-2.3409506E-2,-4.86559E-3,-5.5547934E-3,1.1635297E-2,1.1857498E-3,3.3705205E-2,1.64044E-2,-1.4516383E-2,-4.9327114E-3,2.9954208E-2,2.4805399E-2,-1.2774557E-2,2.9785505E-3,-3.1623498E-2,2.115166E-2,-1.6820071E-2,3.1649005E-2,-1.6627731E-3],"categories":[],"categories_nodes":[],"categories_segments":[],"categories_sizes":[],"default_left":[0,0,0,0,0,0,0,0,0,0,0,0,0,0,0,0,0,0,0,0,0,0,0,0,0,0,0,0,0,0,0,0,0,0,0,0,0,0,0,0,0,0,0,0,0,0,0,0,0,0,0,0,0,0,0,0,0,0,0,0,0,0,0,0,0,0,0,0,0,0,0,0,0,0,0,0,0,0,0,0,0,0,0,0,0,0,0,0,0,0,0,0,0,0,0,0,0,0,0,0,0],"id":4,"left_children":[1,3,5,7,9,11,13,15,17,19,21,23,25,27,29,31,33,35,37,39,41,43,45,47,49,51,53,-1,55,-1,-1,57,59,61,63,65,-1,67,69,71,73,75,77,79,81,83,85,87,89,-1,91,93,95,97,99,-1,-1,-1,-1,-1,-1,-1,-1,-1,-1,-1,-1,-1,-1,-1,-1,-1,-1,-1,-1,-1,-1,-1,-1,-1,-1,-1,-1,-1,-1,-1,-1,-1,-1,-1,-1,-1,-1,-1,-1,-1,-1,-1,-1,-1,-1],"loss_changes":[2.8738058E2,2.2310027E2,5.8641357E0,9.316956E0,1.2059334E2,4.180069E0,8.178253E-1,4.869766E0,8.882224E0,1.3354669E2,4.863285E0,1.6878967E0,5.1190796E0,1.0772209E0,8.416874E-1,6.0251694E0,3.393116E0,1.6036602E0,5.753376E0,3.366114E1,1.6858185E1,3.2708626E0,5.876859E0,1.7382183E0,4.480362E-2,7.256922E0,3.339119E0,0E0,7.333298E-1,0E0,0E0,4.2509604E0,3.4539871E0,1.4531096E0,1.7143211E0,1.1103137E0,0E0,2.9631891E0,1.5282427E0,2.7805126E1,5.271614E0,1.615397E0,1.5295502E1,3.50668E0,2.1147842E0,1.032891E0,2.4323912E0,1.2941685E0,9.146412E-1,0E0,4.6005917E-1,3.6828957E0,1.6607815E0,3.3440793E0,2.1974869E0,0E0,0E0,0E0,0E0,0E0,0E0,0E0,0E0,0E0,0E0,0E0,0E0,0E0,0E0,0E0,0E0,0E0,0E0,0E0,0E0,0E0,0E0,0E0,0E0,0E0,0E0,0E0,0E0,0E0,0E0,0E0,0E0,0E0,0E0,0E0,0E0,0E0,0E0,0E0,0E0,0E0,0E0,0E0,0E0,0E0,0E0],"parents":[2147483647,0,0,1,1,2,2,3,3,4,4,5,5,6,6,7,7,8,8,9,9,10,10,11,11,12,12,13,13,14,14,15,15,16,16,17,17,18,18,19,19,20,20,21,21,22,22,23,23,24,24,25,25,26,26,28,28,31,31,32,32,33,33,34,34,35,35,37,37,38,38,39,39,40,40,41,41,42,42,43,43,44,44,45,45,46,46,47,47,48,48,50,50,51,51,52,52,53,53,54,54],"right_children":[2,4,6,8,10,12,14,16,18,20,22,24,26,28,30,32,34,36,38,40,42,44,46,48,50,52,54,-1,56,-1,-1,58,60,62,64,66,-1,68,70,72,74,76,78,80,82,84,86,88,90,-1,92,94,96,98,100,-1,-1,-1,-1,-1,-1,-1,-1,-1,-1,-1,-1,-1,-1,-1,-1,-1,-1,-1,-1,-1,-1,-1,-1,-1,-1,-1,-1,-1,-1,-1,-1,-1,-1,-1,-1,-1,-1,-1,-1,-1,-1,-1,-1,-1,-1],"split_conditions":[4E0,9.99E2,8E0,6E1,4E0,9.003574E-1,5.8E1,9E0,8.545455E0,9.028746E-1,3.6E1,2.311293E0,2.7272728E-1,3E0,6E0,2.199643E0,9.1469526E-1,7.5E1,2.5094461E0,3E0,1E0,4E0,5.2E0,9.2673653E-1,8.997887E-1,9.369893E-1,9.0893114E-1,3.030066E-3,9.140528E-1,2.6295891E-2,-1.4655516E-2,2.1602468E0,4E0,9.853439E-1,1E0,9.993513E-1,-2.9776404E-2,9.3082905E-1,9.4945157E-1,3.25E0,5.571429E0,2.1288516E-1,2E0,9.1687316E-1,2.4143987E0,4.2E0,9.11873E-1,2E1,2.2657828E0,4.0971503E-2,9.959403E-1,7E0,1E1,3.8666668E1,5.2E1,4.427059E-3,4.3453828E-2,1.2438519E-2,-3.182813E-2,-1.7464971E-2,2.2302862E-2,-2.2606237E-2,1.36055425E-2,2.585276E-2,4.11505E-2,-7.1002343E-3,2.8091738E-2,8.5545E-3,2.9914001E-2,-1.652131E-2,1.3568522E-2,-2.063117E-2,-2.5628859E-3,1.848223E-2,4.441085E-3,3.4207337E-2,-1.0627001E-2,-2.454481E-2,-8.898401E-3,-1.3644315E-2,1.4520459E-2,1.6229175E-2,2.7763981E-2,-2.3409506E-2,-4.86559E-3,-5.5547934E-3,1.1635297E-2,1.1857498E-3,3.3705205E-2,1.64044E-2,-1.4516383E-2,-4.9327114E-3,2.9954208E-2,2.4805399E-2,-1.2774557E-2,2.9785505E-3,-3.1623498E-2,2.115166E-2,-1.6820071E-2,3.1649005E-2,-1.6627731E-3],"split_indices":[37,24,43,11,34,10,11,25,9,10,11,0,12,4,4,0,14,11,0,28,9,33,9,14,10,10,10,0,14,0,0,3,18,13,19,13,0,14,10,9,9,2,28,14,0,9,14,11,0,0,13,40,49,11,11,0,0,0,0,0,0,0,0,0,0,0,0,0,0,0,0,0,0,0,0,0,0,0,0,0,0,0,0,0,0,0,0,0,0,0,0,0,0,0,0,0,0,0,0,0,0],"split_type":[0,0,0,0,0,0,0,0,0,0,0,0,0,0,0,0,0,0,0,0,0,0,0,0,0,0,0,0,0,0,0,0,0,0,0,0,0,0,0,0,0,0,0,0,0,0,0,0,0,0,0,0,0,0,0,0,0,0,0,0,0,0,0,0,0,0,0,0,0,0,0,0,0,0,0,0,0,0,0,0,0,0,0,0,0,0,0,0,0,0,0,0,0,0,0,0,0,0,0,0,0],"sum_hessian":[5.68159E3,4.9314478E3,7.50142E2,9.4861163E2,3.982836E3,6.5911E2,9.10321E1,7.987323E2,1.4987936E2,3.4317625E3,5.5107355E2,1.4625684E2,5.128531E2,8.730597E1,3.726132E0,6.053121E2,1.9342021E2,5.914445E1,9.073492E1,1.6602349E3,1.7715277E3,2.977175E2,2.5335605E2,7.0603874E1,7.565297E1,2.0685953E2,3.059936E2,1.894399E0,8.541157E1,2.5812266E0,1.1449052E0,2.6062128E2,3.446908E2,9.244337E0,1.8417587E2,5.2038822E1,7.1056323E0,7.167461E1,1.9060312E1,1.3794424E3,2.8079248E2,1.5281395E1,1.7562463E3,4.5223E1,2.5249449E2,3.0729181E1,2.2262686E2,5.826084E1,1.2343034E1,7.274617E1,2.906798E0,1.6535706E2,4.1502476E1,3.7442223E1,2.6855136E2,1.4645599E0,8.394701E1,2.560103E2,4.610969E0,4.8556786E0,3.398351E2,3.9891548E0,5.2551823E0,1.601524E2,2.4023468E1,5.066813E1,1.3706933E0,2.6758404E1,4.49162E1,1.4054943E1,5.005369E0,2.6217432E2,1.1172681E3,1.6953989E2,1.1125258E2,1.3419638E1,1.8617574E0,1.5812797E3,1.7496657E2,1.6723694E1,2.8499306E1,1.9980295E2,5.2691544E1,1.2894549E1,1.7834631E1,2.2331917E1,2.0029494E2,3.3151057E0,5.4945736E1,1.0131121E1,2.211913E0,1.0386014E0,1.8681965E0,1.5914366E2,6.213384E0,3.8702843E1,2.7996306E0,3.1155657E1,6.286567E0,2.6360538E2,4.945996E0],"tree_param":{"num_deleted":"0","num_feature":"51","num_nodes":"101","size_leaf_vector":"1"}},{"base_weights":[-6.7298636E-3,-9.577569E-2,5.242411E-1,3.1872723E-1,-1.972424E-1,2.0447777E-1,6.647862E-1,1.3683474E-1,4.1959706E-1,-2.7334458E-1,1.9483092E-1,7.3113374E-2,5.2034706E-1,4.6365702E-1,7.0354414E-1,-3.7914715E-3,4.7924975E-1,4.741432E-1,1.511103E-1,-7.7997856E-2,-4.5780906E-1,-2.1936394E-1,3.8173747E-1,-4.8414182E-2,2.3778675E-1,-3.040962E-2,5.5259264E-1,2.4523644E-1,7.259281E-1,7.1415585E-1,1.9105749E-1,-9.640097E-2,2.4043843E-1,-3.27663E-2,5.085816E-1,2.7011603E-1,5.22842E-1,-7.6266E-2,5.449963E-1,-1.4154793E-1,2.4992126E-1,-2.558049E-1,-5.730007E-1,-8.939255E-2,-4.0296292E-1,5.270591E-1,2.812991E-1,1.7834392E-1,-1.860994E-1,6.684671E-2,4.6646607E-1,1.6810462E-1,6.4936507E-1,-1.8041079E-1,3.3377126E-1,7.79144E-1,-9.617763E-2,6.371562E-1,7.76397E-1,3.6645204E-2,-3.7482852E-1,1.3009402E-3,-2.390661E-2,2.522698E-2,-1.5852318E-4,3.7727356E-2,2.068704E-2,-8.510125E-4,2.1630622E-2,-1.0984511E-2,2.6630348E-2,2.5891436E-3,-2.3172127E-2,-1.0910513E-2,3.2384284E-2,-2.6417762E-2,-3.2477372E-3,8.113337E-3,2.4957012E-2,3.0069083E-2,-1.3726264E-2,-3.053875E-2,-1.0381777E-2,-3.6708977E-2,-2.6741594E-3,-3.9093155E-2,-1.831524E-2,1.4898098E-2,3.1100003E-2,-8.398588E-3,2.0280823E-2,1.9727997E-2,-4.749078E-3,-2.7651502E-2,-1.0570328E-3,1.7388787E-2,-1.4483625E-2,2.5838915E-2,-1.9413676E-2,-1.2624877E-2,2.1442544E-2,3.432777E-2,-2.4207028E-2,-1.9722624E-2,2.3282511E-2,-7.984192E-3,1.9577598E-2,-5.5573634E-3,4.10055E-2,-2.9072464E-2,2.3938831E-2,3.4100596E-2,1.6230682E-2,2.7436806E-2,3.9548304E-2,-2.743218E-2,8.561297E-3],"categories":[],"categories_nodes":[],"categories_segments":[],"categories_sizes":[],"default_left":[0,0,0,0,0,0,0,0,0,0,0,0,0,0,0,0,0,0,0,0,0,0,0,0,0,0,0,0,0,0,0,0,0,0,0,0,0,0,0,0,0,0,0,0,0,0,0,0,0,0,0,0,0,0,0,0,0,0,0,0,0,0,0,0,0,0,0,0,0,0,0,0,0,0,0,0,0,0,0,0,0,0,0,0,0,0,0,0,0,0,0,0,0,0,0,0,0,0,0,0,0,0,0,0,0,0,0,0,0,0,0,0,0,0,0,0,0],"id":5,"left_children":[1,3,5,7,9,11,13,15,17,19,21,23,25,27,29,31,33,35,37,39,41,43,45,47,49,-1,51,53,55,57,59,61,63,-1,65,67,69,71,73,75,77,79,81,83,85,87,89,91,93,95,97,99,101,103,105,107,109,111,113,-1,115,-1,-1,-1,-1,-1,-1,-1,-1,-1,-1,-1,-1,-1,-1,-1,-1,-1,-1,-1,-1,-1,-1,-1,-1,-1,-1,-1,-1,-1,-1,-1,-1,-1,-1,-1,-1,-1,-1,-1,-1,-1,-1,-1,-1,-1,-1,-1,-1,-1,-1,-1,-1,-1,-1,-1,-1],"loss_changes":[2.5501799E2,1.9432982E2,3.467714E1,1.6615288E1,1.1078905E2,9.835965E0,3.8651428E0,1.5682766E1,8.481995E0,1.11974884E2,4.6831562E1,3.3982043E0,2.8736687E0,4.9663887E0,2.3047028E0,5.26689E0,3.4886131E0,4.6774445E0,9.005785E0,3.1521172E1,3.705008E1,4.4596367E0,5.9302826E0,3.0991743E0,2.784431E0,0E0,2.432848E0,1.9635842E0,1.83782E0,1.6111603E0,3.4854155E0,7.9012227E0,4.120925E0,0E0,1.8569813E0,4.4642377E0,2.9481354E0,3.2136226E0,3.0219593E0,3.7480675E1,5.2849417E0,9.509594E0,1.391214E1,2.5445685E0,7.942724E-1,3.4917297E0,1.3941904E1,2.2601812E0,3.7163124E0,4.345866E0,1.5184307E0,1.7628827E0,2.6185799E0,1.4760604E0,1.2646551E0,1.4754486E0,1.2102495E0,2.6103592E0,3.5671997E-1,0E0,6.4287657E-1,0E0,0E0,0E0,0E0,0E0,0E0,0E0,0E0,0E0,0E0,0E0,0E0,0E0,0E0,0E0,0E0,0E0,0E0,0E0,0E0,0E0,0E0,0E0,0E0,0E0,0E0,0E0,0E0,0E0,0E0,0E0,0E0,0E0,0E0,0E0,0E0,0E0,0E0,0E0,0E0,0E0,0E0,0E0,0E0,0E0,0E0,0E0,0E0,0E0,0E0,0E0,0E0,0E0,0E0,0E0,0E0],"parents":[2147483647,0,0,1,1,2,2,3,3,4,4,5,5,6,6,7,7,8,8,9,9,10,10,11,11,12,12,13,13,14,14,15,15,16,16,17,17,18,18,19,19,20,20,21,21,22,22,23,23,24,24,26,26,27,27,28,28,29,29,30,30,31,31,32,32,34,34,35,35,36,36,37,37,38,38,39,39,40,40,41,41,42,42,43,43,44,44,45,45,46,46,47,47,48,48,49,49,50,50,51,51,52,52,53,53,54,54,55,55,56,56,57,57,58,58,60,60],"right_children":[2,4,6,8,10,12,14,16,18,20,22,24,26,28,30,32,34,36,38,40,42,44,46,48,50,-1,52,54,56,58,60,62,64,-1,66,68,70,72,74,76,78,80,82,84,86,88,90,92,94,96,98,100,102,104,106,108,110,112,114,-1,116,-1,-1,-1,-1,-1,-1,-1,-1,-1,-1,-1,-1,-1,-1,-1,-1,-1,-1,-1,-1,-1,-1,-1,-1,-1,-1,-1,-1,-1,-1,-1,-1,-1,-1,-1,-1,-1,-1,-1,-1,-1,-1,-1,-1,-1,-1,-1,-1,-1,-1,-1,-1,-1,-1,-1,-1],"split_conditions":[4E0,9.99E2,5.9E1,5E1,3E0,2E0,7E1,2E0,6.1E1,9.025894E-1,5.3E1,3.7E1,5E0,2E0,5.1E1,2.4207573E0,7E0,2.0339634E0,5.620915E-1,3E0,6.4E1,2.3529412E-1,3.1285715E1,2.9666666E1,2.2307763E0,-3.040962E-2,3.6363637E-1,2.1288516E-1,2.485955E0,5.4545456E-1,2.2854078E0,2.2349222E0,9.0736735E-1,-3.27663E-2,8E0,6.8E0,-1.6666667E-1,7.3E1,9.227947E-1,3.25E0,7.5E1,1E0,2E0,9E0,9E0,6.8E1,5.2E0,7.1E0,2E1,2.101009E0,4.8E1,5E0,1.5714285E0,9.258435E-1,1.8745956E0,6.428571E0,2.516631E0,9.369893E-1,1.8557987E0,3.6645204E-2,2.4634202E0,1.3009402E-3,-2.390661E-2,2.522698E-2,-1.5852318E-4,3.7727356E-2,2.068704E-2,-8.510125E-4,2.1630622E-2,-1.0984511E-2,2.6630348E-2,2.5891436E-3,-2.3172127E-2,-1.0910513E-2,3.2384284E-2,-2.6417762E-2,-3.2477372E-3,8.113337E-3,2.4957012E-2,3.0069083E-2,-1.3726264E-2,-3.053875E-2,-1.0381777E-2,-3.6708977E-2,-2.6741594E-3,-3.9093155E-2,-1.831524E-2,1.4898098E-2,3.1100003E-2,-8.398588E-3,2.0280823E-2,1.9727997E-2,-4.749078E-3,-2.7651502E-2,-1.0570328E-3,1.7388787E-2,-1.4483625E-2,2.5838915E-2,-1.9413676E-2,-1.2624877E-2,2.1442544E-2,3.432777E-2,-2.4207028E-2,-1.9722624E-2,2.3282511E-2,-7.984192E-3,1.9577598E-2,-5.5573634E-3,4.10055E-2,-2.9072464E-2,2.3938831E-2,3.4100596E-2,1.6230682E-2,2.7436806E-2,3.9548304E-2,-2.743218E-2,8.561297E-3],"split_indices":[37,24,1,1,34,4,1,4,11,10,1,1,1,4,11,0,1,0,2,28,1,2,11,11,0,0,12,2,0,12,0,0,10,0,27,8,12,11,14,8,1,8,28,1,1,1,8,8,1,0,11,30,12,14,0,8,0,10,0,0,0,0,0,0,0,0,0,0,0,0,0,0,0,0,0,0,0,0,0,0,0,0,0,0,0,0,0,0,0,0,0,0,0,0,0,0,0,0,0,0,0,0,0,0,0,0,0,0,0,0,0,0,0,0,0,0,0],"split_type":[0,0,0,0,0,0,0,0,0,0,0,0,0,0,0,0,0,0,0,0,0,0,0,0,0,0,0,0,0,0,0,0,0,0,0,0,0,0,0,0,0,0,0,0,0,0,0,0,0,0,0,0,0,0,0,0,0,0,0,0,0,0,0,0,0,0,0,0,0,0,0,0,0,0,0,0,0,0,0,0,0,0,0,0,0,0,0,0,0,0,0,0,0,0,0,0,0,0,0,0,0,0,0,0,0,0,0,0,0,0,0,0,0,0,0,0,0],"sum_hessian":[5.391635E3,4.6179985E3,7.736361E2,9.077198E2,3.7102786E3,2.3696245E2,5.3667365E2,3.2465167E2,5.830681E2,3.1074243E3,6.0285425E2,1.6823004E2,6.873241E1,8.880321E1,4.4787042E2,2.308379E2,9.381376E1,4.839767E2,9.9091385E1,1.5098867E3,1.5975377E3,1.8739758E2,4.1545667E2,9.720188E1,7.102816E1,1.4131548E0,6.731925E1,4.9507874E1,3.9295334E1,4.3839926E2,9.471159E0,1.6781097E2,6.302693E1,1.8263803E0,9.198738E1,9.452092E1,3.894558E2,6.3336098E1,3.5755287E1,1.2652518E3,2.4463495E2,5.8132556E2,1.0162121E3,1.1059398E2,7.6803604E1,1.6805492E2,2.4740175E2,3.6610916E1,6.0590965E1,4.1384876E1,2.9643288E1,1.4087012E1,5.3232235E1,8.345865E0,4.116201E1,3.695542E1,2.3399112E0,2.00989E2,2.3741028E2,4.687574E0,4.783585E0,1.27768074E2,4.00429E1,2.972758E1,3.3299355E1,2.3662859E1,6.832452E1,3.448323E1,6.003769E1,4.7761745E0,3.8467963E2,4.8246155E1,1.5089944E1,4.1069202E0,3.1648369E1,2.0815236E2,1.0570995E3,1.822024E2,6.243256E1,1.1759214E1,5.6956635E2,9.2038416E2,9.5827965E1,4.8084426E0,1.0578554E2,4.981898E0,7.182171E1,5.045146E1,1.17603455E2,5.3544815E1,1.9385693E2,2.0193306E1,1.6417608E1,1.806191E1,4.2529057E1,2.3159916E1,1.822496E1,2.836882E1,1.2744673E0,5.4030867E0,8.683927E0,5.1922947E1,1.3092885E0,6.56148E0,1.7843851E0,4.129751E0,3.7032257E1,1.550306E0,3.5405117E1,1.262794E0,1.0771173E0,1.7472984E2,2.6259144E1,1.6604689E1,2.2080559E2,3.624975E0,1.1586102E0],"tree_param":{"num_deleted":"0","num_feature":"51","num_nodes":"117","size_leaf_vector":"1"}},{"base_weights":[-7.0515554E-3,-9.3518354E-2,5.110876E-1,3.1147307E-1,-1.9569756E-1,2.2573242E-1,6.248091E-1,1.7047869E-1,3.9078045E-1,-2.690966E-1,1.8627706E-1,1.4433762E-1,7.406634E-1,5.243518E-1,6.864164E-1,6.2388122E-2,4.381257E-1,3.253786E-1,5.386025E-1,-9.110058E-2,-4.4408303E-1,-1.558908E-1,3.5572776E-1,5.3910054E-2,3.573376E-1,7.786902E-1,1.818529E-4,5.9242177E-1,5.4001283E-2,4.7332326E-1,7.220986E-1,1.9654284E-1,-1.2690458E-1,4.9789792E-1,-1.4957328E-1,3.9074415E-1,-7.2522074E-2,6.2553835E-1,2.1522303E-1,-1.5138198E-1,2.1733008E-1,-2.5649247E-1,-5.583618E-1,-3.9417695E-2,-1.20590925E-1,1.7343941E-1,4.2000255E-1,1.1195626E-1,-3.7866986E-1,6.347801E-1,2.1162754E-1,1.94247E-3,4.0409938E-2,6.2520885E-1,-3.2101768E-1,-3.0255002E-1,2.2291864E-1,1.2625892E-1,7.113149E-1,7.455028E-1,5.010198E-1,-1.2470382E-3,1.4553315E-2,1.2495284E-2,-8.568037E-3,2.0324234E-2,3.552359E-2,1.7406732E-2,-3.1139879E-2,-6.9543063E-3,2.0999208E-2,2.6158986E-3,-1.6279073E-2,3.3832874E-2,-1.04876E-2,1.9971231E-2,-1.1873501E-2,-2.657604E-2,-4.031973E-3,1.6446902E-3,1.598513E-2,3.378483E-2,-1.3892849E-2,-2.9914742E-2,-9.496293E-3,3.5011504E-2,-7.2594867E-3,1.502906E-2,-9.7286154E-4,2.707154E-2,1.4030116E-2,1.7114122E-3,1.854888E-2,-2.6688194E-2,3.4793485E-3,3.783806E-2,-4.7172736E-3,-3.7121307E-3,2.0916205E-2,2.0432761E-2,3.4803703E-2,-3.378732E-2,2.6720552E-2,9.003217E-3,-2.2005191E-2,2.1857407E-2,-1.2646983E-2,-2.9628319E-3,2.9986644E-2,1.5577011E-2,4.041906E-2,2.4422212E-2,3.831835E-2,3.6678914E-2,-8.188151E-3],"categories":[],"categories_nodes":[],"categories_segments":[],"categories_sizes":[],"default_left":[0,0,0,0,0,0,0,0,0,0,0,0,0,0,0,0,0,0,0,0,0,0,0,0,0,0,0,0,0,0,0,0,0,0,0,0,0,0,0,0,0,0,0,0,0,0,0,0,0,0,0,0,0,0,0,0,0,0,0,0,0,0,0,0,0,0,0,0,0,0,0,0,0,0,0,0,0,0,0,0,0,0,0,0,0,0,0,0,0,0,0,0,0,0,0,0,0,0,0,0,0,0,0,0,0,0,0,0,0,0,0,0,0,0,0],"id":6,"left_children":[1,3,5,7,9,11,13,15,17,19,21,23,25,27,29,31,33,35,37,39,41,43,45,47,49,51,-1,53,55,57,59,61,63,65,67,69,71,73,75,77,79,81,83,-1,85,87,89,91,93,95,97,-1,-1,99,101,103,105,107,109,111,113,-1,-1,-1,-1,-1,-1,-1,-1,-1,-1,-1,-1,-1,-1,-1,-1,-1,-1,-1,-1,-1,-1,-1,-1,-1,-1,-1,-1,-1,-1,-1,-1,-1,-1,-1,-1,-1,-1,-1,-1,-1,-1,-1,-1,-1,-1,-1,-1,-1,-1,-1,-1,-1,-1],"loss_changes":[2.3277295E2,1.8431302E2,2.3971497E1,9.968323E0,9.9750244E1,8.833271E0,2.9247894E0,9.370397E0,5.370079E0,9.2880066E1,3.3323204E1,3.5523531E0,8.063755E-1,6.563175E0,2.1351013E0,5.9306693E0,3.3513298E0,1.0436512E1,4.7685738E0,2.7553528E1,3.210135E1,4.1631913E0,4.4268E0,3.3404717E0,2.0925303E0,5.6791115E-1,0E0,5.587002E0,1.7021929E0,4.0091534E0,1.0603638E0,2.8648162E0,1.6688141E0,1.3610401E0,2.4261966E0,5.3857117E0,1.827478E0,5.9888077E0,3.3033676E0,3.3270393E1,4.5664644E0,1.15648575E1,1.36258545E1,0E0,3.7730381E0,2.5029209E0,4.6422577E0,2.3344162E0,1.1333606E0,1.713933E0,2.2537737E0,0E0,0E0,2.385086E0,2.4526393E0,6.866449E-1,2.0467982E0,1.9154706E0,8.821306E-1,9.5869446E-1,4.692949E0,0E0,0E0,0E0,0E0,0E0,0E0,0E0,0E0,0E0,0E0,0E0,0E0,0E0,0E0,0E0,0E0,0E0,0E0,0E0,0E0,0E0,0E0,0E0,0E0,0E0,0E0,0E0,0E0,0E0,0E0,0E0,0E0,0E0,0E0,0E0,0E0,0E0,0E0,0E0,0E0,0E0,0E0,0E0,0E0,0E0,0E0,0E0,0E0,0E0,0E0,0E0,0E0,0E0,0E0],"parents":[2147483647,0,0,1,1,2,2,3,3,4,4,5,5,6,6,7,7,8,8,9,9,10,10,11,11,12,12,13,13,14,14,15,15,16,16,17,17,18,18,19,19,20,20,21,21,22,22,23,23,24,24,25,25,27,27,28,28,29,29,30,30,31,31,32,32,33,33,34,34,35,35,36,36,37,37,38,38,39,39,40,40,41,41,42,42,44,44,45,45,46,46,47,47,48,48,49,49,50,50,53,53,54,54,55,55,56,56,57,57,58,58,59,59,60,60],"right_children":[2,4,6,8,10,12,14,16,18,20,22,24,26,28,30,32,34,36,38,40,42,44,46,48,50,52,-1,54,56,58,60,62,64,66,68,70,72,74,76,78,80,82,84,-1,86,88,90,92,94,96,98,-1,-1,100,102,104,106,108,110,112,114,-1,-1,-1,-1,-1,-1,-1,-1,-1,-1,-1,-1,-1,-1,-1,-1,-1,-1,-1,-1,-1,-1,-1,-1,-1,-1,-1,-1,-1,-1,-1,-1,-1,-1,-1,-1,-1,-1,-1,-1,-1,-1,-1,-1,-1,-1,-1,-1,-1,-1,-1,-1,-1,-1],"split_conditions":[4E0,9.99E2,5.7E1,5E1,3E0,8E0,2.7272728E-1,2E0,8.833333E0,9.025894E-1,5.5E1,4.2E1,5.6E1,9.369893E-1,6.8E1,9.201422E-1,5.9E1,5.7E1,2.4714963E0,3E0,6.4E1,9E0,6.8E1,9.355228E-1,2.0339634E0,3E1,1.818529E-4,7E0,7.375E0,2E0,2.6083093E0,2.162772E0,1.8952383E0,3.3E1,9.2523867E-1,8E0,6.7E1,5E-1,6.6E1,3.25E0,3.1E1,1E0,2E0,-3.9417695E-2,1E1,9.2703176E-1,3.5E1,9.9877936E-1,2.3485947E0,9.5000875E-1,2.20126E0,1.94247E-3,4.0409938E-2,7.3E1,1E0,7E0,9.3E0,9.3363595E-1,1.9497836E0,1.8557987E0,9.3606526E-1,-1.2470382E-3,1.4553315E-2,1.2495284E-2,-8.568037E-3,2.0324234E-2,3.552359E-2,1.7406732E-2,-3.1139879E-2,-6.9543063E-3,2.0999208E-2,2.6158986E-3,-1.6279073E-2,3.3832874E-2,-1.04876E-2,1.9971231E-2,-1.1873501E-2,-2.657604E-2,-4.031973E-3,1.6446902E-3,1.598513E-2,3.378483E-2,-1.3892849E-2,-2.9914742E-2,-9.496293E-3,3.5011504E-2,-7.2594867E-3,1.502906E-2,-9.7286154E-4,2.707154E-2,1.4030116E-2,1.7114122E-3,1.854888E-2,-2.6688194E-2,3.4793485E-3,3.783806E-2,-4.7172736E-3,-3.7121307E-3,2.0916205E-2,2.0432761E-2,3.4803703E-2,-3.378732E-2,2.6720552E-2,9.003217E-3,-2.2005191E-2,2.1857407E-2,-1.2646983E-2,-2.9628319E-3,2.9986644E-2,1.5577011E-2,4.041906E-2,2.4422212E-2,3.831835E-2,3.6678914E-2,-8.188151E-3],"split_indices":[37,24,1,1,34,19,12,4,8,10,1,1,1,10,1,10,11,11,0,28,1,1,1,14,0,11,0,40,8,4,0,0,0,1,14,48,11,3,11,8,1,8,28,0,1,10,11,13,0,10,0,0,0,1,46,37,8,14,0,0,14,0,0,0,0,0,0,0,0,0,0,0,0,0,0,0,0,0,0,0,0,0,0,0,0,0,0,0,0,0,0,0,0,0,0,0,0,0,0,0,0,0,0,0,0,0,0,0,0,0,0,0,0,0,0],"split_type":[0,0,0,0,0,0,0,0,0,0,0,0,0,0,0,0,0,0,0,0,0,0,0,0,0,0,0,0,0,0,0,0,0,0,0,0,0,0,0,0,0,0,0,0,0,0,0,0,0,0,0,0,0,0,0,0,0,0,0,0,0,0,0,0,0,0,0,0,0,0,0,0,0,0,0,0,0,0,0,0,0,0,0,0,0,0,0,0,0,0,0,0,0,0,0,0,0,0,0,0,0,0,0,0,0,0,0,0,0,0,0,0,0,0,0],"sum_hessian":[5.1935454E3,4.451501E3,7.420447E2,8.964271E2,3.5550737E3,2.1230469E2,5.2974E2,3.238424E2,5.725847E2,2.9822998E3,5.727739E2,1.8443196E2,2.787273E1,2.0499126E2,3.2474872E2,2.3155919E2,9.228321E1,3.991759E2,1.7340881E2,1.4791897E3,1.50311E3,1.897322E2,3.8304175E2,1.3034714E2,5.408482E1,2.645144E1,1.4212885E0,1.7884845E2,2.6142807E1,4.8625195E1,2.7612354E2,1.3549408E2,9.60651E1,8.390266E1,8.380559E0,3.4286877E2,5.630715E1,1.3593129E2,3.7477512E1,1.2377803E3,2.414095E2,5.7026117E2,9.3284875E2,8.902061E0,1.8083012E2,1.00816536E2,2.822252E2,1.1557921E2,1.4767933E1,1.7468004E1,3.6616814E1,1.1034021E0,2.534804E1,1.7295589E2,5.8925576E0,8.149566E0,1.7993242E1,2.0402563E1,2.8222631E1,2.4754533E2,2.8578197E1,4.0748936E1,9.4745155E1,9.650038E0,8.641506E1,6.0708397E1,2.3194254E1,4.2134495E0,4.1671095E0,1.7735947E1,3.251328E2,3.8237144E1,1.8070007E1,1.282711E2,7.6601844E0,2.672197E1,1.0755545E1,1.9318373E2,1.0445966E3,8.663946E1,1.5477003E2,1.2090595E1,5.581706E2,8.410658E2,9.178297E1,4.462369E0,1.7636775E2,6.0428646E1,4.038789E1,1.4929442E2,1.3293079E2,8.97722E1,2.580701E1,1.08300495E1,3.9378834E0,1.493201E1,2.5359943E0,1.5634477E1,2.0982338E1,4.4311882E1,1.2864401E2,4.3137736E0,1.5787836E0,1.7390333E0,6.4105325E0,1.246355E1,5.5296917E0,1.5287496E1,5.115067E0,6.3361754E0,2.1886456E1,2.0416245E1,2.2712909E2,2.1095095E1,7.4831033E0],"tree_param":{"num_deleted":"0","num_feature":"51","num_nodes":"115","size_leaf_vector":"1"}},{"base_weights":[3.5215588E-3,-7.9504855E-2,5.0627905E-1,3.1392553E-1,-1.7708558E-1,1.43299E-1,6.2870026E-1,1.8420634E-1,4.1641507E-1,-2.4887265E-1,1.978468E-1,7.080716E-1,4.7370672E-2,8.023967E-1,5.8654517E-1,9.070584E-2,4.334129E-1,3.3505687E-1,5.797549E-1,-7.017155E-2,-4.26679E-1,-1.3870005E-1,3.7089965E-1,1.2826169E-2,7.337436E-1,9.153887E-2,-3.1424162E-1,5.0515604E-1,8.3300734E-1,5.5505556E-1,7.933199E-1,3.4549725E-1,-8.965206E-4,5.4666334E-1,1.9337562E-1,4.1001704E-1,-5.9668206E-2,6.2725717E-1,-4.073234E-3,-1.3184568E-1,2.3352052E-1,-2.3890124E-1,-5.466801E-1,-3.6386976E-1,-3.0482789E-3,4.6532714E-1,2.6159832E-1,1.1416725E-2,3.7933208E-2,-8.674287E-2,1.7358732E-1,-6.267623E-1,8.95338E-2,-2.1729742E-3,6.295397E-1,1.1404088E-2,4.206679E-2,3.5446993E-1,6.027207E-1,7.9656736E-4,8.1008625E-1,1.3313617E-2,3.1106088E-2,-1.6976273E-2,1.700853E-3,-2.5515748E-2,2.851297E-2,1.6175061E-2,-3.6123797E-2,2.295928E-2,-9.088966E-3,3.3401519E-3,-1.31520005E-2,-1.370695E-2,3.2922998E-2,2.279753E-2,-1.1110455E-2,-2.686948E-2,-3.1148258E-3,7.019376E-3,2.4649488E-2,3.0345468E-2,-1.271222E-2,-9.5376065E-3,-2.9302916E-2,-2.2353498E-2,-8.858516E-3,-3.2926835E-2,1.0994291E-3,9.7403E-3,2.6544703E-2,-1.4635265E-2,1.8745305E-2,-3.4412924E-2,7.267569E-4,1.7447576E-2,3.195518E-3,-9.257252E-3,-3.763882E-2,1.1149303E-2,-1.1715847E-2,3.4059566E-2,6.628131E-3,-3.321065E-3,2.0005174E-2,3.0606538E-2,-6.3728835E-3,1.3799948E-2,4.1080218E-2],"categories":[],"categories_nodes":[],"categories_segments":[],"categories_sizes":[],"default_left":[0,0,0,0,0,0,0,0,0,0,0,0,0,0,0,0,0,0,0,0,0,0,0,0,0,0,0,0,0,0,0,0,0,0,0,0,0,0,0,0,0,0,0,0,0,0,0,0,0,0,0,0,0,0,0,0,0,0,0,0,0,0,0,0,0,0,0,0,0,0,0,0,0,0,0,0,0,0,0,0,0,0,0,0,0,0,0,0,0,0,0,0,0,0,0,0,0,0,0,0,0,0,0,0,0,0,0,0,0],"id":7,"left_children":[1,3,5,7,9,11,13,15,17,19,21,23,25,27,29,31,33,35,37,39,41,43,45,-1,47,49,51,53,55,57,59,61,63,65,67,69,71,73,75,77,79,81,83,85,87,89,91,-1,-1,93,95,97,99,-1,101,-1,-1,103,105,-1,107,-1,-1,-1,-1,-1,-1,-1,-1,-1,-1,-1,-1,-1,-1,-1,-1,-1,-1,-1,-1,-1,-1,-1,-1,-1,-1,-1,-1,-1,-1,-1,-1,-1,-1,-1,-1,-1,-1,-1,-1,-1,-1,-1,-1,-1,-1,-1,-1],"loss_changes":[2.0691826E2,1.6339117E2,3.1130539E1,1.1169106E1,9.182036E1,9.636789E0,3.3742065E0,8.701711E0,6.0747147E0,9.0912506E1,3.1995052E1,1.1136532E-1,2.482809E0,4.8754883E-1,2.3351898E0,6.3965607E0,2.6693573E0,9.411865E0,4.314419E0,2.678987E1,3.2193054E1,5.7102365E0,3.6196022E0,0E0,1.2799644E-1,2.029283E0,2.1949916E0,8.368013E-1,2.563553E-1,3.3550568E0,6.9102097E-1,1.4226675E0,2.4065783E0,2.0072193E0,4.318038E0,7.845482E0,1.3423699E0,4.2246056E0,1.3749158E0,3.3478752E1,5.767232E0,7.4354897E0,1.2143707E1,1.0126123E0,1.9460154E0,3.3233414E0,1.0805696E1,0E0,0E0,2.694487E0,1.7978241E0,3.9929867E-1,4.096784E-1,0E0,1.5957141E-1,0E0,0E0,1.4496994E0,2.1404495E0,0E0,9.833145E-2,0E0,0E0,0E0,0E0,0E0,0E0,0E0,0E0,0E0,0E0,0E0,0E0,0E0,0E0,0E0,0E0,0E0,0E0,0E0,0E0,0E0,0E0,0E0,0E0,0E0,0E0,0E0,0E0,0E0,0E0,0E0,0E0,0E0,0E0,0E0,0E0,0E0,0E0,0E0,0E0,0E0,0E0,0E0,0E0,0E0,0E0,0E0,0E0],"parents":[2147483647,0,0,1,1,2,2,3,3,4,4,5,5,6,6,7,7,8,8,9,9,10,10,11,11,12,12,13,13,14,14,15,15,16,16,17,17,18,18,19,19,20,20,21,21,22,22,24,24,25,25,26,26,27,27,28,28,29,29,30,30,31,31,32,32,33,33,34,34,35,35,36,36,37,37,38,38,39,39,40,40,41,41,42,42,43,43,44,44,45,45,46,46,49,49,50,50,51,51,52,52,54,54,57,57,58,58,60,60],"right_children":[2,4,6,8,10,12,14,16,18,20,22,24,26,28,30,32,34,36,38,40,42,44,46,-1,48,50,52,54,56,58,60,62,64,66,68,70,72,74,76,78,80,82,84,86,88,90,92,-1,-1,94,96,98,100,-1,102,-1,-1,104,106,-1,108,-1,-1,-1,-1,-1,-1,-1,-1,-1,-1,-1,-1,-1,-1,-1,-1,-1,-1,-1,-1,-1,-1,-1,-1,-1,-1,-1,-1,-1,-1,-1,-1,-1,-1,-1,-1,-1,-1,-1,-1,-1,-1,-1,-1,-1,-1,-1,-1],"split_conditions":[4E0,9.99E2,5.1E1,6E1,3E0,5E0,9.0065217E-1,2E0,9E0,9.025894E-1,5.5E1,4E-1,9.355228E-1,6.8E1,8E0,9.0122277E-1,9.332215E-1,5.6E1,9.8E1,3E0,6.4E1,4E0,3.5E1,1.2826169E-2,3E1,9.929274E-1,3.7E1,2.5E1,2E1,7E1,2.298589E-2,9.2745745E-1,8E0,6E0,1.0198039E0,4.1904762E-1,6.5E1,9.130125E-1,9.300414E-1,3.25E0,7.4E1,1E0,9.99E2,9.3545914E-1,9E0,6.6E1,5.2E0,1.1416725E-2,3.7933208E-2,1.6E1,2.9666666E1,7.1666665E0,9.407157E-1,-2.1729742E-3,9.3082905E-1,1.1404088E-2,4.206679E-2,2.1288516E-1,5.1E1,7.9656736E-4,9.1687316E-1,1.3313617E-2,3.1106088E-2,-1.6976273E-2,1.700853E-3,-2.5515748E-2,2.851297E-2,1.6175061E-2,-3.6123797E-2,2.295928E-2,-9.088966E-3,3.3401519E-3,-1.31520005E-2,-1.370695E-2,3.2922998E-2,2.279753E-2,-1.1110455E-2,-2.686948E-2,-3.1148258E-3,7.019376E-3,2.4649488E-2,3.0345468E-2,-1.271222E-2,-9.5376065E-3,-2.9302916E-2,-2.2353498E-2,-8.858516E-3,-3.2926835E-2,1.0994291E-3,9.7403E-3,2.6544703E-2,-1.4635265E-2,1.8745305E-2,-3.4412924E-2,7.267569E-4,1.7447576E-2,3.195518E-3,-9.257252E-3,-3.763882E-2,1.1149303E-2,-1.1715847E-2,3.4059566E-2,6.628131E-3,-3.321065E-3,2.0005174E-2,3.0606538E-2,-6.3728835E-3,1.3799948E-2,4.1080218E-2],"split_indices":[37,24,1,1,34,18,10,4,25,10,1,12,14,1,43,10,14,11,1,28,1,33,11,0,11,13,1,11,11,1,13,14,1,1,3,2,11,14,14,8,1,8,27,10,1,1,8,0,0,1,11,8,14,0,14,0,0,2,11,0,14,0,0,0,0,0,0,0,0,0,0,0,0,0,0,0,0,0,0,0,0,0,0,0,0,0,0,0,0,0,0,0,0,0,0,0,0,0,0,0,0,0,0,0,0,0,0,0,0],"split_type":[0,0,0,0,0,0,0,0,0,0,0,0,0,0,0,0,0,0,0,0,0,0,0,0,0,0,0,0,0,0,0,0,0,0,0,0,0,0,0,0,0,0,0,0,0,0,0,0,0,0,0,0,0,0,0,0,0,0,0,0,0,0,0,0,0,0,0,0,0,0,0,0,0,0,0,0,0,0,0,0,0,0,0,0,0,0,0,0,0,0,0,0,0,0,0,0,0,0,0,0,0,0,0,0,0,0,0,0,0],"sum_hessian":[4.9550933E3,4.253503E3,7.015904E2,8.4487616E2,3.4086267E3,1.774929E2,5.2409753E2,3.7413608E2,4.7074008E2,2.8611484E3,5.4747845E2,2.4844E1,1.526489E2,9.883246E1,4.2526508E2,2.7305267E2,1.010834E2,3.162633E2,1.5447678E2,1.4276792E3,1.4334691E3,1.8598337E2,3.6149512E2,1.9278129E0,2.2916187E1,1.36699E2,1.5949888E1,1.0861901E1,8.797056E1,3.7225833E2,5.300672E1,7.147465E1,2.0157802E2,6.7812035E1,3.3271362E1,2.657562E2,5.0507107E1,1.4278491E2,1.1691865E1,1.1871561E3,2.4052316E2,5.600671E2,8.7340204E2,6.928844E1,1.1669493E2,1.9219604E2,1.6929907E2,1.5543877E0,2.13618E1,4.306549E1,9.363352E1,8.679631E0,7.2702565E0,2.1277404E0,8.734161E0,1.5802116E0,8.639034E1,7.3095E1,2.9916336E2,1.1602622E0,5.184646E1,5.7087452E1,1.43871975E1,1.8025253E1,1.8355276E2,1.0303571E0,6.678168E1,2.9698526E1,3.572837E0,2.4557689E2,2.0179317E1,3.155528E1,1.8951826E1,4.5167847E0,1.3826813E2,3.410112E0,8.281754E0,1.7280379E2,1.0143523E3,1.7812767E2,6.2395485E1,9.29175E0,5.507753E2,8.758569E1,7.8581635E2,4.696465E1,2.232379E1,3.362366E0,1.13332565E2,3.826993E1,1.539261E2,2.8464912E1,1.4083415E2,5.3708606E0,3.769463E1,3.518848E1,5.8445038E1,2.4750485E0,6.204583E0,5.369181E0,1.9010754E0,7.576097E0,1.1580639E0,7.1052966E0,6.59897E1,2.955166E2,3.6467535E0,1.6214885E0,5.022497E1],"tree_param":{"num_deleted":"0","num_feature":"51","num_nodes":"109","size_leaf_vector":"1"}},{"base_weights":[1.3771857E-3,-7.767994E-2,4.8434916E-1,-1.700835E-1,2.8770182E-1,1.7771433E-1,6.081992E-1,-2.3503047E-1,1.6865923E-1,1.7021734E-1,3.8200554E-1,1.0582942E-1,6.135661E-1,7.9123104E-1,5.610414E-1,-7.1737394E-2,-4.0336296E-1,-1.6194703E-1,3.3255145E-1,7.265309E-2,4.2516756E-1,4.2746115E-1,9.2750505E-2,3.387478E-2,3.2413763E-1,-2.8800933E-2,6.8875396E-1,4.590095E-1,8.1629694E-1,4.780254E-1,6.715654E-1,-5.249361E-1,-3.771577E-2,-2.1612085E-1,-5.286329E-1,-4.300184E-2,-3.5655767E-1,4.8164004E-1,2.0818192E-1,3.1061098E-1,7.7601294E-3,6.833947E-1,3.1939775E-1,3.6616006E-1,5.935324E-1,-2.7038416E-1,5.661671E-1,1.9190043E-1,-8.680138E-2,-3.954483E-2,5.177984E-1,2.2005325E-3,3.9441027E-2,-1.1096182E-2,5.957009E-1,6.965426E-3,4.1143548E-2,2.3517284E-1,5.437495E-1,3.6135215E-1,7.0389533E-1,1.2061079E-2,-3.350384E-2,9.979992E-3,-4.3992107E-3,3.2852408E-2,-1.1762823E-2,-2.8313635E-2,-9.897964E-3,1.7583076E-3,-1.6791007E-2,-2.6869223E-2,-1.2436113E-2,1.2843563E-2,2.8121231E-2,-1.1932488E-2,1.606336E-2,8.761342E-3,2.9922748E-2,1.6002322E-3,-2.1842416E-2,3.5945408E-2,-6.277587E-3,2.6684066E-2,7.1449997E-3,2.6477074E-2,1.2921176E-2,3.1372465E-2,4.4430876E-3,-7.701736E-3,-2.3472095E-2,3.4785785E-2,-2.1986768E-3,1.87757E-2,-3.9547808E-3,-4.0798534E-2,-1.1730784E-3,3.1534776E-2,-1.8567955E-2,2.8584648E-2,-1.4677075E-2,2.5490839E-2,-1.906245E-2,3.3300683E-2,1.072756E-2,-8.598189E-3,1.6412431E-2,1.0619201E-2,2.8827578E-2,1.0855075E-3,2.9554162E-2,3.5814468E-2,-3.4677505E-4],"categories":[],"categories_nodes":[],"categories_segments":[],"categories_sizes":[],"default_left":[0,0,0,0,0,0,0,0,0,0,0,0,0,0,0,0,0,0,0,0,0,0,0,0,0,0,0,0,0,0,0,0,0,0,0,0,0,0,0,0,0,0,0,0,0,0,0,0,0,0,0,0,0,0,0,0,0,0,0,0,0,0,0,0,0,0,0,0,0,0,0,0,0,0,0,0,0,0,0,0,0,0,0,0,0,0,0,0,0,0,0,0,0,0,0,0,0,0,0,0,0,0,0,0,0,0,0,0,0,0,0,0,0],"id":8,"left_children":[1,3,5,7,9,11,13,15,17,19,21,23,25,27,29,31,33,35,37,39,41,43,45,47,49,-1,51,53,55,57,59,61,63,65,67,69,71,73,75,77,79,81,83,85,87,89,91,93,95,97,99,101,-1,-1,103,-1,-1,105,107,109,111,-1,-1,-1,-1,-1,-1,-1,-1,-1,-1,-1,-1,-1,-1,-1,-1,-1,-1,-1,-1,-1,-1,-1,-1,-1,-1,-1,-1,-1,-1,-1,-1,-1,-1,-1,-1,-1,-1,-1,-1,-1,-1,-1,-1,-1,-1,-1,-1,-1,-1,-1,-1],"loss_changes":[1.8335759E2,1.3937622E2,2.5544754E1,7.251617E1,9.167717E0,6.068145E0,3.7055206E0,7.59673E1,2.8803064E1,9.243824E0,6.027878E0,2.6475606E0,2.8569107E0,4.2515564E-1,3.2177658E0,2.16371E1,3.1812714E1,4.07088E0,6.483307E0,4.1804028E0,2.5946846E0,3.839775E0,1.1146538E1,2.4653566E0,2.967176E0,0E0,1.8068848E0,9.720526E-1,2.7713394E-1,3.443039E0,1.3800507E0,1.1059639E1,1.5616518E1,9.2993355E0,1.0029877E1,2.5456002E0,1.1694279E0,2.7738876E0,9.947205E0,2.1559896E0,2.3192472E0,9.2481136E-1,2.7580695E0,5.0327187E0,1.7557907E0,7.815056E-1,2.2502613E0,2.811731E0,3.375289E0,3.6739106E0,1.3646846E0,1.0414134E0,0E0,0E0,6.576967E-2,0E0,0E0,1.9289427E0,1.783081E0,1.3476288E0,1.2958984E0,0E0,0E0,0E0,0E0,0E0,0E0,0E0,0E0,0E0,0E0,0E0,0E0,0E0,0E0,0E0,0E0,0E0,0E0,0E0,0E0,0E0,0E0,0E0,0E0,0E0,0E0,0E0,0E0,0E0,0E0,0E0,0E0,0E0,0E0,0E0,0E0,0E0,0E0,0E0,0E0,0E0,0E0,0E0,0E0,0E0,0E0,0E0,0E0,0E0,0E0,0E0,0E0],"parents":[2147483647,0,0,1,1,2,2,3,3,4,4,5,5,6,6,7,7,8,8,9,9,10,10,11,11,12,12,13,13,14,14,15,15,16,16,17,17,18,18,19,19,20,20,21,21,22,22,23,23,24,24,26,26,27,27,28,28,29,29,30,30,31,31,32,32,33,33,34,34,35,35,36,36,37,37,38,38,39,39,40,40,41,41,42,42,43,43,44,44,45,45,46,46,47,47,48,48,49,49,50,50,51,51,54,54,57,57,58,58,59,59,60,60],"right_children":[2,4,6,8,10,12,14,16,18,20,22,24,26,28,30,32,34,36,38,40,42,44,46,48,50,-1,52,54,56,58,60,62,64,66,68,70,72,74,76,78,80,82,84,86,88,90,92,94,96,98,100,102,-1,-1,104,-1,-1,106,108,110,112,-1,-1,-1,-1,-1,-1,-1,-1,-1,-1,-1,-1,-1,-1,-1,-1,-1,-1,-1,-1,-1,-1,-1,-1,-1,-1,-1,-1,-1,-1,-1,-1,-1,-1,-1,-1,-1,-1,-1,-1,-1,-1,-1,-1,-1,-1,-1,-1,-1,-1,-1,-1],"split_conditions":[4E0,1E0,5.7E1,3E0,6E1,2.2857144E0,8.997887E-1,9.025894E-1,5.4E1,2E0,6.5E1,9.9875665E-1,5E0,6.8E1,4.1904762E-1,2.6666667E0,6.4E1,7.5555553E0,3.2333332E1,8.9836943E-1,9.99E2,8.833333E0,6.666667E-1,3.05E1,2.5E1,-2.8800933E-2,2.5E-1,2.5E1,2E1,7.3E1,8.3333336E-2,3.6E1,9.99E2,1E0,2E0,2.3894792E0,2.1E1,6.8E1,5.2E0,8.9624614E-1,5.8E1,1.0198039E0,3.8E1,9.203807E-1,5E-1,7.3E1,2.485955E0,7.8E0,1.3E1,1.9242417E0,2.5771823E0,1.9873776E0,3.9441027E-2,-1.1096182E-2,6.6E1,6.965426E-3,4.1143548E-2,9.065955E-1,1.905348E0,7.857143E0,6E1,1.2061079E-2,-3.350384E-2,9.979992E-3,-4.3992107E-3,3.2852408E-2,-1.1762823E-2,-2.8313635E-2,-9.897964E-3,1.7583076E-3,-1.6791007E-2,-2.6869223E-2,-1.2436113E-2,1.2843563E-2,2.8121231E-2,-1.1932488E-2,1.606336E-2,8.761342E-3,2.9922748E-2,1.6002322E-3,-2.1842416E-2,3.5945408E-2,-6.277587E-3,2.6684066E-2,7.1449997E-3,2.6477074E-2,1.2921176E-2,3.1372465E-2,4.4430876E-3,-7.701736E-3,-2.3472095E-2,3.4785785E-2,-2.1986768E-3,1.87757E-2,-3.9547808E-3,-4.0798534E-2,-1.1730784E-3,3.1534776E-2,-1.8567955E-2,2.8584648E-2,-1.4677075E-2,2.5490839E-2,-1.906245E-2,3.3300683E-2,1.072756E-2,-8.598189E-3,1.6412431E-2,1.0619201E-2,2.8827578E-2,1.0855075E-3,2.9554162E-2,3.5814468E-2,-3.4677505E-4],"split_indices":[37,26,1,34,1,2,10,10,1,4,11,13,1,1,2,8,1,8,11,10,27,8,2,11,1,0,12,11,11,1,12,1,27,8,28,0,1,1,8,10,1,3,11,10,3,11,0,8,1,0,0,0,0,0,1,0,0,10,0,8,11,0,0,0,0,0,0,0,0,0,0,0,0,0,0,0,0,0,0,0,0,0,0,0,0,0,0,0,0,0,0,0,0,0,0,0,0,0,0,0,0,0,0,0,0,0,0,0,0,0,0,0,0],"split_type":[0,0,0,0,0,0,0,0,0,0,0,0,0,0,0,0,0,0,0,0,0,0,0,0,0,0,0,0,0,0,0,0,0,0,0,0,0,0,0,0,0,0,0,0,0,0,0,0,0,0,0,0,0,0,0,0,0,0,0,0,0,0,0,0,0,0,0,0,0,0,0,0,0,0,0,0,0,0,0,0,0,0,0,0,0,0,0,0,0,0,0,0,0,0,0,0,0,0,0,0,0,0,0,0,0,0,0,0,0,0,0,0,0],"sum_hessian":[4.800167E3,4.1256787E3,6.744884E2,3.2933406E3,8.32338E2,1.9475009E2,4.7973834E2,2.7637537E3,5.295869E2,3.7186734E2,4.6047064E2,1.682444E2,2.6505693E1,9.5049065E1,3.8468927E2,1.4035999E3,1.3601539E3,1.7552556E2,3.540614E2,2.698762E2,1.0199114E2,3.9752325E2,6.2947414E1,1.274063E2,4.0838097E1,1.1797192E0,2.5325975E1,8.023129E0,8.702593E1,2.2272372E2,1.6196555E2,9.700301E1,1.3065968E3,5.463079E2,8.1384595E2,1.09698975E2,6.5826584E1,1.5972162E2,1.9433977E2,5.7016006E1,2.1286018E2,2.804958E1,7.394156E1,2.9268915E2,1.0483409E2,3.5865566E1,2.708185E1,5.4910583E1,7.249572E1,1.4466585E1,2.6371513E1,3.3517451E0,2.197423E1,1.2370723E0,6.786057E0,1.0503695E0,8.597556E1,4.84133E1,1.7431042E2,1.6435926E1,1.4552962E2,1.53440485E1,8.1658966E1,2.278682E2,1.0787286E3,1.1000752E1,5.353072E2,7.3003534E2,8.381062E1,8.727956E1,2.2419418E1,2.3102736E1,4.2723846E1,4.3333496E1,1.1638812E2,3.9026154E1,1.5531361E2,3.9871605E1,1.7144402E1,2.0273315E2,1.0127029E1,2.6976585E1,1.0729933E0,3.2481937E1,4.145962E1,1.14752686E2,1.7793646E2,9.8004326E1,6.829766E0,2.3754725E1,1.2110842E1,2.2223066E1,4.858783E0,3.2502686E1,2.24079E1,4.8444047E0,6.765131E1,4.4921083E0,9.974477E0,2.5005833E1,1.3656805E0,1.30053E0,2.0512152E0,5.0981865E0,1.6878707E0,8.8506775E0,3.9562622E1,1.6374126E1,1.579363E2,7.0731907E0,9.362736E0,1.430281E2,2.5015051E0],"tree_param":{"num_deleted":"0","num_feature":"51","num_nodes":"113","size_leaf_vector":"1"}},{"base_weights":[-1.5311055E-3,-7.787199E-2,4.8049393E-1,-1.6425614E-1,2.8081188E-1,1.9250926E-1,6.044612E-1,-2.2674528E-1,1.5853705E-1,1.1669109E-1,3.8654423E-1,1.13936074E-1,6.3001275E-1,4.8311824E-1,6.4553493E-1,-6.910382E-2,-3.9326978E-1,-7.143044E-2,3.6150736E-1,1.8434806E-1,-2.1656942E-1,-3.709944E-1,4.021476E-1,1.3261491E-1,-5.122165E-1,-4.7888324E-2,6.968877E-1,3.2898563E-1,6.7727476E-1,7.167817E-1,5.428042E-1,-1.259241E-1,2.265932E-1,-2.1302685E-1,-5.182328E-1,-3.7460376E-2,-4.8050657E-2,2.3957515E-1,5.5276954E-1,9.1895364E-2,3.9661548E-1,-7.405091E-1,-6.734773E-2,-3.1824253E-2,-3.1559297E-4,3.3949593E-1,5.3126544E-1,4.3071032E-1,9.8314404E-2,-3.3992726E-2,-7.675756E-3,2.3763955E-2,-2.5371522E-2,3.64361E-2,2.706413E-1,-2.1781546E-1,3.742062E-1,2.6348326E-1,7.4353236E-1,7.241006E-1,-1.16349785E-2,3.9694226E-1,7.410874E-1,-2.4456276E-2,-3.346522E-3,-3.9045E-2,1.2247781E-2,2.3463953E-2,-1.1435228E-2,-2.7696673E-2,-1.03607755E-2,3.3491623E-2,-3.3514847E-3,2.2403417E-2,3.2589391E-3,3.8943E-2,2.0461453E-2,1.4855975E-2,-5.518996E-4,-3.3205964E-2,2.155011E-2,-4.0776327E-2,-1.2610122E-2,-7.4224966E-3,2.563251E-2,2.0999765E-2,-2.2079404E-2,1.94113E-2,-6.828966E-3,3.0910099E-2,1.45283835E-2,6.4754016E-3,3.8355734E-2,-2.7939526E-3,1.1196719E-2,-4.90555E-3,2.4443826E-2,2.3820314E-3,-2.823208E-2,2.027155E-2,-1.1002656E-2,-2.6447544E-2,2.5673935E-2,3.840926E-2,1.8359104E-4,1.5015133E-2,3.703561E-2,2.3259062E-2,-2.2428825E-3,-7.186563E-3,3.800373E-2],"categories":[],"categories_nodes":[],"categories_segments":[],"categories_sizes":[],"default_left":[0,0,0,0,0,0,0,0,0,0,0,0,0,0,0,0,0,0,0,0,0,0,0,0,0,0,0,0,0,0,0,0,0,0,0,0,0,0,0,0,0,0,0,0,0,0,0,0,0,0,0,0,0,0,0,0,0,0,0,0,0,0,0,0,0,0,0,0,0,0,0,0,0,0,0,0,0,0,0,0,0,0,0,0,0,0,0,0,0,0,0,0,0,0,0,0,0,0,0,0,0,0,0,0,0,0,0,0,0,0,0],"id":9,"left_children":[1,3,5,7,9,11,13,15,17,19,21,23,25,27,29,31,33,35,37,39,41,43,45,47,49,51,53,55,57,59,61,63,65,67,69,-1,71,73,75,77,79,81,83,-1,85,87,89,91,93,-1,-1,-1,-1,-1,95,97,99,101,103,105,-1,107,109,-1,-1,-1,-1,-1,-1,-1,-1,-1,-1,-1,-1,-1,-1,-1,-1,-1,-1,-1,-1,-1,-1,-1,-1,-1,-1,-1,-1,-1,-1,-1,-1,-1,-1,-1,-1,-1,-1,-1,-1,-1,-1,-1,-1,-1,-1,-1,-1],"loss_changes":[1.7147487E2,1.24689255E2,2.26288E1,6.544253E1,1.3510124E1,6.5693145E0,1.9056091E0,7.1299515E1,2.4601334E1,6.9732223E0,5.7596664E0,1.9977009E0,1.3568039E0,3.2632523E0,2.0220947E0,2.3500088E1,2.9645737E1,3.8886828E0,6.393589E0,4.9903603E0,4.043165E0,9.9370646E-1,3.5857086E0,1.6039743E0,1.9539785E-1,1.0963258E0,1.6420269E-1,1.7352982E0,1.1915798E0,1.4985886E0,3.726738E0,2.5088963E1,4.3635836E0,5.911604E0,8.540344E0,0E0,3.321404E0,6.248597E0,3.1920319E0,3.800034E0,3.1099243E0,2.1576643E-1,2.0445457E0,0E0,1.1527514E0,7.389206E0,2.9660378E0,1.5542212E0,2.8345475E0,0E0,0E0,0E0,0E0,0E0,3.2494664E-1,5.554404E-1,1.2423038E0,1.9621923E0,7.8282356E-1,1.1164169E0,0E0,2.5006828E0,1.0798187E0,0E0,0E0,0E0,0E0,0E0,0E0,0E0,0E0,0E0,0E0,0E0,0E0,0E0,0E0,0E0,0E0,0E0,0E0,0E0,0E0,0E0,0E0,0E0,0E0,0E0,0E0,0E0,0E0,0E0,0E0,0E0,0E0,0E0,0E0,0E0,0E0,0E0,0E0,0E0,0E0,0E0,0E0,0E0,0E0,0E0,0E0,0E0,0E0],"parents":[2147483647,0,0,1,1,2,2,3,3,4,4,5,5,6,6,7,7,8,8,9,9,10,10,11,11,12,12,13,13,14,14,15,15,16,16,17,17,18,18,19,19,20,20,21,21,22,22,23,23,24,24,25,25,26,26,27,27,28,28,29,29,30,30,31,31,32,32,33,33,34,34,36,36,37,37,38,38,39,39,40,40,41,41,42,42,44,44,45,45,46,46,47,47,48,48,54,54,55,55,56,56,57,57,58,58,59,59,61,61,62,62],"right_children":[2,4,6,8,10,12,14,16,18,20,22,24,26,28,30,32,34,36,38,40,42,44,46,48,50,52,54,56,58,60,62,64,66,68,70,-1,72,74,76,78,80,82,84,-1,86,88,90,92,94,-1,-1,-1,-1,-1,96,98,100,102,104,106,-1,108,110,-1,-1,-1,-1,-1,-1,-1,-1,-1,-1,-1,-1,-1,-1,-1,-1,-1,-1,-1,-1,-1,-1,-1,-1,-1,-1,-1,-1,-1,-1,-1,-1,-1,-1,-1,-1,-1,-1,-1,-1,-1,-1,-1,-1,-1,-1,-1,-1],"split_conditions":[4E0,1E0,5.8E1,3E0,5.2E1,1E0,7.3E1,9.025894E-1,6.6E1,5.7E1,-1.6666667E-1,2.668821E0,2.5E-1,2E0,9.277716E-1,3E0,6.4E1,9E0,9.254383E-1,2E0,1.7E1,9.2310786E-1,8.833333E0,1.9242417E0,9.261439E-1,9.343454E-1,5.6E1,2.5E1,7.4444447E0,1E1,1E1,3.25E0,6E0,1E0,2E0,-3.7460376E-2,1E1,3.1285715E1,9.2503583E-1,5.2E0,7E0,7.8E1,1.352381E0,-3.1824253E-2,9.4232965E-1,6E1,2.4226635E0,4.2E1,2.2068992E0,-3.3992726E-2,-7.675756E-3,2.3763955E-2,-2.5371522E-2,3.64361E-2,2.1819882E0,9.1524386E-1,4.8E1,3E0,2.485955E0,9.067638E-1,-1.16349785E-2,9.6E1,9.282804E-1,-2.4456276E-2,-3.346522E-3,-3.9045E-2,1.2247781E-2,2.3463953E-2,-1.1435228E-2,-2.7696673E-2,-1.03607755E-2,3.3491623E-2,-3.3514847E-3,2.2403417E-2,3.2589391E-3,3.8943E-2,2.0461453E-2,1.4855975E-2,-5.518996E-4,-3.3205964E-2,2.155011E-2,-4.0776327E-2,-1.2610122E-2,-7.4224966E-3,2.563251E-2,2.0999765E-2,-2.2079404E-2,1.94113E-2,-6.828966E-3,3.0910099E-2,1.45283835E-2,6.4754016E-3,3.8355734E-2,-2.7939526E-3,1.1196719E-2,-4.90555E-3,2.4443826E-2,2.3820314E-3,-2.823208E-2,2.027155E-2,-1.1002656E-2,-2.6447544E-2,2.5673935E-2,3.840926E-2,1.8359104E-4,1.5015133E-2,3.703561E-2,2.3259062E-2,-2.2428825E-3,-7.186563E-3,3.800373E-2],"split_indices":[37,25,1,34,1,20,1,10,1,11,12,0,12,4,10,28,1,1,14,4,1,14,8,0,14,14,1,11,8,25,37,8,1,8,28,0,1,11,10,8,1,11,2,0,10,11,0,1,0,0,0,0,0,0,0,10,11,42,0,14,0,1,10,0,0,0,0,0,0,0,0,0,0,0,0,0,0,0,0,0,0,0,0,0,0,0,0,0,0,0,0,0,0,0,0,0,0,0,0,0,0,0,0,0,0,0,0,0,0,0,0],"split_type":[0,0,0,0,0,0,0,0,0,0,0,0,0,0,0,0,0,0,0,0,0,0,0,0,0,0,0,0,0,0,0,0,0,0,0,0,0,0,0,0,0,0,0,0,0,0,0,0,0,0,0,0,0,0,0,0,0,0,0,0,0,0,0,0,0,0,0,0,0,0,0,0,0,0,0,0,0,0,0,0,0,0,0,0,0,0,0,0,0,0,0,0,0,0,0,0,0,0,0,0,0,0,0,0,0,0,0,0,0,0,0],"sum_hessian":[4.6578516E3,4.0217449E3,6.361069E2,3.241593E3,7.801517E2,1.9218967E2,4.4391718E2,2.7160867E3,5.2550635E2,3.064989E2,4.736528E2,1.6399712E2,2.8192543E1,1.1549016E2,3.2842703E2,1.3959844E3,1.3201024E3,2.4667224E2,2.7883414E2,2.55147E2,5.1351894E1,9.099478E0,4.645533E2,1.60012E2,3.9851305E0,2.5569568E0,2.5635586E1,6.5882935E1,4.9607224E1,1.9040108E2,1.3802596E2,1.1714551E3,2.2452927E2,5.4160803E2,7.784943E2,7.1899962E0,2.3948224E2,1.7165462E2,1.0717952E2,1.7873306E2,7.641394E1,1.0504954E1,4.084694E1,4.8841977E0,4.21528E0,3.15226E2,1.493273E2,1.5319329E1,1.4469266E2,2.105711E0,1.8794194E0,1.1796898E0,1.377267E0,2.319373E1,2.4418564E0,4.740819E0,6.1142117E1,7.5337996E0,4.207342E1,1.8918018E2,1.2208937E0,8.125484E1,5.677112E1,1.6266959E2,1.0087855E3,3.2756708E0,2.2125359E2,1.1515423E1,5.300926E2,6.976343E2,8.086004E1,5.284962E0,2.3419728E2,7.746951E1,9.41851E1,3.9902725E1,6.7276794E1,5.9071766E1,1.1966129E2,1.8243575E0,7.4589584E1,8.525145E0,1.9798094E0,3.6488705E1,4.358234E0,2.1836123E0,2.0316677E0,2.8612354E2,2.9102474E1,1.0855166E2,4.0775646E1,8.813273E0,6.506056E0,6.520783E1,7.9484825E1,1.1124995E0,1.329357E0,3.174068E0,1.5667509E0,5.8391727E1,2.750387E0,1.5391543E0,5.9946456E0,4.0679653E1,1.3937681E0,7.8552036E0,1.8132498E2,7.0337776E1,1.0917065E1,1.054634E0,5.5716484E1],"tree_param":{"num_deleted":"0","num_feature":"51","num_nodes":"111","size_leaf_vector":"1"}},{"base_weights":[5.3117136E-3,-6.581519E-2,4.5978442E-1,-1.4688681E-1,2.659187E-1,1.6652802E-1,5.802406E-1,-2.0939046E-1,1.7507467E-1,1.6831951E-1,3.4713307E-1,5.9673375E-1,9.399294E-2,7.158017E-1,5.424174E-1,-5.106468E-2,-3.8437548E-1,-6.497226E-2,3.9011416E-1,7.516888E-2,4.018066E-1,2.5342777E-1,5.302697E-1,-3.0580858E-2,6.8773675E-1,-4.3578424E-2,2.2663808E-1,2.0322707E-1,7.421568E-1,4.1227666E-1,6.086419E-1,-1.0124018E-1,2.1431577E-1,-2.1619304E-1,-5.0233454E-1,-2.4324673E-1,5.1718023E-2,2.693359E-1,5.626657E-1,2.3432588E-2,2.679436E-1,7.0699483E-1,2.7889726E-1,4.5610723E-1,1.12040274E-1,-4.111892E-1,5.5216515E-1,3.770548E-2,1.6762407E-1,-1.5057214E-1,2.1138678E-1,3.0091703E-1,-1.9964813E-1,3.0638242E-2,-2.6102353E-2,3.3633146E-1,3.885029E-2,4.8624203E-1,7.229048E-2,-2.096045E-1,6.208061E-1,-2.3303071E-2,-2.369183E-3,-7.44421E-3,1.2790061E-2,2.9732374E-2,-1.1824756E-2,-2.6725797E-2,-1.1261648E-2,-2.1806734E-2,-7.405227E-4,9.090871E-3,-3.6715064E-3,1.93753E-2,8.8647753E-4,2.2032857E-2,3.4659725E-2,5.0916295E-3,-9.307262E-3,2.4811754E-2,2.6491957E-4,-9.037436E-3,3.7672006E-2,7.936577E-3,3.0341074E-2,2.490659E-2,-6.5085525E-4,8.68483E-3,-2.0941108E-2,-2.4501394E-2,-7.789361E-3,2.9755697E-2,4.546446E-3,-1.0324747E-2,2.5104333E-2,-2.9224828E-2,-1.7857164E-3,2.134204E-2,-2.2534212E-2,8.301546E-3,2.6009202E-2,-2.0221148E-2,2.4575897E-2,-1.33887E-2,2.3125717E-2,2.6234195E-2,-1.6156504E-2,-1.489071E-2,1.2132673E-2,-2.9208213E-2,2.1325918E-2,1.7139185E-2,3.2379888E-2],"categories":[],"categories_nodes":[],"categories_segments":[],"categories_sizes":[],"default_left":[0,0,0,0,0,0,0,0,0,0,0,0,0,0,0,0,0,0,0,0,0,0,0,0,0,0,0,0,0,0,0,0,0,0,0,0,0,0,0,0,0,0,0,0,0,0,0,0,0,0,0,0,0,0,0,0,0,0,0,0,0,0,0,0,0,0,0,0,0,0,0,0,0,0,0,0,0,0,0,0,0,0,0,0,0,0,0,0,0,0,0,0,0,0,0,0,0,0,0,0,0,0,0,0,0,0,0,0,0,0,0,0,0],"id":10,"left_children":[1,3,5,7,9,11,13,15,17,19,21,23,25,27,29,31,33,35,37,39,41,43,45,-1,47,49,51,53,55,57,59,61,63,65,67,69,71,73,75,77,79,81,83,85,87,89,91,-1,93,95,97,99,101,-1,-1,103,-1,105,107,109,111,-1,-1,-1,-1,-1,-1,-1,-1,-1,-1,-1,-1,-1,-1,-1,-1,-1,-1,-1,-1,-1,-1,-1,-1,-1,-1,-1,-1,-1,-1,-1,-1,-1,-1,-1,-1,-1,-1,-1,-1,-1,-1,-1,-1,-1,-1,-1,-1,-1,-1,-1,-1],"loss_changes":[1.4765973E2,1.0626708E2,2.1739471E1,6.392507E1,6.0930862E0,5.60401E0,1.856369E0,7.364969E1,2.6695995E1,7.6782846E0,7.1186905E0,3.2778187E0,2.8639138E0,1.0969963E0,2.7345428E0,1.8625637E1,2.4946472E1,5.1092873E0,5.5311775E0,2.532741E0,3.5855293E0,8.015892E0,3.1571503E0,0E0,7.239914E-1,2.1491058E0,2.5864782E0,2.0706384E0,9.75811E-1,2.980608E0,2.3942642E0,2.307761E1,3.3902664E0,8.740103E0,6.492401E0,4.2719803E0,2.4377072E0,4.819311E0,1.4679604E0,3.3348334E0,3.2214332E0,1.3030949E0,2.801642E0,2.2806702E0,5.543855E0,2.528429E-4,2.7061348E0,0E0,6.134092E-1,2.7330322E0,3.5243378E0,1.9350605E0,1.9595761E0,0E0,0E0,7.855751E-1,0E0,3.2286892E0,1.4974225E0,1.2212259E0,1.4494858E0,0E0,0E0,0E0,0E0,0E0,0E0,0E0,0E0,0E0,0E0,0E0,0E0,0E0,0E0,0E0,0E0,0E0,0E0,0E0,0E0,0E0,0E0,0E0,0E0,0E0,0E0,0E0,0E0,0E0,0E0,0E0,0E0,0E0,0E0,0E0,0E0,0E0,0E0,0E0,0E0,0E0,0E0,0E0,0E0,0E0,0E0,0E0,0E0,0E0,0E0,0E0,0E0],"parents":[2147483647,0,0,1,1,2,2,3,3,4,4,5,5,6,6,7,7,8,8,9,9,10,10,11,11,12,12,13,13,14,14,15,15,16,16,17,17,18,18,19,19,20,20,21,21,22,22,24,24,25,25,26,26,27,27,28,28,29,29,30,30,31,31,32,32,33,33,34,34,35,35,36,36,37,37,38,38,39,39,40,40,41,41,42,42,43,43,44,44,45,45,46,46,48,48,49,49,50,50,51,51,52,52,55,55,57,57,58,58,59,59,60,60],"right_children":[2,4,6,8,10,12,14,16,18,20,22,24,26,28,30,32,34,36,38,40,42,44,46,-1,48,50,52,54,56,58,60,62,64,66,68,70,72,74,76,78,80,82,84,86,88,90,92,-1,94,96,98,100,102,-1,-1,104,-1,106,108,110,112,-1,-1,-1,-1,-1,-1,-1,-1,-1,-1,-1,-1,-1,-1,-1,-1,-1,-1,-1,-1,-1,-1,-1,-1,-1,-1,-1,-1,-1,-1,-1,-1,-1,-1,-1,-1,-1,-1,-1,-1,-1,-1,-1,-1,-1,-1,-1,-1,-1,-1,-1,-1],"split_conditions":[4E0,1E0,5.7E1,2E0,6E1,5E0,9.0065217E-1,9.025894E-1,6.6E1,2E0,9E0,5E0,3.2E1,9.067638E-1,2.7272728E-1,3E0,6.4E1,3.1E1,9.254383E-1,2.456903E0,7E0,9.203807E-1,9.110263E-1,-3.0580858E-2,5.4E1,9.315335E-1,2.4355285E0,9.0639305E-1,6.8E1,9.369893E-1,9.017659E-1,3.25E0,4E0,1E0,2E0,2.2922344E0,9.169462E-1,3.8E1,8.3333336E-2,2.244057E0,9.0736735E-1,7E0,5E0,5.6E1,4.1904762E-1,9.0402085E-1,2.6299045E0,3.770548E-2,9.918786E-1,1.4E1,9.3535054E-1,2.20126E0,9.9889815E-1,3.0638242E-2,-2.6102353E-2,8.790935E-1,3.885029E-2,7E0,7.375E0,2.8E1,1.905348E0,-2.3303071E-2,-2.369183E-3,-7.44421E-3,1.2790061E-2,2.9732374E-2,-1.1824756E-2,-2.6725797E-2,-1.1261648E-2,-2.1806734E-2,-7.405227E-4,9.090871E-3,-3.6715064E-3,1.93753E-2,8.8647753E-4,2.2032857E-2,3.4659725E-2,5.0916295E-3,-9.307262E-3,2.4811754E-2,2.6491957E-4,-9.037436E-3,3.7672006E-2,7.936577E-3,3.0341074E-2,2.490659E-2,-6.5085525E-4,8.68483E-3,-2.0941108E-2,-2.4501394E-2,-7.789361E-3,2.9755697E-2,4.546446E-3,-1.0324747E-2,2.5104333E-2,-2.9224828E-2,-1.7857164E-3,2.134204E-2,-2.2534212E-2,8.301546E-3,2.6009202E-2,-2.0221148E-2,2.4575897E-2,-1.33887E-2,2.3125717E-2,2.6234195E-2,-1.6156504E-2,-1.489071E-2,1.2132673E-2,-2.9208213E-2,2.1325918E-2,1.7139185E-2,3.2379888E-2],"split_indices":[37,25,1,34,1,18,10,10,1,4,25,1,1,14,12,28,1,1,14,0,25,10,14,0,1,14,0,14,1,10,10,8,27,8,28,0,10,11,12,0,10,42,4,11,2,14,0,0,13,1,14,0,13,0,0,10,0,40,8,11,0,0,0,0,0,0,0,0,0,0,0,0,0,0,0,0,0,0,0,0,0,0,0,0,0,0,0,0,0,0,0,0,0,0,0,0,0,0,0,0,0,0,0,0,0,0,0,0,0,0,0,0,0],"split_type":[0,0,0,0,0,0,0,0,0,0,0,0,0,0,0,0,0,0,0,0,0,0,0,0,0,0,0,0,0,0,0,0,0,0,0,0,0,0,0,0,0,0,0,0,0,0,0,0,0,0,0,0,0,0,0,0,0,0,0,0,0,0,0,0,0,0,0,0,0,0,0,0,0,0,0,0,0,0,0,0,0,0,0,0,0,0,0,0,0,0,0,0,0,0,0,0,0,0,0,0,0,0,0,0,0,0,0,0,0,0,0,0,0],"sum_hessian":[4.566004E3,3.9488477E3,6.171562E2,3.1737742E3,7.7507355E2,1.8038431E2,4.3677185E2,2.658097E3,5.156771E2,3.5342197E2,4.216516E2,2.4983036E1,1.5540128E2,9.137006E1,3.454018E2,1.396154E3,1.2619429E3,2.4399983E2,2.7167728E2,2.5357794E2,9.984403E1,2.8050812E2,1.4114346E2,1.3490682E0,2.3633966E1,7.6613716E1,7.878756E1,4.8942304E0,8.647583E1,1.18924164E2,2.2647763E2,1.1746764E3,2.2147762E2,5.213914E2,7.4055145E2,9.609912E1,1.4790071E2,1.6132086E2,1.1035641E2,2.0080742E2,5.2770527E1,2.7301432E1,7.2542595E1,1.1435455E2,1.6615358E2,2.803862E0,1.383396E2,2.0560318E1,3.0736492E0,5.4255398E1,2.2358318E1,6.734672E1,1.1440845E1,3.2271147E0,1.6671159E0,7.6809034E0,7.879493E1,9.7321335E1,2.1602833E1,3.0797641E0,2.2339786E2,1.5011969E2,1.0245568E3,2.243889E1,1.9903873E2,1.2044844E1,5.093466E2,6.6266364E2,7.788784E1,5.1610676E1,4.4488445E1,7.229387E1,7.560685E1,1.0939975E2,5.1921116E1,5.9301598E1,5.105481E1,1.465131E2,5.4294304E1,2.775579E1,2.5014736E1,1.2135866E0,2.6087845E1,5.4174686E1,1.8367912E1,1.0489604E2,9.458513E0,1.4946677E2,1.6686815E1,1.4405371E0,1.363325E0,1.2628969E2,1.204992E1,1.6314117E0,1.4422374E0,1.0499642E1,4.3755753E1,1.7136862E1,5.221456E0,4.278435E1,2.4562366E1,9.14599E0,2.294854E0,1.1332613E0,6.5476418E0,9.324435E1,4.076984E0,6.573699E0,1.5029135E1,1.9898106E0,1.0899534E0,2.0848011E1,2.0254985E2],"tree_param":{"num_deleted":"0","num_feature":"51","num_nodes":"113","size_leaf_vector":"1"}},{"base_weights":[8.849533E-5,-6.890997E-2,4.3782294E-1,2.5415805E-1,-1.4576294E-1,1.5602255E-1,5.3407395E-1,1.4894108E-1,3.425665E-1,-2.0513088E-1,1.5895976E-1,6.015767E-1,8.2131945E-2,7.228759E-1,4.864614E-1,6.525377E-2,3.7605652E-1,2.6191992E-1,4.929474E-1,-5.8677353E-2,-3.672273E-1,-7.827375E-2,3.714754E-1,-2.9552473E-2,7.025986E-1,5.7086527E-2,5.052141E-1,2.7064726E-1,7.419211E-1,3.385872E-1,5.6549287E-1,3.065172E-1,-1.2032773E-3,-3.0554507E-2,3.9958856E-1,3.3032182E-1,-1.19700484E-1,-2.3033082E-2,5.178865E-1,-1.0355104E-1,1.8114945E-1,-2.0276979E-1,-4.8749232E-1,-2.4203388E-1,3.39732E-2,2.422083E-1,5.5123514E-1,1.0609127E-2,3.6077138E-2,2.5412112E-1,-3.4387035E-3,1.8344149E-3,2.9988665E-2,3.002719E-2,-2.3603883E-2,5.353118E-1,3.8322777E-2,4.2602986E-1,-2.229574E-2,4.921227E-1,7.0099896E-1,6.847591E-3,2.8979594E-2,-1.4751057E-2,1.3365756E-3,2.5267605E-2,7.2557116E-3,-1.9213727E-2,1.7490758E-2,-1.736411E-2,-1.1689392E-3,2.9637596E-2,1.188595E-2,-2.1889366E-2,-2.7713245E-3,-3.6323532E-2,9.787861E-3,2.820139E-2,-1.0954431E-2,-2.5930097E-2,-1.1025461E-2,-2.313224E-2,-3.3605848E-3,-1.4038575E-2,3.857327E-3,1.8955674E-2,1.1338611E-3,3.8068246E-2,2.279309E-2,-2.9999299E-2,1.620774E-2,-2.2167364E-2,2.2101107E-3,2.9932076E-2,-1.3749688E-3,2.419364E-2,-5.0237803E-3,-5.7646465E-3,2.4254043E-2,2.713602E-3,2.6136477E-2,3.6131654E-2,-1.1634079E-2],"categories":[],"categories_nodes":[],"categories_segments":[],"categories_sizes":[],"default_left":[0,0,0,0,0,0,0,0,0,0,0,0,0,0,0,0,0,0,0,0,0,0,0,0,0,0,0,0,0,0,0,0,0,0,0,0,0,0,0,0,0,0,0,0,0,0,0,0,0,0,0,0,0,0,0,0,0,0,0,0,0,0,0,0,0,0,0,0,0,0,0,0,0,0,0,0,0,0,0,0,0,0,0,0,0,0,0,0,0,0,0,0,0,0,0,0,0,0,0,0,0,0,0],"id":11,"left_children":[1,3,5,7,9,11,13,15,17,19,21,23,25,27,29,31,33,35,37,39,41,43,45,-1,47,49,51,53,55,57,59,61,63,-1,65,67,69,-1,71,73,75,77,79,81,83,85,87,-1,-1,89,91,-1,-1,-1,-1,93,-1,95,97,99,101,-1,-1,-1,-1,-1,-1,-1,-1,-1,-1,-1,-1,-1,-1,-1,-1,-1,-1,-1,-1,-1,-1,-1,-1,-1,-1,-1,-1,-1,-1,-1,-1,-1,-1,-1,-1,-1,-1,-1,-1,-1,-1],"loss_changes":[1.3362103E2,9.492496E1,1.6255913E1,6.783966E0,5.5895363E1,5.0463753E0,3.6811218E0,6.3857865E0,4.703953E0,6.134156E1,2.5442352E1,3.0489378E0,1.3902404E0,5.5963516E-1,4.0312576E0,3.971326E0,2.3488579E0,6.8665504E0,3.520008E0,1.4645647E1,2.4163574E1,4.40162E0,6.0489883E0,0E0,3.8373947E-2,1.5221623E0,3.0395448E-1,1.5434897E0,1.6262054E-2,4.0595484E0,1.9813156E0,2.3974624E0,1.609816E0,0E0,2.324667E0,3.227539E0,8.793894E-1,0E0,2.689293E0,1.840184E1,2.9872684E0,6.628784E0,5.7648163E0,3.7224798E0,1.9605676E0,4.696542E0,1.8676529E0,0E0,0E0,1.9884102E0,2.0854924E0,0E0,0E0,0E0,0E0,4.5300674E-1,0E0,3.1964054E0,1.2819026E0,2.0508347E0,1.7807236E0,0E0,0E0,0E0,0E0,0E0,0E0,0E0,0E0,0E0,0E0,0E0,0E0,0E0,0E0,0E0,0E0,0E0,0E0,0E0,0E0,0E0,0E0,0E0,0E0,0E0,0E0,0E0,0E0,0E0,0E0,0E0,0E0,0E0,0E0,0E0,0E0,0E0,0E0,0E0,0E0,0E0,0E0],"parents":[2147483647,0,0,1,1,2,2,3,3,4,4,5,5,6,6,7,7,8,8,9,9,10,10,11,11,12,12,13,13,14,14,15,15,16,16,17,17,18,18,19,19,20,20,21,21,22,22,24,24,25,25,26,26,27,27,28,28,29,29,30,30,31,31,32,32,34,34,35,35,36,36,38,38,39,39,40,40,41,41,42,42,43,43,44,44,45,45,46,46,49,49,50,50,55,55,57,57,58,58,59,59,60,60],"right_children":[2,4,6,8,10,12,14,16,18,20,22,24,26,28,30,32,34,36,38,40,42,44,46,-1,48,50,52,54,56,58,60,62,64,-1,66,68,70,-1,72,74,76,78,80,82,84,86,88,-1,-1,90,92,-1,-1,-1,-1,94,-1,96,98,100,102,-1,-1,-1,-1,-1,-1,-1,-1,-1,-1,-1,-1,-1,-1,-1,-1,-1,-1,-1,-1,-1,-1,-1,-1,-1,-1,-1,-1,-1,-1,-1,-1,-1,-1,-1,-1,-1,-1,-1,-1,-1,-1],"split_conditions":[4E0,9.99E2,4.9E1,6E1,3E0,6E0,9.0065217E-1,2E0,9E0,9.028746E-1,6.6E1,5E0,8E0,9.067638E-1,2.7272728E-1,8.9836943E-1,6E0,5.7E1,9.110263E-1,3E0,6.4E1,3.1E1,9.254383E-1,-2.9552473E-2,8.8288164E-1,9.0065217E-1,5E0,9.0639305E-1,6.8E1,9.369893E-1,9.38539E-1,2.4183123E0,8E0,-3.0554507E-2,9.332215E-1,4E0,2.0541956E0,-2.3033082E-2,2.4788764E0,3.25E0,5E0,1E0,2E0,2.2504127E0,1.8796054E0,9.1719157E-1,9.196352E-1,1.0609127E-2,3.6077138E-2,1.3E1,9.068604E-1,1.8344149E-3,2.9988665E-2,3.002719E-2,-2.3603883E-2,9.302593E-1,3.8322777E-2,9.9931455E-1,8E0,1.8504449E0,6E1,6.847591E-3,2.8979594E-2,-1.4751057E-2,1.3365756E-3,2.5267605E-2,7.2557116E-3,-1.9213727E-2,1.7490758E-2,-1.736411E-2,-1.1689392E-3,2.9637596E-2,1.188595E-2,-2.1889366E-2,-2.7713245E-3,-3.6323532E-2,9.787861E-3,2.820139E-2,-1.0954431E-2,-2.5930097E-2,-1.1025461E-2,-2.313224E-2,-3.3605848E-3,-1.4038575E-2,3.857327E-3,1.8955674E-2,1.1338611E-3,3.8068246E-2,2.279309E-2,-2.9999299E-2,1.620774E-2,-2.2167364E-2,2.2101107E-3,2.9932076E-2,-1.3749688E-3,2.419364E-2,-5.0237803E-3,-5.7646465E-3,2.4254043E-2,2.713602E-3,2.6136477E-2,3.6131654E-2,-1.1634079E-2],"split_indices":[37,24,1,1,34,18,10,4,25,10,1,1,28,14,12,10,1,11,14,28,1,1,14,0,13,10,30,14,1,10,10,0,1,0,14,27,0,0,0,8,1,8,28,0,0,10,10,0,0,1,10,0,0,0,0,14,0,13,43,0,11,0,0,0,0,0,0,0,0,0,0,0,0,0,0,0,0,0,0,0,0,0,0,0,0,0,0,0,0,0,0,0,0,0,0,0,0,0,0,0,0,0,0],"split_type":[0,0,0,0,0,0,0,0,0,0,0,0,0,0,0,0,0,0,0,0,0,0,0,0,0,0,0,0,0,0,0,0,0,0,0,0,0,0,0,0,0,0,0,0,0,0,0,0,0,0,0,0,0,0,0,0,0,0,0,0,0,0,0,0,0,0,0,0,0,0,0,0,0,0,0,0,0,0,0,0,0,0,0,0,0,0,0,0,0,0,0,0,0,0,0,0,0,0,0,0,0,0,0],"sum_hessian":[4.4220977E3,3.8206978E3,6.0139996E2,7.3378156E2,3.0869163E3,1.5378229E2,4.4761768E2,3.36267E2,3.9751456E2,2.583843E3,5.030733E2,2.0859543E1,1.3292274E2,8.7291374E1,3.603263E2,2.4666382E2,8.960317E1,2.605357E2,1.3697885E2,1.3581349E3,1.2257081E3,2.3801088E2,2.6506244E2,1.250141E0,1.9609402E1,1.2656532E2,6.3574243E0,4.142332E0,8.314904E1,1.2734251E2,2.329838E2,5.249078E1,1.9417303E2,1.5049173E0,8.809825E1,2.2104913E2,3.9486565E1,3.0457485E0,1.339331E2,1.1445482E3,2.135867E2,5.188661E2,7.06842E2,9.632436E1,1.4168651E2,1.5555127E2,1.09511154E2,1.1830738E0,1.8426329E1,2.8990543E1,9.757478E1,1.3006923E0,5.0567317E0,3.0008671E0,1.1414651E0,1.1247807E1,7.190124E1,1.02359955E2,2.498255E1,1.5415038E2,7.883342E1,3.330907E1,1.9181711E1,1.602814E1,1.781449E2,6.1536747E1,2.6561508E1,5.372917E0,2.1567622E2,1.09676285E1,2.8518934E1,1.0481035E2,2.9122759E1,1.4303557E2,1.00151263E3,2.6112456E0,2.1097546E2,1.0112904E1,5.087532E2,6.322303E2,7.461171E1,4.1857433E1,5.4466934E1,1.6426895E1,1.2525962E2,9.535718E1,6.019409E1,3.200769E1,7.750346E1,1.6235209E0,2.7367022E1,8.7229E0,8.885188E1,1.0052947E1,1.1948595E0,9.23006E1,1.0059353E1,2.1765848E1,3.2167015E0,1.0252644E1,1.4389772E2,7.726907E1,1.5643452E0],"tree_param":{"num_deleted":"0","num_feature":"51","num_nodes":"103","size_leaf_vector":"1"}},{"base_weights":[1.1518641E-3,-6.5884255E-2,4.3878162E-1,2.4225442E-1,-1.3694648E-1,1.9830546E-1,5.522635E-1,2.8800127E-1,2.6712451E-2,-1.9637014E-1,1.6746803E-1,1.16215326E-1,6.1336523E-1,7.1674085E-1,5.1160413E-1,1.8166177E-1,3.6299148E-1,-1.7515384E-1,3.5079035E-1,-5.4553207E-2,-3.5802776E-1,-1.17369555E-1,3.1918034E-1,1.5981032E-1,-1.6360073E-1,9.828744E-2,7.139824E-1,-2.5330472E-3,7.28462E-1,3.721927E-1,5.7795507E-1,8.94079E-2,4.172586E-1,2.9367295E-1,5.420868E-1,-3.7516907E-2,-1.3218382E-1,-7.691091E-2,5.6775075E-1,-3.3239734E-1,-8.189192E-3,-2.0033906E-1,-4.7778246E-1,-3.665451E-1,2.4938225E-3,4.4182566E-1,1.7394796E-1,4.036737E-2,3.2426235E-1,-3.071847E-1,3.0540362E-1,2.5726428E-2,-2.4431297E-1,4.884987E-3,3.67829E-2,3.2530192E-1,3.8135063E-2,4.4066685E-1,-6.81884E-2,6.1984205E-1,4.082631E-1,1.4959596E-2,-5.6326182E-5,2.4681639E-2,2.8632795E-3,-1.8531932E-2,1.610741E-2,-1.2404832E-2,2.8491167E-2,-1.6363237E-2,1.3922845E-6,2.1354524E-2,-9.570337E-3,-9.657193E-3,3.4118697E-2,-3.4120325E-3,-2.5282746E-2,-2.272974E-3,1.1344919E-2,2.589797E-2,-1.0850641E-2,-2.536693E-2,-1.1399347E-2,-1.387502E-2,-3.0016199E-2,3.94191E-3,-1.33156795E-2,1.1894519E-2,2.4732808E-2,-1.8964378E-2,1.4928338E-2,9.362325E-3,-9.110851E-3,3.416861E-3,2.4714405E-2,1.712784E-2,-2.0262636E-2,-3.8525069E-3,2.414758E-2,7.955148E-3,-3.0439064E-2,-7.400951E-3,3.083146E-2,5.490629E-3,2.7455935E-2,-1.6678559E-2,1.6984303E-2,1.6756976E-2,3.2407604E-2,-2.9800033E-2,2.2401897E-2],"categories":[],"categories_nodes":[],"categories_segments":[],"categories_sizes":[],"default_left":[0,0,0,0,0,0,0,0,0,0,0,0,0,0,0,0,0,0,0,0,0,0,0,0,0,0,0,0,0,0,0,0,0,0,0,0,0,0,0,0,0,0,0,0,0,0,0,0,0,0,0,0,0,0,0,0,0,0,0,0,0,0,0,0,0,0,0,0,0,0,0,0,0,0,0,0,0,0,0,0,0,0,0,0,0,0,0,0,0,0,0,0,0,0,0,0,0,0,0,0,0,0,0,0,0,0,0,0,0,0,0],"id":12,"left_children":[1,3,5,7,9,11,13,15,17,19,21,23,25,27,29,31,33,35,37,39,41,43,45,47,49,51,53,-1,55,57,59,61,63,65,67,-1,69,71,73,75,77,79,81,83,85,87,89,91,93,95,97,-1,99,-1,-1,101,-1,103,105,107,109,-1,-1,-1,-1,-1,-1,-1,-1,-1,-1,-1,-1,-1,-1,-1,-1,-1,-1,-1,-1,-1,-1,-1,-1,-1,-1,-1,-1,-1,-1,-1,-1,-1,-1,-1,-1,-1,-1,-1,-1,-1,-1,-1,-1,-1,-1,-1,-1,-1,-1],"loss_changes":[1.2768873E2,8.268008E1,1.5668053E1,6.9702263E0,5.5525288E1,6.297525E0,2.2563705E0,4.5884933E0,8.239173E0,5.883338E1,2.1711786E1,1.9448545E0,1.5172873E0,7.1374893E-1,2.7262497E0,5.252552E0,4.077759E0,1.821017E0,4.5266676E0,1.7628178E1,2.2554764E1,5.2287765E0,5.757084E0,2.66996E0,1.5548818E0,1.00491E0,2.6830292E-1,0E0,7.7588654E-1,3.20675E0,1.2654495E0,3.3462782E0,1.8471851E0,4.81513E0,2.202715E0,0E0,1.8958426E0,1.070818E0,2.937663E0,8.922173E0,1.0296192E1,6.3337307E0,4.9121704E0,1.0170283E0,2.4667807E0,1.7884865E0,1.056541E1,2.6582754E0,2.4607215E0,1.2290224E0,4.1658008E-1,0E0,6.937904E-1,0E0,0E0,1.1324344E0,0E0,3.2158718E0,1.7414967E0,1.1482315E0,2.0734692E0,0E0,0E0,0E0,0E0,0E0,0E0,0E0,0E0,0E0,0E0,0E0,0E0,0E0,0E0,0E0,0E0,0E0,0E0,0E0,0E0,0E0,0E0,0E0,0E0,0E0,0E0,0E0,0E0,0E0,0E0,0E0,0E0,0E0,0E0,0E0,0E0,0E0,0E0,0E0,0E0,0E0,0E0,0E0,0E0,0E0,0E0,0E0,0E0,0E0,0E0],"parents":[2147483647,0,0,1,1,2,2,3,3,4,4,5,5,6,6,7,7,8,8,9,9,10,10,11,11,12,12,13,13,14,14,15,15,16,16,17,17,18,18,19,19,20,20,21,21,22,22,23,23,24,24,25,25,26,26,28,28,29,29,30,30,31,31,32,32,33,33,34,34,36,36,37,37,38,38,39,39,40,40,41,41,42,42,43,43,44,44,45,45,46,46,47,47,48,48,49,49,50,50,52,52,55,55,57,57,58,58,59,59,60,60],"right_children":[2,4,6,8,10,12,14,16,18,20,22,24,26,28,30,32,34,36,38,40,42,44,46,48,50,52,54,-1,56,58,60,62,64,66,68,-1,70,72,74,76,78,80,82,84,86,88,90,92,94,96,98,-1,100,-1,-1,102,-1,104,106,108,110,-1,-1,-1,-1,-1,-1,-1,-1,-1,-1,-1,-1,-1,-1,-1,-1,-1,-1,-1,-1,-1,-1,-1,-1,-1,-1,-1,-1,-1,-1,-1,-1,-1,-1,-1,-1,-1,-1,-1,-1,-1,-1,-1,-1,-1,-1,-1,-1,-1,-1],"split_conditions":[4E0,9.99E2,5.9E1,6E1,3E0,3.3333334E-1,8.997887E-1,5.1E1,1E1,9.028746E-1,5.5E1,2.44107E0,3.6363637E-1,2E1,8.3333336E-2,1.6666667E-1,9E0,1.8E1,5.6E1,9.0748495E-1,6.4E1,4E0,3.5E1,2.2307763E0,9.320133E-1,1.9940493E0,1.3333334E0,-2.5330472E-3,6.8E1,6.666667E-1,2.4902215E0,9.017659E-1,4.9E1,8E0,9.1371626E-1,-3.7516907E-2,7.5555553E0,3E0,9.227947E-1,6.7E1,4E0,1E0,2E0,2.377399E0,2.377399E0,6.7E1,5.2E0,2.101009E0,9.966993E-1,8.690382E-1,9.298154E-1,2.5726428E-2,7.5E-1,4.884987E-3,3.67829E-2,9.95025E-1,3.8135063E-2,7.3E1,3.6666668E1,1.905348E0,6E0,1.4959596E-2,-5.6326182E-5,2.4681639E-2,2.8632795E-3,-1.8531932E-2,1.610741E-2,-1.2404832E-2,2.8491167E-2,-1.6363237E-2,1.3922845E-6,2.1354524E-2,-9.570337E-3,-9.657193E-3,3.4118697E-2,-3.4120325E-3,-2.5282746E-2,-2.272974E-3,1.1344919E-2,2.589797E-2,-1.0850641E-2,-2.536693E-2,-1.1399347E-2,-1.387502E-2,-3.0016199E-2,3.94191E-3,-1.33156795E-2,1.1894519E-2,2.4732808E-2,-1.8964378E-2,1.4928338E-2,9.362325E-3,-9.110851E-3,3.416861E-3,2.4714405E-2,1.712784E-2,-2.0262636E-2,-3.8525069E-3,2.414758E-2,7.955148E-3,-3.0439064E-2,-7.400951E-3,3.083146E-2,5.490629E-3,2.7455935E-2,-1.6678559E-2,1.6984303E-2,1.6756976E-2,3.2407604E-2,-2.9800033E-2,2.2401897E-2],"split_indices":[37,24,1,11,34,5,10,1,25,10,1,0,12,11,12,5,25,1,1,14,1,33,11,0,14,0,2,0,1,2,0,10,11,48,14,0,8,15,14,1,31,8,28,0,0,1,8,0,13,13,10,0,5,0,0,13,0,1,11,0,33,0,0,0,0,0,0,0,0,0,0,0,0,0,0,0,0,0,0,0,0,0,0,0,0,0,0,0,0,0,0,0,0,0,0,0,0,0,0,0,0,0,0,0,0,0,0,0,0,0,0],"split_type":[0,0,0,0,0,0,0,0,0,0,0,0,0,0,0,0,0,0,0,0,0,0,0,0,0,0,0,0,0,0,0,0,0,0,0,0,0,0,0,0,0,0,0,0,0,0,0,0,0,0,0,0,0,0,0,0,0,0,0,0,0,0,0,0,0,0,0,0,0,0,0,0,0,0,0,0,0,0,0,0,0,0,0,0,0,0,0,0,0,0,0,0,0,0,0,0,0,0,0,0,0,0,0,0,0,0,0,0,0,0,0],"sum_hessian":[4.3504956E3,3.773344E3,5.7715137E2,7.0667303E2,3.066671E3,1.8592033E2,3.9123102E2,5.826703E2,1.24002754E2,2.5661057E3,5.0056525E2,1.5628954E2,2.9630798E1,7.4248566E1,3.1698245E2,2.4238287E2,3.402874E2,7.669155E1,4.73112E1,1.3676493E3,1.1984565E3,1.7403796E2,3.2652728E2,1.3559317E2,2.0696375E1,5.165336E0,2.4465462E1,1.0670143E0,7.318155E1,1.04346695E2,2.1263576E2,1.751701E2,6.7212776E1,2.4723517E2,9.3052246E1,4.1867695E0,7.250478E1,1.6139795E1,3.1171406E1,1.9470108E2,1.1729481E3,5.1845135E2,6.800052E2,5.5858868E1,1.181791E2,1.7592258E2,1.506047E2,7.92666E1,5.6326565E1,1.610953E1,4.5868454E0,2.1054702E0,3.0598662E0,1.0183736E0,2.3447088E1,6.550598E0,6.663095E1,9.030471E1,1.4041985E1,1.6841199E2,4.422376E1,5.211224E1,1.2305786E2,5.5142757E1,1.2070019E1,9.668087E0,2.3756708E2,2.8860908E0,9.016615E1,2.8692753E1,4.381203E1,2.4823792E0,1.3657415E1,3.9912894E0,2.7180117E1,7.767222E1,1.1702887E2,1.0131346E3,1.5981358E2,1.1079656E1,5.0737167E2,6.071369E2,7.286826E1,4.2035038E1,1.3823829E1,9.258937E1,2.5589727E1,3.7328945E1,1.3859364E2,2.731193E1,1.2329278E2,4.7850044E1,3.1416557E1,2.3043335E1,3.328323E1,1.7856705E0,1.4323859E1,1.6337146E0,2.9531307E0,1.719777E0,1.3400892E0,2.6831634E0,3.8674347E0,2.2790434E1,6.751428E1,8.617315E0,5.424669E0,1.6392942E1,1.5201906E2,1.1520331E0,4.3071724E1],"tree_param":{"num_deleted":"0","num_feature":"51","num_nodes":"111","size_leaf_vector":"1"}},{"base_weights":[3.0284093E-3,-6.267504E-2,4.2255655E-1,2.390923E-1,-1.3330716E-1,1.0004467E-1,5.1073176E-1,1.15043014E-1,3.1879723E-1,-1.9545732E-1,1.7734866E-1,5.6289864E-1,1.6981458E-2,3.582918E-1,5.5809516E-1,1.9614048E-2,3.4632385E-1,2.3917173E-1,4.7728527E-1,-5.8387205E-2,-3.4687683E-1,-3.854807E-2,3.6757988E-1,-3.1015655E-2,6.886141E-1,-1.5072526E-1,1.357047E-1,2.7722162E-1,3.7121188E-2,7.062511E-1,5.0754166E-1,-3.917376E-2,2.5018868E-1,5.907046E-1,2.2283523E-1,3.0828416E-1,-1.18721224E-1,5.3706115E-1,9.922772E-2,-1.1166258E-1,2.2365922E-1,-1.8833388E-1,-4.6780953E-1,2.3512688E-2,-2.7750158E-1,2.2506349E-1,5.6604207E-1,1.0163724E-2,3.540443E-2,-2.4352957E-1,3.461285E-1,2.8891042E-1,-1.5340011E-1,3.865032E-1,1.275938E-1,2.980226E-1,7.265269E-1,4.316836E-1,6.6833454E-1,2.6012303E-3,-1.2534107E-2,2.8276443E-2,2.9750948E-3,3.74224E-2,1.8695699E-2,4.386307E-3,2.897437E-2,2.0303346E-2,9.236354E-3,-1.2348338E-2,3.0130108E-3,-1.10819535E-2,2.7852261E-2,-2.2584042E-2,1.97741E-2,-9.183437E-3,1.0433706E-2,-4.900991E-3,1.5701106E-2,2.9823456E-2,-1.0353019E-2,-2.4832604E-2,-1.1354165E-2,-4.245862E-3,9.770657E-3,-3.062372E-2,-7.812839E-3,1.8213103E-2,-7.159603E-4,3.3192795E-2,2.1952985E-2,4.0980414E-3,-1.9818302E-2,2.518369E-2,-1.5942538E-2,-8.634272E-3,1.9633388E-2,1.456812E-2,-1.1660743E-2,-1.07058585E-2,2.1372365E-2,-2.4700803E-3,1.4759679E-2,3.0498287E-2,-2.5592832E-2,2.4946973E-2,3.761054E-2,2.237816E-2,-1.30062625E-2,-2.4671291E-3,3.454842E-2],"categories":[],"categories_nodes":[],"categories_segments":[],"categories_sizes":[],"default_left":[0,0,0,0,0,0,0,0,0,0,0,0,0,0,0,0,0,0,0,0,0,0,0,0,0,0,0,0,0,0,0,0,0,0,0,0,0,0,0,0,0,0,0,0,0,0,0,0,0,0,0,0,0,0,0,0,0,0,0,0,0,0,0,0,0,0,0,0,0,0,0,0,0,0,0,0,0,0,0,0,0,0,0,0,0,0,0,0,0,0,0,0,0,0,0,0,0,0,0,0,0,0,0,0,0,0,0,0,0,0,0],"id":13,"left_children":[1,3,5,7,9,11,13,15,17,19,21,23,25,27,29,31,33,35,37,39,41,43,45,-1,47,49,51,53,-1,55,57,59,61,63,65,67,69,71,73,75,77,79,81,83,85,87,89,-1,-1,91,93,95,97,99,101,103,105,107,109,-1,-1,-1,-1,-1,-1,-1,-1,-1,-1,-1,-1,-1,-1,-1,-1,-1,-1,-1,-1,-1,-1,-1,-1,-1,-1,-1,-1,-1,-1,-1,-1,-1,-1,-1,-1,-1,-1,-1,-1,-1,-1,-1,-1,-1,-1,-1,-1,-1,-1,-1,-1],"loss_changes":[1.16751495E2,7.808755E1,1.6258514E1,6.8344307E0,5.7341827E1,4.772378E0,3.0501099E0,6.0276585E0,5.218014E0,5.1324013E1,2.0358078E1,3.2375646E0,2.140671E0,3.2041903E0,2.2003937E0,2.6477487E0,2.2766304E0,7.042452E0,3.1170712E0,1.9553432E1,2.244368E1,3.4607193E0,7.323162E0,0E0,2.1970749E-2,2.1413436E0,2.8291984E0,1.4552469E0,0E0,4.8176956E-1,2.8618546E0,3.0209608E0,2.351947E0,6.1551285E-1,2.5810769E0,2.7964897E0,1.0837178E0,1.9566803E0,3.504806E0,2.5268536E1,6.0424957E0,7.6215725E0,4.5112915E0,3.4802012E0,1.8578484E0,5.169395E0,1.0678291E0,0E0,0E0,1.9316883E0,9.394443E-1,2.0526893E0,8.642363E-1,1.3871021E0,1.210954E0,1.7490506E0,9.0423584E-2,2.075306E0,1.3493118E0,0E0,0E0,0E0,0E0,0E0,0E0,0E0,0E0,0E0,0E0,0E0,0E0,0E0,0E0,0E0,0E0,0E0,0E0,0E0,0E0,0E0,0E0,0E0,0E0,0E0,0E0,0E0,0E0,0E0,0E0,0E0,0E0,0E0,0E0,0E0,0E0,0E0,0E0,0E0,0E0,0E0,0E0,0E0,0E0,0E0,0E0,0E0,0E0,0E0,0E0,0E0,0E0],"parents":[2147483647,0,0,1,1,2,2,3,3,4,4,5,5,6,6,7,7,8,8,9,9,10,10,11,11,12,12,13,13,14,14,15,15,16,16,17,17,18,18,19,19,20,20,21,21,22,22,24,24,25,25,26,26,27,27,29,29,30,30,31,31,32,32,33,33,34,34,35,35,36,36,37,37,38,38,39,39,40,40,41,41,42,42,43,43,44,44,45,45,46,46,49,49,50,50,51,51,52,52,53,53,54,54,55,55,56,56,57,57,58,58],"right_children":[2,4,6,8,10,12,14,16,18,20,22,24,26,28,30,32,34,36,38,40,42,44,46,-1,48,50,52,54,-1,56,58,60,62,64,66,68,70,72,74,76,78,80,82,84,86,88,90,-1,-1,92,94,96,98,100,102,104,106,108,110,-1,-1,-1,-1,-1,-1,-1,-1,-1,-1,-1,-1,-1,-1,-1,-1,-1,-1,-1,-1,-1,-1,-1,-1,-1,-1,-1,-1,-1,-1,-1,-1,-1,-1,-1,-1,-1,-1,-1,-1,-1,-1,-1,-1,-1,-1,-1,-1,-1,-1,-1,-1],"split_conditions":[2E0,9.99E2,4.2E1,5.2E1,3E0,4E0,6.8E1,2E0,8.833333E0,9.028746E-1,6.6E1,5E0,2.2019286E0,8E0,9.0453357E-1,2.485955E0,7E0,5.6E1,7.8E1,4E0,6.4E1,2.3810656E0,9.254383E-1,-3.1015655E-2,8.8288164E-1,9.9922097E-1,2.3926015E0,9.3093973E-1,3.7121188E-2,9.067638E-1,1E1,2.2349222E0,2.525345E0,9.10452E-1,5E0,9.2652786E-1,2.238319E0,9.130125E-1,9.090909E0,3E0,4E0,1E0,2E0,2.2116544E0,2.4E1,9.1719157E-1,9.2877096E-1,1.0163724E-2,3.540443E-2,8E0,2.1185274E0,9.901433E-1,5.2E0,2.0039283E-1,9.9580437E-1,9.0639305E-1,7.3E1,9.5E0,1.8155502E0,2.6012303E-3,-1.2534107E-2,2.8276443E-2,2.9750948E-3,3.74224E-2,1.8695699E-2,4.386307E-3,2.897437E-2,2.0303346E-2,9.236354E-3,-1.2348338E-2,3.0130108E-3,-1.10819535E-2,2.7852261E-2,-2.2584042E-2,1.97741E-2,-9.183437E-3,1.0433706E-2,-4.900991E-3,1.5701106E-2,2.9823456E-2,-1.0353019E-2,-2.4832604E-2,-1.1354165E-2,-4.245862E-3,9.770657E-3,-3.062372E-2,-7.812839E-3,1.8213103E-2,-7.159603E-4,3.3192795E-2,2.1952985E-2,4.0980414E-3,-1.9818302E-2,2.518369E-2,-1.5942538E-2,-8.634272E-3,1.9633388E-2,1.456812E-2,-1.1660743E-2,-1.07058585E-2,2.1372365E-2,-2.4700803E-3,1.4759679E-2,3.0498287E-2,-2.5592832E-2,2.4946973E-2,3.761054E-2,2.237816E-2,-1.30062625E-2,-2.4671291E-3,3.454842E-2],"split_indices":[37,24,1,1,34,18,1,4,8,10,1,1,0,43,10,0,25,11,11,31,1,0,14,0,13,13,0,14,0,14,37,0,0,10,4,10,0,14,8,28,30,8,28,0,1,10,10,0,0,37,0,13,8,13,13,14,1,8,0,0,0,0,0,0,0,0,0,0,0,0,0,0,0,0,0,0,0,0,0,0,0,0,0,0,0,0,0,0,0,0,0,0,0,0,0,0,0,0,0,0,0,0,0,0,0,0,0,0,0,0,0],"split_type":[0,0,0,0,0,0,0,0,0,0,0,0,0,0,0,0,0,0,0,0,0,0,0,0,0,0,0,0,0,0,0,0,0,0,0,0,0,0,0,0,0,0,0,0,0,0,0,0,0,0,0,0,0,0,0,0,0,0,0,0,0,0,0,0,0,0,0,0,0,0,0,0,0,0,0,0,0,0,0,0,0,0,0,0,0,0,0,0,0,0,0,0,0,0,0,0,0,0,0,0,0,0,0,0,0,0,0,0,0,0,0],"sum_hessian":[4.233622E3,3.6610984E3,5.725239E2,6.9393945E2,2.967159E3,1.2338016E2,4.491438E2,2.724122E2,4.2152725E2,2.4728152E3,4.9434357E2,1.7893768E1,1.0548638E2,1.0849985E2,3.4064395E2,1.9361102E2,7.8801186E1,2.8223798E2,1.3928926E2,1.2986334E3,1.1741819E3,2.319251E2,2.6241846E2,1.340735E0,1.6553034E1,4.3611652E1,6.1874733E1,9.101337E1,1.7486485E1,8.3363205E1,2.5728073E2,1.5493784E2,3.8673183E1,2.51824E1,5.361879E1,2.3667287E2,4.5565113E1,1.19909424E2,1.9379843E1,1.0928168E3,2.0581662E2,5.0919022E2,6.649917E2,1.8482433E2,4.7100777E1,1.5397937E2,1.0843909E2,1.0798266E0,1.5473207E1,3.7177372E1,6.4342804E0,4.0443256E1,2.1431479E1,5.1683163E1,3.9330204E1,4.687369E0,7.8675835E1,1.7731345E2,7.9967285E1,1.087856E2,4.6152237E1,1.3832508E1,2.4840675E1,1.3156754E1,1.2025646E1,3.9790928E1,1.3827863E1,1.3083998E2,1.0583289E2,2.6323612E1,1.9241499E1,2.818373E0,1.1709105E2,6.593697E0,1.2786146E1,8.926019E2,2.0021483E2,4.5118057E1,1.6069856E2,1.1147822E1,4.980424E2,5.928914E2,7.210029E1,1.1364579E2,7.1178535E1,1.14408E1,3.5659977E1,9.7033646E1,5.6945732E1,5.8866558E1,4.9572533E1,1.2027201E1,2.515017E1,5.397977E0,1.0363035E0,7.300492E0,3.3142765E1,2.8575401E0,1.8573938E1,3.0284524E0,4.865471E1,1.9471926E1,1.9858278E1,3.562165E0,1.1252041E0,1.0049775E1,6.862606E1,1.7367992E2,3.633539E0,2.4087954E0,7.755849E1],"tree_param":{"num_deleted":"0","num_feature":"51","num_nodes":"111","size_leaf_vector":"1"}},{"base_weights":[3.5301417E-3,-5.979445E-2,4.0666968E-1,2.4259067E-1,-1.3134596E-1,6.522592E-1,3.752302E-1,4.5249185E-1,2.0951036E-1,-1.8971442E-1,1.4885725E-1,3.5460584E-2,5.247666E-1,5.4365623E-1,3.2553002E-1,5.076812E-1,1.9786602E-1,2.539783E-1,-1.4354019E-1,-5.07866E-2,-3.3627382E-1,2.2283456E-1,3.49717E-2,5.692403E-1,1.937381E-1,5.57321E-1,1.1668734E-1,3.104308E-1,5.682115E-1,5.6172717E-1,1.8640704E-1,-1.0990369E-1,3.6697954E-1,2.6312172E-1,-3.9220113E-1,-5.3514484E-2,-4.725345E-1,-1.06241785E-1,2.585865E-1,3.7461495E-1,-3.4433797E-1,1.4888127E-1,3.5414177E-1,-3.40315E-1,1.0003853E-1,2.2042003E-1,6.63434E-1,-1.6021835E-2,2.4015075E-2,4.355435E-1,6.0322046E-1,-2.1792892E-1,2.3749452E-2,3.2153848E-1,-1.3055962E-1,6.2945807E-1,-1.19390795E-2,-3.7877623E-3,2.8807094E-2,-7.702572E-3,2.5585985E-2,-2.2416605E-2,5.3604837E-3,2.2366878E-2,-7.031228E-3,1.8767022E-2,1.067791E-2,2.2097524E-2,-3.0245528E-2,-1.4781713E-2,7.4331546E-3,-2.8685972E-2,-7.190707E-4,-8.425276E-3,8.562368E-3,-3.6010786E-3,1.7479025E-2,2.4455704E-2,-8.705507E-3,-1.4120053E-2,-2.1356491E-2,-6.991976E-3,9.313461E-3,-7.777607E-4,1.899972E-2,-3.7254808E-3,-2.2646202E-2,7.4190027E-3,-5.197526E-4,-4.9293516E-3,2.6815688E-2,1.0660632E-2,3.446364E-2,2.3781752E-2,-1.3817738E-2,1.123382E-2,3.0927135E-2,9.755745E-3,-2.6875416E-2,1.2477911E-2,1.906338E-2,-1.635603E-2,1.3204763E-2,6.245605E-3,3.5571944E-2],"categories":[],"categories_nodes":[],"categories_segments":[],"categories_sizes":[],"default_left":[0,0,0,0,0,0,0,0,0,0,0,0,0,0,0,0,0,0,0,0,0,0,0,0,0,0,0,0,0,0,0,0,0,0,0,0,0,0,0,0,0,0,0,0,0,0,0,0,0,0,0,0,0,0,0,0,0,0,0,0,0,0,0,0,0,0,0,0,0,0,0,0,0,0,0,0,0,0,0,0,0,0,0,0,0,0,0,0,0,0,0,0,0,0,0,0,0,0,0,0,0,0,0,0,0],"id":14,"left_children":[1,3,5,7,9,11,13,15,17,19,21,-1,23,25,27,29,31,33,35,37,39,41,43,45,47,49,51,53,55,57,59,61,63,65,67,69,71,73,75,77,79,81,83,85,87,89,91,-1,-1,93,95,97,-1,99,101,103,-1,-1,-1,-1,-1,-1,-1,-1,-1,-1,-1,-1,-1,-1,-1,-1,-1,-1,-1,-1,-1,-1,-1,-1,-1,-1,-1,-1,-1,-1,-1,-1,-1,-1,-1,-1,-1,-1,-1,-1,-1,-1,-1,-1,-1,-1,-1,-1,-1],"loss_changes":[1.0576191E2,7.7500114E1,4.097748E0,4.6648216E0,4.7393036E1,8.144379E-2,4.0162964E0,1.1988487E0,9.362066E0,4.879296E1,4.2032166E0,0E0,2.3031521E-1,5.9220123E-1,1.2500916E0,1.2036457E0,9.8287535E-1,3.222313E0,1.961695E0,2.1161076E1,6.815567E0,2.8878078E0,4.8691835E0,5.069313E-1,7.810054E-1,3.459053E-1,6.739909E-1,1.8479881E0,1.2178025E0,6.317806E-1,1.4463441E0,5.764728E-1,5.490289E-1,2.8184814E0,1.645519E0,2.6775856E0,6.540148E-1,1.8088894E1,5.666793E0,9.3722546E-1,5.796036E0,2.1357622E0,1.0417318E0,8.488052E-1,9.065535E-1,6.29722E-1,2.9337883E-2,0E0,0E0,