{"learner":{"attributes":{"best_iteration":"22","best_score":"0.8918663079970621","scikit_learn":"{\"_estimator_type\": \"ranker\"}"},"feature_names":["case_type_entropy","pos_count_union","weighted_rank_score","rank_std","appear_count","agreement_ratio","kings_consensus","is_king_top1","mean_importance","weighted_mean_importance","sem_sim_candidate","rationale_len_mean","rationale_certainty_mean","feat_nli_entailment","feat_soft_consensus","rank__claude-haiku-4-5-20251001","imp__claude-haiku-4-5-20251001","hit__claude-haiku-4-5-20251001","rank__deepseek-r1-0528","imp__deepseek-r1-0528","hit__deepseek-r1-0528","rank__deepseek-v3.2-exp","imp__deepseek-v3.2-exp","hit__deepseek-v3.2-exp","rank__gemini-2.5-flash-preview-05-20-nothinking","imp__gemini-2.5-flash-preview-05-20-nothinking","hit__gemini-2.5-flash-preview-05-20-nothinking","rank__gpt-3.5-turbo","imp__gpt-3.5-turbo","hit__gpt-3.5-turbo","rank__gpt-4o-mini","imp__gpt-4o-mini","hit__gpt-4o-mini","rank__gpt-5","imp__gpt-5","hit__gpt-5","rank__o3-mini","imp__o3-mini","hit__o3-mini","rank__qwen3-14b","imp__qwen3-14b","hit__qwen3-14b","rank__qwen3-235b-a22b-instruct-2507","imp__qwen3-235b-a22b-instruct-2507","hit__qwen3-235b-a22b-instruct-2507","rank__qwen3-32b","imp__qwen3-32b","hit__qwen3-32b","rank__qwen3-8b","imp__qwen3-8b","hit__qwen3-8b"],"feature_types":["float","float","float","float","float","float","float","float","float","float","float","float","float","float","float","float","float","float","float","float","float","float","float","float","float","float","float","float","float","float","float","float","float","float","float","float","float","float","float","float","float","float","float","float","float","float","float","float","float","float","float"],"gradient_booster":{"model":{"cats":{"enc":[],"feature_segments":[],"sorted_idx":[]},"gbtree_model_param":{"num_parallel_tree":"1","num_trees":"73"},"iteration_indptr":[0,1,2,3,4,5,6,7,8,9,10,11,12,13,14,15,16,17,18,19,20,21,22,23,24,25,26,27,28,29,30,31,32,33,34,35,36,37,38,39,40,41,42,43,44,45,46,47,48,49,50,51,52,53,54,55,56,57,58,59,60,61,62,63,64,65,66,67,68,69,70,71,72,73],"tree_info":[0,0,0,0,0,0,0,0,0,0,0,0,0,0,0,0,0,0,0,0,0,0,0,0,0,0,0,0,0,0,0,0,0,0,0,0,0,0,0,0,0,0,0,0,0,0,0,0,0,0,0,0,0,0,0,0,0,0,0,0,0,0,0,0,0,0,0,0,0,0,0,0,0],"trees":[{"base_weights":[-2.1326826E-3,-3.07103E-1,4.0251046E-2,-3.63227E-1,3.7389094E-1,3.5514122E-1,1.273456E-2,6.7857653E-3,-4.5596418E-1,-2.4620045E-2,4.4142413E-1,1.1504612E-1,4.76748E-1,1.8628962E-1,-4.9338143E-2,3.140482E-2,-3.986207E-2,3.0499554E-1,-4.9763235E-1,-2.3776905E-1,2.0090867E-2,7.03177E-2,5.0525624E-1,-3.71263E-2,1.6300224E-1,5.7472E-1,1.9561064E-1,-1.5022157E-1,2.158211E-1,3.686638E-1,-6.989982E-2,-1.106283E-1,1.8198043E-1,-1.22684434E-1,4.3337202E-1,-5.39376E-1,1.8564424E-1,1.5422053E-2,-2.6635423E-2,-1.0678293E-2,1.9020153E-2,5.531944E-1,2.066491E-3,6.4516336E-2,5.009572E-1,3.409887E-1,6.435733E-1,5.078843E-2,3.4498647E-2,-5.489563E-1,-4.2178813E-2,3.1811658E-1,1.4313568E-1,7.14546E-2,5.5502E-1,-3.890335E-2,-3.074605E-1,8.408912E-3,-9.493467E-3,-5.2626757E-3,2.1354694E-2,-1.5446401E-2,5.0282017E-3,5.080461E-3,2.541639E-2,-3.133248E-2,-1.1733065E-2,2.9834572E-2,-2.6019204E-2,8.195993E-3,3.0442793E-2,-1.7830903E-3,1.8928891E-2,3.2030012E-2,1.4402484E-2,2.3122465E-2,-4.7656978E-3,3.2983582E-2,-2.4512783E-3,-1.1907859E-2,8.887958E-3,1.0989825E-3,-3.109536E-2,5.819843E-3,-1.0194722E-2,-3.813117E-3,1.7684167E-2,-3.6937192E-3,1.00713E-2,1.0132893E-2,-8.523663E-3,1.5471852E-2,3.2432254E-2,-9.868137E-4,-1.7554937E-2,-1.7958375E-3,-1.8792478E-2],"categories":[],"categories_nodes":[],"categories_segments":[],"categories_sizes":[],"default_left":[0,0,0,0,0,0,0,0,0,0,0,0,0,0,0,0,0,0,0,0,0,0,0,0,0,0,0,0,0,0,0,0,0,0,0,0,0,0,0,0,0,0,0,0,0,0,0,0,0,0,0,0,0,0,0,0,0,0,0,0,0,0,0,0,0,0,0,0,0,0,0,0,0,0,0,0,0,0,0,0,0,0,0,0,0,0,0,0,0,0,0,0,0,0,0,0,0],"id":0,"left_children":[1,3,5,7,9,11,13,15,17,19,21,23,25,27,29,-1,31,33,35,37,-1,39,41,-1,43,45,47,49,51,53,55,57,59,61,63,65,67,-1,-1,-1,-1,69,-1,71,73,75,77,79,-1,81,83,85,87,89,91,93,95,-1,-1,-1,-1,-1,-1,-1,-1,-1,-1,-1,-1,-1,-1,-1,-1,-1,-1,-1,-1,-1,-1,-1,-1,-1,-1,-1,-1,-1,-1,-1,-1,-1,-1,-1,-1,-1,-1,-1,-1],"loss_changes":[3.739702E1,1.3628475E1,2.2005732E1,1.1211861E1,7.4752426E-1,5.9043236E0,2.5187159E1,1.95089E0,8.434021E0,5.4215837E-1,5.2016735E-1,2.9973006E0,3.6104393E0,6.152956E0,1.4828087E1,0E0,1.0052098E0,8.317293E-1,7.1744194E0,7.9329133E-1,0E0,4.865636E-1,4.1868496E-1,0E0,2.1995034E0,1.3853073E0,2.574267E0,2.142858E0,4.1674614E0,4.4414053E0,1.2081422E1,1.0966905E0,1.1399897E0,1.995929E-1,2.2505546E-1,6.075859E0,4.6706915E0,0E0,0E0,0E0,0E0,2.883458E-1,0E0,1.6832218E0,2.6094937E-1,1.3592496E0,8.786011E-1,1.116088E0,0E0,4.5665765E-1,1.0659746E0,3.3169289E0,4.228022E0,1.0606587E0,9.3922234E-1,8.69315E0,3.5039768E0,0E0,0E0,0E0,0E0,0E0,0E0,0E0,0E0,0E0,0E0,0E0,0E0,0E0,0E0,0E0,0E0,0E0,0E0,0E0,0E0,0E0,0E0,0E0,0E0,0E0,0E0,0E0,0E0,0E0,0E0,0E0,0E0,0E0,0E0,0E0,0E0,0E0,0E0,0E0,0E0],"parents":[2147483647,0,0,1,1,2,2,3,3,4,4,5,5,6,6,7,7,8,8,9,9,10,10,11,11,12,12,13,13,14,14,16,16,17,17,18,18,19,19,21,21,22,22,24,24,25,25,26,26,27,27,28,28,29,29,30,30,31,31,32,32,33,33,34,34,35,35,36,36,41,41,43,43,44,44,45,45,46,46,47,47,49,49,50,50,51,51,52,52,53,53,54,54,55,55,56,56],"right_children":[2,4,6,8,10,12,14,16,18,20,22,24,26,28,30,-1,32,34,36,38,-1,40,42,-1,44,46,48,50,52,54,56,58,60,62,64,66,68,-1,-1,-1,-1,70,-1,72,74,76,78,80,-1,82,84,86,88,90,92,94,96,-1,-1,-1,-1,-1,-1,-1,-1,-1,-1,-1,-1,-1,-1,-1,-1,-1,-1,-1,-1,-1,-1,-1,-1,-1,-1,-1,-1,-1,-1,-1,-1,-1,-1,-1,-1,-1,-1,-1,-1],"split_conditions":[3.3333333E0,2E0,9.99E2,5.4E1,9.701001E-1,5.1E1,9.016732E-1,1E0,9.99E2,7.7E1,9.087954E-1,7E0,5.8E1,9.03494E-1,9E0,3.140482E-2,2.4353096E0,9E0,2E0,6.8E1,2.0090867E-2,9.9671954E-1,2.2E1,-3.71263E-2,2E0,6.7E1,1E1,1E1,8.892278E-1,5.9E1,4E0,9.99E2,9.159207E-1,9.127071E-1,2.0271406E0,1.1764706E-1,3.3E1,1.5422053E-2,-2.6635423E-2,-1.0678293E-2,1.9020153E-2,2.0200088E0,2.066491E-3,2.4201841E0,9.2976433E-1,9.3599504E-1,2E0,9.685093E-1,3.4498647E-2,5E1,8.830657E-1,8E0,9.127071E-1,2.3062077E0,2.0951924E0,7E0,5.3E1,8.408912E-3,-9.493467E-3,-5.2626757E-3,2.1354694E-2,-1.5446401E-2,5.0282017E-3,5.080461E-3,2.541639E-2,-3.133248E-2,-1.1733065E-2,2.9834572E-2,-2.6019204E-2,8.195993E-3,3.0442793E-2,-1.7830903E-3,1.8928891E-2,3.2030012E-2,1.4402484E-2,2.3122465E-2,-4.7656978E-3,3.2983582E-2,-2.4512783E-3,-1.1907859E-2,8.887958E-3,1.0989825E-3,-3.109536E-2,5.819843E-3,-1.0194722E-2,-3.813117E-3,1.7684167E-2,-3.6937192E-3,1.00713E-2,1.0132893E-2,-8.523663E-3,1.5471852E-2,3.2432254E-2,-9.868137E-4,-1.7554937E-2,-1.7958375E-3,-1.8792478E-2],"split_indices":[8,28,24,1,13,1,10,8,21,1,14,1,11,14,36,0,0,21,34,1,0,13,11,0,4,1,25,48,10,1,49,30,14,14,0,2,11,0,0,0,0,0,0,0,14,14,3,13,0,1,10,45,14,0,0,31,1,0,0,0,0,0,0,0,0,0,0,0,0,0,0,0,0,0,0,0,0,0,0,0,0,0,0,0,0,0,0,0,0,0,0,0,0,0,0,0,0],"split_type":[0,0,0,0,0,0,0,0,0,0,0,0,0,0,0,0,0,0,0,0,0,0,0,0,0,0,0,0,0,0,0,0,0,0,0,0,0,0,0,0,0,0,0,0,0,0,0,0,0,0,0,0,0,0,0,0,0,0,0,0,0,0,0,0,0,0,0,0,0,0,0,0,0,0,0,0,0,0,0,0,0,0,0,0,0,0,0,0,0,0,0,0,0,0,0,0,0],"sum_hessian":[2.8912554E3,3.5202542E2,2.5392297E3,3.2565338E2,2.6372046E1,2.0310078E2,2.3361292E3,6.544814E1,2.6020523E2,3.9135823E0,2.2458464E1,6.8938225E1,1.3416255E2,6.14892E2,1.721237E3,3.7001793E0,6.1747967E1,1.3180395E1,2.4702484E2,2.904324E0,1.0092583E0,3.6044655E0,1.8853998E1,2.8838859E0,6.605434E1,9.871696E1,3.54456E1,4.9278366E1,5.6561365E2,7.990499E1,1.641332E3,4.719455E1,1.4553416E1,3.0531878E0,1.0127207E1,2.3300066E2,1.4024183E1,1.0023165E0,1.9020076E0,2.044234E0,1.5602314E0,1.6913849E1,1.9401497E0,5.2070885E1,1.3983452E1,2.381756E1,7.48994E1,2.8267452E1,7.178145E0,9.6359E0,3.9642467E1,2.3354799E2,3.3206564E2,3.1326887E1,4.8578102E1,1.4529214E3,1.8841072E2,1.0196434E1,3.6998116E1,6.963682E0,7.589734E0,1.4553152E0,1.5978727E0,2.3005033E0,7.8267035E0,1.8030333E2,5.269734E1,8.961621E0,5.0625625E0,2.6094313E0,1.4304418E1,4.0150333E1,1.1920552E1,7.2315555E0,6.7518964E0,1.858408E1,5.2334795E0,7.3244484E1,1.6549164E0,8.362145E0,1.9905308E1,1.1708871E0,8.465013E0,2.015704E1,1.9485426E1,1.9225334E1,2.1432266E2,7.025283E1,2.6181284E2,2.0416729E1,1.0910158E1,1.4596336E1,3.3981762E1,1.3698813E3,8.303994E1,3.8212086E1,1.5019864E2],"tree_param":{"num_deleted":"0","num_feature":"51","num_nodes":"97","size_leaf_vector":"1"}},{"base_weights":[2.4441488E-3,5.7231754E-1,-1.4576055E-1,3.6843055E-1,6.4823556E-1,-1.9057399E-1,3.865274E-1,2.3601283E-1,5.474071E-1,-1.4972404E-3,6.5785295E-1,1.6540613E-2,-3.4651992E-1,8.150222E-3,4.9366918E-1,4.9396746E-2,4.6543336E-1,6.435048E-1,2.4869211E-1,-3.210707E-1,5.5461377E-1,6.348853E-1,8.909933E-1,-2.6689274E-2,3.5628676E-1,4.1801063E-3,-3.900083E-1,6.401029E-2,-5.523744E-1,3.7129536E-1,6.289586E-1,-1.4308394E-1,2.3804586E-1,6.633778E-1,3.2766205E-1,-3.4420006E-2,6.7006385E-1,6.8180466E-1,-9.331522E-2,1.748005E-2,-4.868102E-1,4.5519434E-2,3.86518E-2,6.794681E-1,4.9462783E-1,4.3706048E-1,4.630013E-2,2.6739106E-1,-7.7386916E-2,1.5538661E-1,4.6644002E-1,-2.8814986E-1,1.8514352E-1,-2.5230503E-1,-4.5691139E-1,5.3458977E-1,-3.3693167E-3,-3.5023868E-2,2.0822417E-3,6.065798E-1,1.8138611E-1,6.712641E-1,4.383043E-2,-1.1026802E-2,1.5074541E-2,2.1994945E-2,-1.7608838E-3,2.4751915E-2,4.4658553E-2,-5.440369E-3,2.4358502E-2,4.5394953E-2,2.83485E-2,-3.8849656E-3,3.9139263E-2,2.562714E-2,-2.3407385E-2,-3.304662E-2,-5.011506E-3,-2.3222158E-2,2.5653368E-2,3.5525046E-2,2.5625069E-2,8.626244E-3,3.865352E-2,4.195726E-2,-3.1148894E-2,1.6759275E-2,-1.0477595E-2,-1.3049597E-2,-5.1368665E-5,1.35894315E-2,-1.7168952E-2,2.8952071E-2,5.852058E-3,-2.359769E-2,-4.8000836E-3,2.3465825E-2,3.1005586E-3,3.124765E-2,-1.3356405E-2,-2.6577318E-2,-1.378865E-2,3.9459478E-2,-2.0800594E-3,-1.5417946E-2,4.837183E-3,3.3748277E-2,-8.880812E-3,-3.2590774E-3,1.8251602E-2,1.2206802E-2,3.6758106E-2,2.5550826E-2,-1.5846765E-2],"categories":[],"categories_nodes":[],"categories_segments":[],"categories_sizes":[],"default_left":[0,0,0,0,0,0,0,0,0,0,0,0,0,0,0,0,0,0,0,0,0,0,0,0,0,0,0,0,0,0,0,0,0,0,0,0,0,0,0,0,0,0,0,0,0,0,0,0,0,0,0,0,0,0,0,0,0,0,0,0,0,0,0,0,0,0,0,0,0,0,0,0,0,0,0,0,0,0,0,0,0,0,0,0,0,0,0,0,0,0,0,0,0,0,0,0,0,0,0,0,0,0,0,0,0,0,0,0,0,0,0,0,0,0,0],"id":1,"left_children":[1,3,5,7,9,11,13,15,17,19,21,23,25,27,29,31,33,35,37,39,41,43,45,47,49,51,53,55,57,59,61,63,65,67,69,-1,71,73,75,-1,77,79,-1,81,83,85,-1,87,89,91,93,95,97,99,101,103,105,-1,-1,107,109,111,113,-1,-1,-1,-1,-1,-1,-1,-1,-1,-1,-1,-1,-1,-1,-1,-1,-1,-1,-1,-1,-1,-1,-1,-1,-1,-1,-1,-1,-1,-1,-1,-1,-1,-1,-1,-1,-1,-1,-1,-1,-1,-1,-1,-1,-1,-1,-1,-1,-1,-1,-1,-1],"loss_changes":[6.3776483E2,2.3884949E1,1.430232E2,9.947426E0,7.089081E0,1.7855568E2,1.8874855E1,1.0514868E1,5.008335E0,3.2958217E0,5.4197083E0,3.489808E1,4.809909E1,3.2848604E0,5.774658E0,5.003171E0,2.7902584E0,5.2577553E0,6.7965064E0,1.4789851E0,7.1749663E-1,6.0484924E0,1.1489334E0,3.1452759E1,5.8628845E0,1.8511139E1,2.5733307E1,3.022653E0,8.657434E-1,8.513197E0,4.201439E0,2.4203606E0,3.8483322E0,1.2708702E0,4.717771E0,0E0,2.7573204E0,1.6082077E0,6.207432E0,0E0,5.973959E-1,9.761885E-1,0E0,3.6363525E0,2.2283363E1,4.3136086E0,0E0,1.0101192E1,2.5221798E1,5.6946716E0,6.72781E0,4.680092E0,7.5329323E0,1.21259575E1,2.5365234E1,1.7842882E0,2.6048183E0,0E0,0E0,4.7195396E0,4.924033E0,4.1688156E0,2.2846162E0,0E0,0E0,0E0,0E0,0E0,0E0,0E0,0E0,0E0,0E0,0E0,0E0,0E0,0E0,0E0,0E0,0E0,0E0,0E0,0E0,0E0,0E0,0E0,0E0,0E0,0E0,0E0,0E0,0E0,0E0,0E0,0E0,0E0,0E0,0E0,0E0,0E0,0E0,0E0,0E0,0E0,0E0,0E0,0E0,0E0,0E0,0E0,0E0,0E0,0E0,0E0,0E0],"parents":[2147483647,0,0,1,1,2,2,3,3,4,4,5,5,6,6,7,7,8,8,9,9,10,10,11,11,12,12,13,13,14,14,15,15,16,16,17,17,18,18,19,19,20,20,21,21,22,22,23,23,24,24,25,25,26,26,27,27,28,28,29,29,30,30,31,31,32,32,33,33,34,34,36,36,37,37,38,38,40,40,41,41,43,43,44,44,45,45,47,47,48,48,49,49,50,50,51,51,52,52,53,53,54,54,55,55,56,56,59,59,60,60,61,61,62,62],"right_children":[2,4,6,8,10,12,14,16,18,20,22,24,26,28,30,32,34,36,38,40,42,44,46,48,50,52,54,56,58,60,62,64,66,68,70,-1,72,74,76,-1,78,80,-1,82,84,86,-1,88,90,92,94,96,98,100,102,104,106,-1,-1,108,110,112,114,-1,-1,-1,-1,-1,-1,-1,-1,-1,-1,-1,-1,-1,-1,-1,-1,-1,-1,-1,-1,-1,-1,-1,-1,-1,-1,-1,-1,-1,-1,-1,-1,-1,-1,-1,-1,-1,-1,-1,-1,-1,-1,-1,-1,-1,-1,-1,-1,-1,-1,-1,-1],"split_conditions":[9.99E2,6.5E1,4E0,2E0,-1.6666667E-1,9.019382E-1,4.1E1,4.9E1,9.3326855E-1,9.9565697E-1,9.5362335E-1,3E0,9.99E2,4.3E1,4.5454547E-1,2.4219763E0,4.8E1,1E1,3.856946E-1,1.3333334E-1,5E0,5.5E1,6.8E1,8E0,3.9E1,5.3E1,6.4E1,8.8325256E-1,9.490327E-1,9.223099E-1,5E1,9.989191E-1,2.5294242E0,9.972671E-1,2.0310571E0,-3.4420006E-2,8E0,8.5266745E-1,9.4100183E-1,1.748005E-2,9.23108E-1,9.245078E-1,3.86518E-2,2.5692904E0,1E1,7.4E1,4.630013E-2,7.375E0,9.103693E-1,8E0,2.1E1,4E0,3E1,1E0,8.3333336E-2,9.1941524E-1,9.932239E-1,-3.5023868E-2,2.0822417E-3,4.8989794E-1,7.7272725E0,5.9E1,2.274959E0,-1.1026802E-2,1.5074541E-2,2.1994945E-2,-1.7608838E-3,2.4751915E-2,4.4658553E-2,-5.440369E-3,2.4358502E-2,4.5394953E-2,2.83485E-2,-3.8849656E-3,3.9139263E-2,2.562714E-2,-2.3407385E-2,-3.304662E-2,-5.011506E-3,-2.3222158E-2,2.5653368E-2,3.5525046E-2,2.5625069E-2,8.626244E-3,3.865352E-2,4.195726E-2,-3.1148894E-2,1.6759275E-2,-1.0477595E-2,-1.3049597E-2,-5.1368665E-5,1.35894315E-2,-1.7168952E-2,2.8952071E-2,5.852058E-3,-2.359769E-2,-4.8000836E-3,2.3465825E-2,3.1005586E-3,3.124765E-2,-1.3356405E-2,-2.6577318E-2,-1.378865E-2,3.9459478E-2,-2.0800594E-3,-1.5417946E-2,4.837183E-3,3.3748277E-2,-8.880812E-3,-3.2590774E-3,1.8251602E-2,1.2206802E-2,3.6758106E-2,2.5550826E-2,-1.5846765E-2],"split_indices":[24,1,37,4,12,10,1,1,14,13,10,28,33,11,12,0,11,1,3,2,24,11,1,30,1,1,1,13,10,10,11,13,0,13,0,0,18,13,10,0,14,14,0,0,25,11,0,8,14,27,11,33,11,8,12,14,13,0,0,3,8,1,0,0,0,0,0,0,0,0,0,0,0,0,0,0,0,0,0,0,0,0,0,0,0,0,0,0,0,0,0,0,0,0,0,0,0,0,0,0,0,0,0,0,0,0,0,0,0,0,0,0,0,0,0],"split_type":[0,0,0,0,0,0,0,0,0,0,0,0,0,0,0,0,0,0,0,0,0,0,0,0,0,0,0,0,0,0,0,0,0,0,0,0,0,0,0,0,0,0,0,0,0,0,0,0,0,0,0,0,0,0,0,0,0,0,0,0,0,0,0,0,0,0,0,0,0,0,0,0,0,0,0,0,0,0,0,0,0,0,0,0,0,0,0,0,0,0,0,0,0,0,0,0,0,0,0,0,0,0,0,0,0,0,0,0,0,0,0,0,0,0,0],"sum_hessian":[7.5492856E3,1.5575125E3,5.9917734E3,4.2417975E2,1.1333326E3,5.5270884E3,4.6468484E2,2.4513365E2,1.790461E2,1.654322E1,1.1167894E3,2.3744424E3,3.152646E3,1.027817E2,3.6190314E2,1.3584744E2,1.0928621E2,1.3459285E2,4.445326E1,1.07743225E1,5.7688975E0,1.0200258E3,9.676363E1,2.1072356E3,2.6720685E2,3.479117E2,2.8047344E3,9.42726E1,8.509099E0,1.9198802E2,1.6991512E2,6.736043E1,6.848702E1,4.3283333E1,6.600288E1,2.1442008E0,1.3244864E2,1.91758E1,2.5277458E1,1.9151698E0,8.859153E0,2.0947943E0,3.6741035E0,7.710822E2,2.489436E2,7.893981E0,8.886965E1,3.0922852E2,1.7980071E3,9.547956E1,1.717273E2,1.3279735E2,2.1511436E2,9.186645E2,1.88607E3,1.0939198E1,8.3333405E1,6.6675143E0,1.8415844E0,8.476991E1,1.0721811E2,1.5832109E2,1.1594031E1,5.7795464E1,9.564961E0,3.9039623E1,2.9447403E1,2.6802738E1,1.6480595E1,1.7750147E1,4.8252728E1,3.769065E1,9.4757996E1,2.2773967E0,1.6898403E1,9.5209465E0,1.5756512E1,5.6187034E0,3.2404494E0,1.0051262E0,1.089668E0,6.4748413E2,1.2359804E2,1.16173485E2,1.3277013E2,5.8742085E0,2.0197725E0,2.7100418E2,3.8224323E1,5.274195E2,1.2705876E3,7.778189E1,1.769767E1,1.2937585E2,4.2351433E1,6.7128136E1,6.566921E1,6.418122E1,1.5093315E2,1.4580862E1,9.040836E2,1.3343424E3,5.517275E2,7.330448E0,3.6087492E0,2.008012E1,6.325328E1,7.8098625E1,6.6712904E0,4.6043716E1,6.1174397E1,2.1229893E1,1.370912E2,4.8704267E0,6.7236047E0],"tree_param":{"num_deleted":"0","num_feature":"51","num_nodes":"115","size_leaf_vector":"1"}},{"base_weights":[-3.6617047E-3,-1.2835175E-1,5.1205033E-1,-2.0747328E-1,5.155116E-1,3.0606776E-1,5.6821877E-1,-4.3753926E-3,-3.7922168E-1,9.6164055E-2,6.4306647E-1,6.321274E-2,5.698064E-1,5.206551E-1,7.8436464E-1,-4.7835574E-1,3.7624095E-2,-5.0225425E-1,2.1353833E-1,-6.950089E-2,2.5162768E-1,4.619492E-1,7.377982E-1,-3.077117E-2,3.159464E-1,5.903217E-1,-3.2134842E-2,5.7693565E-1,3.6367172E-1,8.1749713E-1,-1.9982554E-1,1.02901965E-1,-7.31884E-1,-3.1849265E-1,8.907844E-2,-2.9406112E-1,-6.209161E-1,-2.6021525E-1,3.9531535E-1,3.51015E-1,-1.4929663E-1,5.247302E-1,7.76154E-2,7.221414E-1,2.9091227E-1,7.4918866E-1,-2.7598575E-2,-9.808335E-2,2.8036165E-1,5.8652925E-1,2.0455366E-3,6.3359773E-1,-5.4306388E-2,5.8410656E-1,-3.9006028E-1,8.702291E-2,6.0666037E-1,-6.7771743E-3,8.242523E-1,-5.1348853E-1,2.4268614E-2,4.0586673E-2,-2.305135E-3,2.6762757E-2,-3.908586E-2,-2.6162232E-3,-2.2404801E-2,1.6628234E-2,1.8930518E-3,2.6394669E-2,-1.5670203E-2,-3.465034E-2,-2.2658778E-2,-2.692822E-2,-4.120334E-3,3.1690113E-2,1.1659517E-2,-2.4102658E-2,3.17873E-2,-3.8043402E-2,-3.1428814E-3,3.1094236E-2,-1.3065076E-2,3.0990276E-2,-2.6987982E-4,2.2212513E-2,4.6897084E-2,-2.1611258E-2,1.757997E-2,1.7293295E-2,3.854699E-2,3.2659035E-2,-3.5008233E-2,7.6573016E-3,-9.711149E-3,3.0185241E-2,5.072368E-3,3.419073E-2,6.6070156E-3,2.3376774E-2,-1.0908918E-2,3.639021E-2,2.311655E-2,-3.935553E-2,2.493737E-2,-9.785115E-4,2.970163E-2,1.0775026E-3,-2.7599543E-2,1.3714865E-2,-9.5202625E-3,-3.5864448E-3,4.2058364E-2,-5.402533E-3,4.152256E-2,7.789583E-3,-3.807622E-2],"categories":[],"categories_nodes":[],"categories_segments":[],"categories_sizes":[],"default_left":[0,0,0,0,0,0,0,0,0,0,0,0,0,0,0,0,0,0,0,0,0,0,0,0,0,0,0,0,0,0,0,0,0,0,0,0,0,0,0,0,0,0,0,0,0,0,0,0,0,0,0,0,0,0,0,0,0,0,0,0,0,0,0,0,0,0,0,0,0,0,0,0,0,0,0,0,0,0,0,0,0,0,0,0,0,0,0,0,0,0,0,0,0,0,0,0,0,0,0,0,0,0,0,0,0,0,0,0,0,0,0,0,0,0,0,0,0],"id":2,"left_children":[1,3,5,7,9,11,13,15,17,19,21,23,25,27,29,31,33,35,37,39,41,43,45,47,49,51,-1,53,55,57,59,61,63,65,67,69,71,73,75,77,79,81,83,85,87,89,91,93,95,97,99,101,103,105,107,109,111,-1,113,115,-1,-1,-1,-1,-1,-1,-1,-1,-1,-1,-1,-1,-1,-1,-1,-1,-1,-1,-1,-1,-1,-1,-1,-1,-1,-1,-1,-1,-1,-1,-1,-1,-1,-1,-1,-1,-1,-1,-1,-1,-1,-1,-1,-1,-1,-1,-1,-1,-1,-1,-1,-1,-1,-1,-1,-1,-1],"loss_changes":[4.275225E2,2.7285455E2,1.48029785E1,1.6633965E2,3.129425E1,1.7867641E1,1.0036499E1,4.3533794E1,1.8853775E2,3.569027E0,7.36821E0,3.4930587E0,3.7095604E0,7.1736755E0,6.0743103E0,2.6307045E1,3.6840004E1,5.2684143E1,3.840846E1,2.3188066E0,3.3503184E0,6.77573E0,2.578003E0,2.285333E0,3.382703E0,3.7215462E0,0E0,4.481659E0,1.4954414E1,1.2419891E0,1.6907556E0,5.839888E0,8.252716E0,8.733158E0,2.188745E1,1.254747E1,1.615802E1,6.0900946E0,1.2296799E1,2.9324698E0,2.9903135E0,2.2700047E0,2.0178661E0,3.2765808E0,4.382044E0,2.2692719E0,2.8683677E0,2.1884E0,1.0630573E0,8.5533094E-1,2.095599E0,1.6631241E0,4.1356845E0,3.6628265E0,3.5283834E-1,5.536631E0,1.89418E1,0E0,1.0979996E0,9.630985E-1,0E0,0E0,0E0,0E0,0E0,0E0,0E0,0E0,0E0,0E0,0E0,0E0,0E0,0E0,0E0,0E0,0E0,0E0,0E0,0E0,0E0,0E0,0E0,0E0,0E0,0E0,0E0,0E0,0E0,0E0,0E0,0E0,0E0,0E0,0E0,0E0,0E0,0E0,0E0,0E0,0E0,0E0,0E0,0E0,0E0,0E0,0E0,0E0,0E0,0E0,0E0,0E0,0E0,0E0,0E0,0E0,0E0],"parents":[2147483647,0,0,1,1,2,2,3,3,4,4,5,5,6,6,7,7,8,8,9,9,10,10,11,11,12,12,13,13,14,14,15,15,16,16,17,17,18,18,19,19,20,20,21,21,22,22,23,23,24,24,25,25,27,27,28,28,29,29,30,30,31,31,32,32,33,33,34,34,35,35,36,36,37,37,38,38,39,39,40,40,41,41,42,42,43,43,44,44,45,45,46,46,47,47,48,48,49,49,50,50,51,51,52,52,53,53,54,54,55,55,56,56,58,58,59,59],"right_children":[2,4,6,8,10,12,14,16,18,20,22,24,26,28,30,32,34,36,38,40,42,44,46,48,50,52,-1,54,56,58,60,62,64,66,68,70,72,74,76,78,80,82,84,86,88,90,92,94,96,98,100,102,104,106,108,110,112,-1,114,116,-1,-1,-1,-1,-1,-1,-1,-1,-1,-1,-1,-1,-1,-1,-1,-1,-1,-1,-1,-1,-1,-1,-1,-1,-1,-1,-1,-1,-1,-1,-1,-1,-1,-1,-1,-1,-1,-1,-1,-1,-1,-1,-1,-1,-1,-1,-1,-1,-1,-1,-1,-1,-1,-1,-1,-1,-1],"split_conditions":[1E0,4E0,5.1E1,9.019382E-1,5.9E1,2E0,9.514393E-1,2.3333333E0,2E0,3.2E1,4.5454547E-1,2.4851635E0,3E0,5.5E1,1.47902E0,6.1E1,9.99E2,6.4E1,5E1,8.8325256E-1,3.2E1,9.153712E-1,8E0,9.9882036E-1,2.5294242E0,5.9E1,-3.2134842E-2,2.6246693E0,1E1,-3.3333334E-1,8E0,2E0,9.99E2,5.7E1,9.99E2,1E0,8.3333336E-2,4E0,3E1,2.2872221E0,7E0,2.4353096E0,1.8528242E0,7.7E1,3E0,1.9423599E0,2.4561024E0,1.5384616E-1,1.9940493E0,9.359925E-1,9.0383804E-1,9.3019396E-1,3E0,3.3333333E0,7E0,6.5E1,9.2331815E-1,-6.7771743E-3,9.056489E-1,1E0,2.4268614E-2,4.0586673E-2,-2.305135E-3,2.6762757E-2,-3.908586E-2,-2.6162232E-3,-2.2404801E-2,1.6628234E-2,1.8930518E-3,2.6394669E-2,-1.5670203E-2,-3.465034E-2,-2.2658778E-2,-2.692822E-2,-4.120334E-3,3.1690113E-2,1.1659517E-2,-2.4102658E-2,3.17873E-2,-3.8043402E-2,-3.1428814E-3,3.1094236E-2,-1.3065076E-2,3.0990276E-2,-2.6987982E-4,2.2212513E-2,4.6897084E-2,-2.1611258E-2,1.757997E-2,1.7293295E-2,3.854699E-2,3.2659035E-2,-3.5008233E-2,7.6573016E-3,-9.711149E-3,3.0185241E-2,5.072368E-3,3.419073E-2,6.6070156E-3,2.3376774E-2,-1.0908918E-2,3.639021E-2,2.311655E-2,-3.935553E-2,2.493737E-2,-9.785115E-4,2.970163E-2,1.0775026E-3,-2.7599543E-2,1.3714865E-2,-9.5202625E-3,-3.5864448E-3,4.2058364E-2,-5.402533E-3,4.152256E-2,7.789583E-3,-3.807622E-2],"split_indices":[25,37,1,10,1,4,10,8,34,1,12,0,3,11,3,1,45,1,1,13,11,10,34,13,0,11,0,3,25,12,25,1,21,1,27,8,12,33,11,0,1,0,0,1,30,0,0,2,0,10,10,14,4,8,49,11,14,0,14,49,0,0,0,0,0,0,0,0,0,0,0,0,0,0,0,0,0,0,0,0,0,0,0,0,0,0,0,0,0,0,0,0,0,0,0,0,0,0,0,0,0,0,0,0,0,0,0,0,0,0,0,0,0,0,0,0,0],"split_type":[0,0,0,0,0,0,0,0,0,0,0,0,0,0,0,0,0,0,0,0,0,0,0,0,0,0,0,0,0,0,0,0,0,0,0,0,0,0,0,0,0,0,0,0,0,0,0,0,0,0,0,0,0,0,0,0,0,0,0,0,0,0,0,0,0,0,0,0,0,0,0,0,0,0,0,0,0,0,0,0,0,0,0,0,0,0,0,0,0,0,0,0,0,0,0,0,0,0,0,0,0,0,0,0,0,0,0,0,0,0,0,0,0,0,0,0,0],"sum_hessian":[6.646421E3,5.3529287E3,1.2934922E3,4.767722E3,5.8520667E2,2.7852524E2,1.014967E3,2.1849617E3,2.5827603E3,1.3689772E2,4.4830893E2,1.4564893E2,1.3287633E2,8.346975E2,1.8026942E2,1.7700482E2,2.0079569E3,2.138954E3,4.4380606E2,6.654213E1,7.035558E1,1.5597578E2,2.9233313E2,1.06808395E2,3.8840527E1,1.3117009E2,1.7062354E0,6.1245087E2,2.2224667E2,1.7456221E2,5.707216E0,5.3937603E1,1.2306722E2,2.5284195E2,1.755115E3,7.7779144E2,1.3611627E3,1.2294667E2,3.208594E2,1.007084E1,5.647129E1,2.6597237E1,4.375835E1,6.0586163E1,9.5389626E1,2.8806738E2,4.265771E0,8.837386E1,1.8434532E1,2.0393118E1,1.8447407E1,1.2293421E2,8.235871E0,6.0833563E2,4.115247E0,1.04560265E2,1.1768642E2,1.0944064E0,1.734678E2,4.086937E0,1.6202787E0,8.59631E0,4.5341293E1,4.2881727E0,1.18779045E2,8.325786E1,1.6958409E2,3.040719E2,1.4510431E3,1.7278343E1,7.605131E2,9.4982166E2,4.1134106E2,4.7133297E1,7.581338E1,1.286723E2,1.9218709E2,2.3887632E0,7.682077E0,6.0269775E0,5.0444313E1,2.3857277E1,2.7399592E0,4.9515414E0,3.880681E1,2.7820133E1,3.276603E1,6.911478E0,8.847814E1,1.5605333E1,2.7246204E2,2.1342654E0,2.1315055E0,2.4294693E1,6.407917E1,5.7209916E0,1.271354E1,1.638101E1,4.012107E0,5.5639076E0,1.28835E1,7.7213104E1,4.5721107E1,3.3602643E0,4.8756065E0,9.825092E0,5.985105E2,1.4066386E0,2.708608E0,6.242938E1,4.2130882E1,3.040987E1,8.727654E1,1.0372353E0,1.7243057E2,1.2056383E0,2.8812988E0],"tree_param":{"num_deleted":"0","num_feature":"51","num_nodes":"117","size_leaf_vector":"1"}},{"base_weights":[-3.5171167E-4,-1.1999188E-1,4.8711392E-1,-2.0026578E-1,5.088373E-1,4.2588702E-1,7.200288E-1,-2.7077994E-1,2.219885E-1,3.0613384E-1,6.8440497E-1,4.7505078E-1,-1.04438685E-1,3.9224055E-1,8.019111E-1,-2.8437367E-2,-3.938624E-1,-2.1112873E-1,3.856628E-1,1.8673375E-2,3.8753885E-1,3.535848E-1,7.482715E-1,3.5986876E-1,5.9823304E-1,1.4255349E-2,-3.7958738E-1,-1.7610859E-3,6.667447E-1,3.0269465E-1,8.412642E-1,9.5991164E-2,-2.542186E-1,-4.5236406E-1,1.1490165E-1,-4.5696467E-2,-1.4310938E-1,5.743287E-1,2.794419E-1,4.369041E-1,-1.0275878E-1,2.302578E-1,4.930955E-1,-3.455363E-1,4.1621798E-1,7.629226E-1,-2.3001632E-2,-3.8049586E-2,3.7005803E-1,6.115765E-1,-4.1985998E-1,-3.5415143E-1,1.5987906E-1,-4.385901E-1,1.7883336E-2,-2.3005928E-1,2.8185478E-1,7.4108505E-1,1.4782923E-1,-1.0088308E-1,4.0251907E-2,8.9238364E-1,3.3514017E-1,1.9861339E-2,1.2285326E-3,-6.108915E-3,-1.5884027E-2,-7.953886E-3,-2.4455717E-2,2.2518408E-2,-1.1564265E-2,-2.0158974E-2,-6.208709E-4,-3.1054025E-3,3.098552E-2,-6.483519E-3,2.0883596E-2,3.256805E-2,-7.066026E-3,-8.8603115E-3,2.0620948E-2,1.5310953E-2,-1.3036956E-2,1.9999743E-2,3.8992107E-2,-2.6316656E-2,2.798167E-3,3.0084534E-2,9.927383E-3,3.8878057E-2,1.1150258E-3,3.3685945E-2,1.6945682E-2,3.2868262E-2,2.0826368E-2,-3.3127133E-2,1.0324501E-2,-2.6351202E-2,-4.0346687E-3,7.886939E-5,2.04315E-2,-1.0326865E-2,-2.984268E-2,1.9484716E-2,-1.8768612E-2,-1.37211755E-2,2.5643548E-2,1.0773465E-2,3.9280895E-2,3.362297E-2,-3.15956E-2,3.1689323E-2,-1.8641628E-2,-6.5818327E-3,4.4992577E-2,4.08823E-2,-2.4531202E-3],"categories":[],"categories_nodes":[],"categories_segments":[],"categories_sizes":[],"default_left":[0,0,0,0,0,0,0,0,0,0,0,0,0,0,0,0,0,0,0,0,0,0,0,0,0,0,0,0,0,0,0,0,0,0,0,0,0,0,0,0,0,0,0,0,0,0,0,0,0,0,0,0,0,0,0,0,0,0,0,0,0,0,0,0,0,0,0,0,0,0,0,0,0,0,0,0,0,0,0,0,0,0,0,0,0,0,0,0,0,0,0,0,0,0,0,0,0,0,0,0,0,0,0,0,0,0,0,0,0,0,0,0,0,0,0,0,0],"id":3,"left_children":[1,3,5,7,9,11,13,15,17,19,21,23,25,27,29,31,33,35,37,39,41,43,45,47,49,51,53,55,57,59,61,63,65,67,69,-1,71,73,75,77,79,81,83,85,87,89,-1,-1,91,93,95,97,99,101,-1,103,105,107,109,111,-1,113,115,-1,-1,-1,-1,-1,-1,-1,-1,-1,-1,-1,-1,-1,-1,-1,-1,-1,-1,-1,-1,-1,-1,-1,-1,-1,-1,-1,-1,-1,-1,-1,-1,-1,-1,-1,-1,-1,-1,-1,-1,-1,-1,-1,-1,-1,-1,-1,-1,-1,-1,-1,-1,-1,-1],"loss_changes":[3.518325E2,2.4461456E2,1.6647156E1,1.2798073E2,1.9315369E1,2.4658035E1,6.288559E0,1.098136E2,4.370262E1,5.9938297E0,5.929962E0,1.2042648E1,2.647306E0,5.53111E0,3.5936966E0,3.4894844E1,7.2725586E1,7.9675093E0,8.796074E0,2.9725525E0,3.2035809E0,2.3042426E0,4.685486E0,5.4092712E0,5.9075623E0,3.140288E0,1.2189531E0,1.4888296E0,1.0530329E0,3.2997139E0,4.3842163E0,1.7222101E1,3.6588802E0,2.352774E1,2.9440565E1,0E0,5.2851534E0,4.660858E0,1.633472E1,1.7241509E0,1.8175806E0,3.1425467E0,2.8565044E0,3.635925E-1,1.7269444E0,2.6095123E0,0E0,0E0,3.9859123E0,3.396759E0,1.0449023E0,7.419579E-1,1.6486571E0,7.2345924E-1,0E0,1.2931765E0,1.45891E0,4.4192123E-1,2.48081E0,2.1726384E0,0E0,1.371109E0,3.415287E0,0E0,0E0,0E0,0E0,0E0,0E0,0E0,0E0,0E0,0E0,0E0,0E0,0E0,0E0,0E0,0E0,0E0,0E0,0E0,0E0,0E0,0E0,0E0,0E0,0E0,0E0,0E0,0E0,0E0,0E0,0E0,0E0,0E0,0E0,0E0,0E0,0E0,0E0,0E0,0E0,0E0,0E0,0E0,0E0,0E0,0E0,0E0,0E0,0E0,0E0,0E0,0E0,0E0,0E0],"parents":[2147483647,0,0,1,1,2,2,3,3,4,4,5,5,6,6,7,7,8,8,9,9,10,10,11,11,12,12,13,13,14,14,15,15,16,16,17,17,18,18,19,19,20,20,21,21,22,22,23,23,24,24,25,25,26,26,27,27,28,28,29,29,30,30,31,31,32,32,33,33,34,34,36,36,37,37,38,38,39,39,40,40,41,41,42,42,43,43,44,44,45,45,48,48,49,49,50,50,51,51,52,52,53,53,55,55,56,56,57,57,58,58,59,59,61,61,62,62],"right_children":[2,4,6,8,10,12,14,16,18,20,22,24,26,28,30,32,34,36,38,40,42,44,46,48,50,52,54,56,58,60,62,64,66,68,70,-1,72,74,76,78,80,82,84,86,88,90,-1,-1,92,94,96,98,100,102,-1,104,106,108,110,112,-1,114,116,-1,-1,-1,-1,-1,-1,-1,-1,-1,-1,-1,-1,-1,-1,-1,-1,-1,-1,-1,-1,-1,-1,-1,-1,-1,-1,-1,-1,-1,-1,-1,-1,-1,-1,-1,-1,-1,-1,-1,-1,-1,-1,-1,-1,-1,-1,-1,-1,-1,-1,-1,-1,-1,-1],"split_conditions":[3E0,4E0,1E1,2E0,7.3E1,6.1E1,5.6E1,5.1E1,5E1,3.2E1,2.0951924E0,7.3E1,7.4E1,3E0,9.2281085E-1,6.5555553E0,3E0,9E0,3E1,8E0,8.3333336E-2,4E0,5.8E1,3E0,2.0591261E0,9.7155285E-1,9.391805E-1,9.9359494E-1,1.2857143E0,2E0,2.6311398E0,9E0,2.143094E0,9.99E2,2.1E1,-4.5696467E-2,4E0,9.0721893E-1,5.2E0,8.3333336E-2,6.857143E-1,9.37059E-1,2E0,8E0,8.4E1,9.427742E-1,-2.3001632E-2,-3.8049586E-2,3.1E1,2.5551088E0,7.8E1,7.1E0,9.3182296E-1,9.942404E-1,1.7883336E-2,9.2199993E-1,6.1E1,7.825799E-1,2E0,2.3014135E0,4.0251907E-2,1.6218348E0,9.8895603E-1,1.9861339E-2,1.2285326E-3,-6.108915E-3,-1.5884027E-2,-7.953886E-3,-2.4455717E-2,2.2518408E-2,-1.1564265E-2,-2.0158974E-2,-6.208709E-4,-3.1054025E-3,3.098552E-2,-6.483519E-3,2.0883596E-2,3.256805E-2,-7.066026E-3,-8.8603115E-3,2.0620948E-2,1.5310953E-2,-1.3036956E-2,1.9999743E-2,3.8992107E-2,-2.6316656E-2,2.798167E-3,3.0084534E-2,9.927383E-3,3.8878057E-2,1.1150258E-3,3.3685945E-2,1.6945682E-2,3.2868262E-2,2.0826368E-2,-3.3127133E-2,1.0324501E-2,-2.6351202E-2,-4.0346687E-3,7.886939E-5,2.04315E-2,-1.0326865E-2,-2.984268E-2,1.9484716E-2,-1.8768612E-2,-1.37211755E-2,2.5643548E-2,1.0773465E-2,3.9280895E-2,3.362297E-2,-3.15956E-2,3.1689323E-2,-1.8641628E-2,-6.5818327E-3,4.4992577E-2,4.08823E-2,-2.4531202E-3],"split_indices":[25,37,25,34,1,11,1,1,1,1,0,1,11,4,14,8,28,1,11,1,12,27,11,1,3,13,14,13,12,4,0,30,0,21,11,0,33,14,8,12,2,14,4,28,1,14,0,0,11,0,1,8,14,13,0,14,11,13,18,0,0,0,13,0,0,0,0,0,0,0,0,0,0,0,0,0,0,0,0,0,0,0,0,0,0,0,0,0,0,0,0,0,0,0,0,0,0,0,0,0,0,0,0,0,0,0,0,0,0,0,0,0,0,0,0,0,0],"split_type":[0,0,0,0,0,0,0,0,0,0,0,0,0,0,0,0,0,0,0,0,0,0,0,0,0,0,0,0,0,0,0,0,0,0,0,0,0,0,0,0,0,0,0,0,0,0,0,0,0,0,0,0,0,0,0,0,0,0,0,0,0,0,0,0,0,0,0,0,0,0,0,0,0,0,0,0,0,0,0,0,0,0,0,0,0,0,0,0,0,0,0,0,0,0,0,0,0,0,0,0,0,0,0,0,0,0,0,0,0,0,0,0,0,0,0,0,0],"sum_hessian":[6.030742E3,4.8428906E3,1.1878514E3,4.2952563E3,5.476343E2,9.428347E2,2.4501677E2,3.6809214E3,6.14335E2,2.5544789E2,2.9218637E2,8.629402E2,7.989453E1,5.012968E1,1.9488708E2,1.2402225E3,2.4406987E3,1.6840622E2,4.4592883E2,5.664617E1,1.9880171E2,4.833807E1,2.438483E2,4.479781E2,4.149621E2,5.647881E1,2.3415718E1,2.099241E1,2.913727E1,1.4875423E1,1.8001166E2,7.999456E2,4.4027692E2,2.1890908E3,2.5160796E2,1.37632265E1,1.5464299E2,1.5904018E2,2.8688864E2,1.2161657E1,4.4484516E1,8.111718E1,1.1768454E2,3.603083E0,4.4734985E1,2.4129117E2,2.5571234E0,3.3718827E0,4.446062E2,4.0998798E2,4.974133E0,1.5594651E1,4.088416E1,2.2055696E1,1.3600229E0,1.1735051E1,9.25736E0,2.5111612E1,4.0256586E0,8.691741E0,6.183682E0,1.6280489E2,1.7206776E1,1.5243738E2,6.4750824E2,1.4386775E2,2.9640918E2,2.4435318E2,1.9447377E3,1.2762967E2,1.2397828E2,5.1023655E1,1.0361934E2,1.0561144E1,1.4847903E2,7.246869E1,2.1441997E2,8.779104E0,3.3825524E0,3.9440994E1,5.0435205E0,7.057498E1,1.0542199E1,9.064798E1,2.7036562E1,2.2699828E0,1.3331E0,2.3201344E1,2.1533642E1,2.3656552E2,4.725658E0,3.943907E1,4.051671E2,3.3012027E2,7.986771E1,3.543429E0,1.4307041E0,8.986425E0,6.6082263E0,2.5599396E1,1.5284762E1,9.877663E0,1.2178034E1,1.9094726E0,9.825579E0,2.6612566E0,6.5961037E0,2.4174285E0,2.2694183E1,2.4887497E0,1.5369089E0,1.9887143E0,6.703027E0,1.0583204E0,1.6174657E2,7.1274767E0,1.0079299E1],"tree_param":{"num_deleted":"0","num_feature":"51","num_nodes":"117","size_leaf_vector":"1"}},{"base_weights":[-3.30712E-3,-1.1808349E-1,4.6181422E-1,4.9624133E-1,-1.9999138E-1,3.8377544E-1,7.2911066E-1,5.1851785E-1,-9.1172695E-2,-2.8576168E-1,2.65205E-1,4.1989696E-1,2.1380944E-2,7.889326E-1,5.159451E-1,3.5533902E-1,6.1701775E-1,-2.9120228E-1,3.6252886E-1,-5.8338277E-2,-4.979186E-1,3.5290062E-1,1.4238748E-1,6.3807356E-1,4.00433E-1,-8.1669874E-2,3.6345255E-1,8.155142E-1,5.873947E-1,5.733852E-1,-3.4886244E-1,1.9878295E-1,4.676637E-1,1.2217125E-1,6.2666345E-1,1.656178E-1,-4.7514272E-1,3.2560404E-2,-1.529337E-2,-1.3160703E-1,2.8985673E-1,-5.243895E-1,-2.3337038E-1,3.3393154E-1,5.6377757E-1,-2.7634E-1,2.0884818E-1,-3.5391223E-1,6.9011223E-1,3.8033316E-1,6.454571E-1,-3.997927E-1,2.9912647E-2,4.8348835E-1,-1.9390007E-2,8.187873E-3,8.2228535E-1,-6.894528E-2,7.3888063E-1,7.619579E-1,2.7444473E-1,-3.2708093E-3,-2.1595601E-2,1.622656E-2,-1.4207521E-2,1.8122101E-2,3.5699707E-2,2.0990916E-2,-1.8294917E-2,2.7202338E-2,3.3897348E-2,-2.1457875E-2,2.7959714E-2,-3.0930398E-2,2.1616188E-3,-1.1303756E-2,1.3246506E-2,1.6672064E-2,-1.6869998E-2,8.009078E-3,-2.6545826E-2,8.498651E-3,-2.118678E-2,7.812963E-3,1.7809393E-2,-5.906773E-3,3.215073E-2,-2.2790035E-2,-4.186892E-3,6.3098706E-3,1.5298708E-2,3.969644E-3,-3.1085992E-2,3.544188E-2,-5.676793E-3,2.0852989E-2,1.2734433E-2,1.1138736E-2,3.529983E-2,-2.567178E-2,-2.770807E-3,7.941651E-3,-1.3352317E-2,-4.3215547E-3,3.0761717E-2,7.234797E-3,4.135148E-2,-2.1523328E-2,2.5747119E-2,3.862853E-2,1.5128004E-2,2.599201E-3,3.965963E-2,-2.5314858E-2,2.0904338E-2],"categories":[],"categories_nodes":[],"categories_segments":[],"categories_sizes":[],"default_left":[0,0,0,0,0,0,0,0,0,0,0,0,0,0,0,0,0,0,0,0,0,0,0,0,0,0,0,0,0,0,0,0,0,0,0,0,0,0,0,0,0,0,0,0,0,0,0,0,0,0,0,0,0,0,0,0,0,0,0,0,0,0,0,0,0,0,0,0,0,0,0,0,0,0,0,0,0,0,0,0,0,0,0,0,0,0,0,0,0,0,0,0,0,0,0,0,0,0,0,0,0,0,0,0,0,0,0,0,0,0,0,0,0,0,0],"id":4,"left_children":[1,3,5,7,9,11,13,15,17,19,21,23,25,27,29,31,33,35,37,39,41,43,45,47,49,51,53,55,57,59,61,63,65,67,69,71,73,-1,-1,75,77,79,81,83,85,87,89,91,93,95,97,99,101,103,-1,-1,105,107,109,111,113,-1,-1,-1,-1,-1,-1,-1,-1,-1,-1,-1,-1,-1,-1,-1,-1,-1,-1,-1,-1,-1,-1,-1,-1,-1,-1,-1,-1,-1,-1,-1,-1,-1,-1,-1,-1,-1,-1,-1,-1,-1,-1,-1,-1,-1,-1,-1,-1,-1,-1,-1,-1,-1,-1],"loss_changes":[3.0067398E2,2.2740659E2,2.2973343E1,7.00531E0,1.591443E2,1.1313454E1,2.7911682E0,8.017517E0,1.9459387E0,1.6240479E2,6.6397133E0,3.0844269E0,2.8304636E0,5.5999756E-1,3.0737057E0,3.3406086E0,1.4422684E0,1.3078796E0,1.4823842E0,4.151894E1,1.207373E1,1.2586136E0,7.305164E0,3.4826298E0,3.3239594E0,2.2083433E0,1.862787E0,6.101761E-1,2.6534252E0,2.8702106E0,7.119757E-2,5.151267E0,2.6687489E0,1.2178878E0,9.5253754E-1,1.3965797E0,8.2156324E-1,0E0,0E0,5.0405243E1,7.8485947E0,7.155426E0,1.2373852E1,1.266304E0,1.6104136E0,1.2097416E0,1.7701902E0,4.889178E-1,9.8257065E-1,2.9958878E0,1.2120419E0,6.03081E-1,1.8317515E0,1.2893236E0,0E0,0E0,4.165039E-1,1.4508438E0,8.011532E-2,6.890812E-1,2.75655E0,0E0,0E0,0E0,0E0,0E0,0E0,0E0,0E0,0E0,0E0,0E0,0E0,0E0,0E0,0E0,0E0,0E0,0E0,0E0,0E0,0E0,0E0,0E0,0E0,0E0,0E0,0E0,0E0,0E0,0E0,0E0,0E0,0E0,0E0,0E0,0E0,0E0,0E0,0E0,0E0,0E0,0E0,0E0,0E0,0E0,0E0,0E0,0E0,0E0,0E0,0E0,0E0,0E0,0E0],"parents":[2147483647,0,0,1,1,2,2,3,3,4,4,5,5,6,6,7,7,8,8,9,9,10,10,11,11,12,12,13,13,14,14,15,15,16,16,17,17,18,18,19,19,20,20,21,21,22,22,23,23,24,24,25,25,26,26,27,27,28,28,29,29,30,30,31,31,32,32,33,33,34,34,35,35,36,36,39,39,40,40,41,41,42,42,43,43,44,44,45,45,46,46,47,47,48,48,49,49,50,50,51,51,52,52,53,53,56,56,57,57,58,58,59,59,60,60],"right_children":[2,4,6,8,10,12,14,16,18,20,22,24,26,28,30,32,34,36,38,40,42,44,46,48,50,52,54,56,58,60,62,64,66,68,70,72,74,-1,-1,76,78,80,82,84,86,88,90,92,94,96,98,100,102,104,-1,-1,106,108,110,112,114,-1,-1,-1,-1,-1,-1,-1,-1,-1,-1,-1,-1,-1,-1,-1,-1,-1,-1,-1,-1,-1,-1,-1,-1,-1,-1,-1,-1,-1,-1,-1,-1,-1,-1,-1,-1,-1,-1,-1,-1,-1,-1,-1,-1,-1,-1,-1,-1,-1,-1,-1,-1,-1,-1],"split_conditions":[3E0,8E0,1E1,5E1,3E0,6E1,2.4851635E0,2.2028415E0,9.490327E-1,9.019382E-1,3.6E1,3.1E1,9.5017564E-1,1.8E0,1E1,8.3333336E-2,4.2E0,2.2349222E0,5.8E1,4E0,2E0,9.3272036E-1,5.2E0,1.6218348E0,9.5362335E-1,9.701001E-1,2E0,9.04664E-1,9.262041E-1,9.9334234E-1,1E0,9.372567E-1,2E0,3.6363637E-1,8.3333336E-2,9.887165E-1,2E0,3.2560404E-2,-1.529337E-2,3E0,8E0,1E0,2.1E1,4E0,1.0526316E-1,4.2E0,9.2531085E-1,8.090909E0,9E0,9.338391E-1,3.9E1,8.090909E0,7.1E1,9.2199993E-1,-1.9390007E-2,8.187873E-3,8.545455E0,9.564095E-1,9.6231854E-1,2.4875076E0,9.2289335E-1,-3.2708093E-3,-2.1595601E-2,1.622656E-2,-1.4207521E-2,1.8122101E-2,3.5699707E-2,2.0990916E-2,-1.8294917E-2,2.7202338E-2,3.3897348E-2,-2.1457875E-2,2.7959714E-2,-3.0930398E-2,2.1616188E-3,-1.1303756E-2,1.3246506E-2,1.6672064E-2,-1.6869998E-2,8.009078E-3,-2.6545826E-2,8.498651E-3,-2.118678E-2,7.812963E-3,1.7809393E-2,-5.906773E-3,3.215073E-2,-2.2790035E-2,-4.186892E-3,6.3098706E-3,1.5298708E-2,3.969644E-3,-3.1085992E-2,3.544188E-2,-5.676793E-3,2.0852989E-2,1.2734433E-2,1.1138736E-2,3.529983E-2,-2.567178E-2,-2.770807E-3,7.941651E-3,-1.3352317E-2,-4.3215547E-3,3.0761717E-2,7.234797E-3,4.135148E-2,-2.1523328E-2,2.5747119E-2,3.862853E-2,1.5128004E-2,2.599201E-3,3.965963E-2,-2.5314858E-2,2.0904338E-2],"split_indices":[25,36,25,11,34,11,0,0,10,10,11,11,10,12,37,12,9,0,11,31,28,14,9,0,10,13,4,10,14,13,28,10,4,12,12,13,4,0,0,28,31,9,11,33,2,9,14,9,46,14,11,9,11,14,0,0,9,10,10,0,14,0,0,0,0,0,0,0,0,0,0,0,0,0,0,0,0,0,0,0,0,0,0,0,0,0,0,0,0,0,0,0,0,0,0,0,0,0,0,0,0,0,0,0,0,0,0,0,0,0,0,0,0,0,0],"split_type":[0,0,0,0,0,0,0,0,0,0,0,0,0,0,0,0,0,0,0,0,0,0,0,0,0,0,0,0,0,0,0,0,0,0,0,0,0,0,0,0,0,0,0,0,0,0,0,0,0,0,0,0,0,0,0,0,0,0,0,0,0,0,0,0,0,0,0,0,0,0,0,0,0,0,0,0,0,0,0,0,0,0,0,0,0,0,0,0,0,0,0,0,0,0,0,0,0,0,0,0,0,0,0,0,0,0,0,0,0,0,0,0,0,0,0],"sum_hessian":[5.6301655E3,4.5164126E3,1.1137533E3,5.3073553E2,3.985677E3,8.639529E2,2.498004E2,5.1145682E2,1.927872E1,3.3655427E3,6.2013416E2,7.854998E2,7.845306E1,1.9295052E2,5.6849888E1,1.942545E2,3.1720233E2,1.3628363E1,5.650358E0,1.6249447E3,1.7405981E3,3.6070554E2,2.5942862E2,6.173328E1,7.2376654E2,6.087531E1,1.757775E1,1.6777551E2,2.5174997E1,5.362511E1,3.2247753E0,8.230669E1,1.1194781E2,6.3260736E0,3.1087625E2,3.9408326E0,9.6875305E0,3.96402E0,1.6863382E0,1.3429724E3,2.8197223E2,1.5813817E3,1.5921643E2,3.3330698E2,2.7398542E1,3.5103764E1,2.2432486E2,2.7879062E0,5.8945374E1,6.7125433E2,5.251218E1,1.5136909E1,4.57384E1,1.5463415E1,2.1143343E0,1.984073E0,1.6579144E2,4.8230667E0,2.035193E1,3.1932878E1,2.1692232E1,1.1358438E0,2.0889316E0,6.556309E1,1.6743597E1,8.017282E1,3.1774986E1,4.0164804E0,2.3095932E0,1.2351102E2,1.8736523E2,1.5332983E0,2.4075344E0,7.4361463E0,2.2513838E0,1.0849353E3,2.5803717E2,2.6409048E2,1.7881748E1,1.4712874E1,1.5666688E3,5.1085102E1,1.0813133E2,3.799706E1,2.9530994E2,2.8011308E0,2.4597412E1,1.7464422E1,1.7639341E1,1.224357E2,1.0188916E2,1.3336475E0,1.4542588E0,5.7718483E1,1.2268897E0,5.1762915E2,1.5362523E2,7.165188E0,4.5346992E1,1.1012059E1,4.12485E0,3.2217E1,1.3521401E1,2.9680202E0,1.2495396E1,1.3717294E0,1.6441971E2,3.141022E0,1.682045E0,1.8177713E1,2.1742182E0,1.4579356E0,3.0474943E1,2.9784822E0,1.871375E1],"tree_param":{"num_deleted":"0","num_feature":"51","num_nodes":"115","size_leaf_vector":"1"}},{"base_weights":[-1.8957907E-3,4.3208045E-1,-1.1678897E-1,1.7865194E-1,5.281769E-1,4.3523172E-1,-1.9974805E-1,5.9525482E-3,4.8366526E-1,4.4113326E-1,7.846907E-1,5.245717E-2,5.229636E-1,-2.873271E-1,2.202328E-1,-1.1273199E-1,2.4832387E-1,-5.117104E-1,5.29387E-1,4.7790998E-1,-7.152127E-2,8.105541E-1,2.859497E-1,2.4372429E-1,-9.1660626E-2,4.359516E-1,6.589688E-1,-6.6664815E-2,-4.7788793E-1,-1.8107513E-1,4.099252E-1,-4.1939065E-2,-7.2104424E-2,3.347826E-1,-3.4260992E-2,-3.7860632E-2,5.9452155E-3,6.594378E-1,3.1959265E-1,7.956457E-1,4.4315335E-1,-1.4601927E-1,3.3818913E-1,5.129338E-1,8.398858E-1,5.934041E-1,-3.5854784E-1,3.279276E-2,1.3149978E-1,6.0032576E-1,-1.7717221E-1,2.532968E-1,5.5295044E-1,3.3618787E-1,7.432247E-1,-1.327883E-1,2.529747E-1,-2.743026E-1,-5.9503657E-1,-6.1929453E-2,-4.4645122E-1,2.9276365E-1,5.309086E-1,3.0640496E-2,-5.2602133E-3,3.327043E-2,8.1360275E-3,3.5195857E-2,1.8820783E-2,1.9009199E-2,-1.5593189E-2,-4.6553896E-3,4.1019622E-2,2.0499518E-2,3.824116E-2,-1.2847262E-2,9.408095E-3,2.5798446E-2,-8.506736E-3,4.1346133E-2,2.586113E-3,2.7633796E-2,4.280497E-2,3.7746914E-2,-1.2152198E-3,-3.0312581E-2,-1.8400248E-3,1.5759408E-2,-2.5615643E-3,5.4346337E-3,3.3827137E-2,-1.5379933E-2,1.4389591E-2,2.26372E-2,4.5611253E-3,3.080297E-2,8.462889E-3,2.876389E-2,-8.20057E-3,6.7806356E-3,3.9085682E-2,3.7066576E-3,-1.5667632E-2,-4.2741407E-2,1.4060532E-2,2.2852885E-2,-1.4580828E-2,-3.202078E-2,-8.774905E-3,-1.8936712E-2,2.9592763E-3,-2.6944784E-2,-1.1503423E-2,2.2274612E-2,8.805788E-3,2.2133889E-2,3.5111636E-2],"categories":[],"categories_nodes":[],"categories_segments":[],"categories_sizes":[],"default_left":[0,0,0,0,0,0,0,0,0,0,0,0,0,0,0,0,0,0,0,0,0,0,0,0,0,0,0,0,0,0,0,0,0,0,0,0,0,0,0,0,0,0,0,0,0,0,0,0,0,0,0,0,0,0,0,0,0,0,0,0,0,0,0,0,0,0,0,0,0,0,0,0,0,0,0,0,0,0,0,0,0,0,0,0,0,0,0,0,0,0,0,0,0,0,0,0,0,0,0,0,0,0,0,0,0,0,0,0,0,0,0,0,0,0,0,0,0],"id":5,"left_children":[1,3,5,7,9,11,13,15,17,19,21,23,25,27,29,31,33,35,37,39,41,43,45,47,49,51,53,55,57,59,61,-1,63,65,-1,-1,-1,67,69,71,73,75,77,79,81,83,85,-1,87,89,91,93,95,97,99,101,103,105,107,109,111,113,115,-1,-1,-1,-1,-1,-1,-1,-1,-1,-1,-1,-1,-1,-1,-1,-1,-1,-1,-1,-1,-1,-1,-1,-1,-1,-1,-1,-1,-1,-1,-1,-1,-1,-1,-1,-1,-1,-1,-1,-1,-1,-1,-1,-1,-1,-1,-1,-1,-1,-1,-1,-1,-1,-1],"loss_changes":[2.6399747E2,2.6897186E1,1.9180121E2,1.6127792E1,1.758522E1,1.8350182E1,1.3395142E2,5.68144E0,5.3085365E0,1.138237E1,2.3762665E0,2.8657763E0,4.980072E0,1.266396E2,4.7931084E1,3.851438E0,5.4689617E0,9.21366E-1,2.6901493E0,5.8510284E0,1.3056607E0,1.2424545E0,2.4941235E0,1.976531E0,3.6303692E0,5.723877E0,4.419853E0,2.9562721E1,3.8385254E1,6.374255E0,5.8997803E0,0E0,2.9364772E0,3.3098655E0,0E0,0E0,0E0,5.4945564E-1,1.7495313E0,1.2669563E0,5.1120834E0,1.3652325E0,6.873046E-1,2.8194213E0,3.320465E-1,8.336909E-1,3.2371998E-1,0E0,1.234741E0,1.8043613E-1,3.3497314E0,3.481576E0,3.925331E0,4.563345E0,3.0590057E0,4.33003E1,7.7420683E0,7.632347E0,1.9403595E1,5.428627E0,1.1277561E0,3.8275967E0,2.847435E0,0E0,0E0,0E0,0E0,0E0,0E0,0E0,0E0,0E0,0E0,0E0,0E0,0E0,0E0,0E0,0E0,0E0,0E0,0E0,0E0,0E0,0E0,0E0,0E0,0E0,0E0,0E0,0E0,0E0,0E0,0E0,0E0,0E0,0E0,0E0,0E0,0E0,0E0,0E0,0E0,0E0,0E0,0E0,0E0,0E0,0E0,0E0,0E0,0E0,0E0,0E0,0E0,0E0,0E0],"parents":[2147483647,0,0,1,1,2,2,3,3,4,4,5,5,6,6,7,7,8,8,9,9,10,10,11,11,12,12,13,13,14,14,15,15,16,16,17,17,18,18,19,19,20,20,21,21,22,22,23,23,24,24,25,25,26,26,27,27,28,28,29,29,30,30,32,32,33,33,37,37,38,38,39,39,40,40,41,41,42,42,43,43,44,44,45,45,46,46,48,48,49,49,50,50,51,51,52,52,53,53,54,54,55,55,56,56,57,57,58,58,59,59,60,60,61,61,62,62],"right_children":[2,4,6,8,10,12,14,16,18,20,22,24,26,28,30,32,34,36,38,40,42,44,46,48,50,52,54,56,58,60,62,-1,64,66,-1,-1,-1,68,70,72,74,76,78,80,82,84,86,-1,88,90,92,94,96,98,100,102,104,106,108,110,112,114,116,-1,-1,-1,-1,-1,-1,-1,-1,-1,-1,-1,-1,-1,-1,-1,-1,-1,-1,-1,-1,-1,-1,-1,-1,-1,-1,-1,-1,-1,-1,-1,-1,-1,-1,-1,-1,-1,-1,-1,-1,-1,-1,-1,-1,-1,-1,-1,-1,-1,-1,-1,-1,-1,-1],"split_conditions":[9.99E2,5.1E1,8E0,2E0,9.090909E0,4.1E1,2E0,2.4359374E0,1E1,6.4E1,2.6311398E0,7.7E0,8.3E1,9.016732E-1,5.5E1,8E0,9.9884087E-1,6E0,9.3019396E-1,3.2E1,9.3751717E-1,6E1,9.925592E-1,3E0,3E0,2.7272728E-1,2.2028415E0,3E0,6.4E1,2.2291021E-1,7.7E1,-4.1939065E-2,9E0,5.2E0,-3.4260992E-2,-3.7860632E-2,5.9452155E-3,2.5163157E0,4.7E1,3.3333333E0,9.5362335E-1,9.496078E-1,2.4660559E0,2.2437882E0,9.2281085E-1,8.5E1,9.942404E-1,3.279276E-2,3E1,2.0951924E0,9.9871933E-1,9.153712E-1,4.5E1,9.347795E-1,9.1084296E-1,5.9E1,5E0,1E0,2E0,2.1E1,3.8E1,3.1E1,9.2531085E-1,3.0640496E-2,-5.2602133E-3,3.327043E-2,8.1360275E-3,3.5195857E-2,1.8820783E-2,1.9009199E-2,-1.5593189E-2,-4.6553896E-3,4.1019622E-2,2.0499518E-2,3.824116E-2,-1.2847262E-2,9.408095E-3,2.5798446E-2,-8.506736E-3,4.1346133E-2,2.586113E-3,2.7633796E-2,4.280497E-2,3.7746914E-2,-1.2152198E-3,-3.0312581E-2,-1.8400248E-3,1.5759408E-2,-2.5615643E-3,5.4346337E-3,3.3827137E-2,-1.5379933E-2,1.4389591E-2,2.26372E-2,4.5611253E-3,3.080297E-2,8.462889E-3,2.876389E-2,-8.20057E-3,6.7806356E-3,3.9085682E-2,3.7066576E-3,-1.5667632E-2,-4.2741407E-2,1.4060532E-2,2.2852885E-2,-1.4580828E-2,-3.202078E-2,-8.774905E-3,-1.8936712E-2,2.9592763E-3,-2.6944784E-2,-1.1503423E-2,2.2274612E-2,8.805788E-3,2.2133889E-2,3.5111636E-2],"split_indices":[24,1,36,4,8,1,34,0,1,11,0,8,1,10,1,1,13,24,14,11,14,1,13,1,18,12,0,28,1,2,1,0,1,8,0,0,0,0,1,8,10,10,0,0,14,11,13,0,11,0,13,10,11,10,14,1,1,8,28,1,1,11,14,0,0,0,0,0,0,0,0,0,0,0,0,0,0,0,0,0,0,0,0,0,0,0,0,0,0,0,0,0,0,0,0,0,0,0,0,0,0,0,0,0,0,0,0,0,0,0,0,0,0,0,0,0,0],"split_type":[0,0,0,0,0,0,0,0,0,0,0,0,0,0,0,0,0,0,0,0,0,0,0,0,0,0,0,0,0,0,0,0,0,0,0,0,0,0,0,0,0,0,0,0,0,0,0,0,0,0,0,0,0,0,0,0,0,0,0,0,0,0,0,0,0,0,0,0,0,0,0,0,0,0,0,0,0,0,0,0,0,0,0,0,0,0,0,0,0,0,0,0,0,0,0,0,0,0,0,0,0,0,0,0,0,0,0,0,0,0,0,0,0,0,0,0,0],"sum_hessian":[5.2926655E3,1.1073198E3,4.1853457E3,3.052265E2,8.020933E2,5.462539E2,3.6390918E3,1.9553407E2,1.0969243E2,6.0090576E2,2.0118758E2,1.02153885E2,4.441E2,3.0114307E3,6.27661E2,1.3161812E2,6.3915962E1,4.3697505E0,1.0532268E2,5.6074677E2,4.0158966E1,1.906745E2,1.0513088E1,4.3599415E1,5.855447E1,2.733954E2,1.707046E2,1.3961227E3,1.6153081E3,2.0147389E2,4.2618713E2,5.9336205E0,1.25684494E2,5.9085255E1,4.8307056E0,3.0007763E0,1.3689741E0,6.369506E1,4.162762E1,5.3132442E1,5.0761435E2,3.452488E1,5.6340847E0,1.8764431E1,1.7191006E2,7.171321E0,3.3417673E0,8.294551E0,3.5304863E1,5.7778563E0,5.2776615E1,1.0798213E2,1.6541327E2,3.636846E1,1.3433614E2,1.1572982E3,2.3882448E2,5.9121466E2,1.0240935E3,1.3989755E2,6.1576324E1,2.1825082E2,2.0793633E2,4.9865675E0,1.2069793E2,1.9242517E1,3.984274E1,5.3759193E1,9.935867E0,3.8346054E1,3.2815642E0,1.3645221E0,5.1767918E1,4.6223425E2,4.538008E1,2.609439E1,8.430489E0,4.1630654E0,1.471019E0,1.0692282E1,8.072148E0,1.106102E1,1.6084904E2,5.508626E0,1.662695E0,1.3885307E0,1.9532365E0,1.7244823E1,1.8060041E1,1.1011368E0,4.6767197E0,4.147966E1,1.1296956E1,4.760563E1,6.0376503E1,1.4152922E2,2.388405E1,2.4505157E1,1.1863305E1,8.272018E0,1.26064125E2,5.3956354E2,6.177346E2,5.2083144E0,2.3361617E2,1.3085166E1,5.781295E2,9.2366003E2,1.0043341E2,3.8103035E1,1.01794525E2,4.2099728E1,1.9476597E1,9.328825E1,1.2496257E2,1.3961784E2,6.831847E1],"tree_param":{"num_deleted":"0","num_feature":"51","num_nodes":"117","size_leaf_vector":"1"}},{"base_weights":[1.794555E-3,-1.0886917E-1,4.2458045E-1,4.340291E-1,-1.9037949E-1,1.7587976E-1,5.1907396E-1,7.053854E-2,5.198538E-1,-2.7094698E-1,1.9969128E-1,2.6893679E-2,4.4336256E-1,4.3338713E-1,7.6843655E-1,1.8762698E-3,5.973492E-1,3.7976193E-1,6.0281664E-1,-5.8598243E-2,-4.629236E-1,-1.396128E-1,3.6636403E-1,3.2961565E-1,-4.986622E-2,4.8607957E-1,-2.981931E-1,4.7794315E-1,3.1433035E-2,7.8121537E-1,-1.6415963E-2,-1.388941E-1,2.2878253E-1,-2.6336167E-2,7.607856E-1,5.8632314E-1,2.5772303E-1,3.404866E-1,6.6464466E-1,-5.29551E-1,-1.5409872E-2,-2.791383E-1,-5.6927663E-1,-4.310182E-2,-9.3678184E-2,5.507589E-1,2.5587308E-1,9.128137E-6,5.373165E-1,-7.017707E-1,-2.1132825E-2,-2.6505178E-1,5.2297664E-1,2.5836298E-2,-6.181796E-1,4.8810372E-1,-3.8829613E-1,-1.4497139E-1,1.835628E-1,4.4203728E-1,8.113999E-1,-2.4292383E-3,-3.9704386E-2,2.4133286E-2,-3.5756943E-3,9.746181E-3,4.086955E-2,-2.199223E-3,3.0139655E-2,8.3359815E-3,3.39659E-2,1.9830566E-2,-6.700478E-3,3.4050297E-2,-8.70049E-3,1.2043231E-3,-3.6094997E-2,1.6519421E-3,-1.8422239E-2,2.3510927E-2,-1.4764442E-2,-3.1018991E-2,-6.860944E-3,-1.8976832E-2,5.2408845E-4,6.5396787E-3,2.9419972E-2,-7.035177E-3,1.9511E-2,-3.3985045E-2,7.770398E-3,3.4352593E-2,-6.505479E-3,-3.897964E-2,-7.3707025E-3,2.5956526E-2,-2.371302E-3,8.816497E-3,-3.3319164E-2,3.1906523E-2,1.6931301E-2,-5.8105136E-3,-3.5819136E-2,3.625698E-2,2.2837982E-2,-2.6705999E-2,3.2482136E-3,-1.9550137E-2,2.8269617E-3,-4.7203186E-3,2.161856E-2,3.518495E-2,-7.2259093E-3,2.018678E-2,4.1222915E-2],"categories":[],"categories_nodes":[],"categories_segments":[],"categories_sizes":[],"default_left":[0,0,0,0,0,0,0,0,0,0,0,0,0,0,0,0,0,0,0,0,0,0,0,0,0,0,0,0,0,0,0,0,0,0,0,0,0,0,0,0,0,0,0,0,0,0,0,0,0,0,0,0,0,0,0,0,0,0,0,0,0,0,0,0,0,0,0,0,0,0,0,0,0,0,0,0,0,0,0,0,0,0,0,0,0,0,0,0,0,0,0,0,0,0,0,0,0,0,0,0,0,0,0,0,0,0,0,0,0,0,0,0,0,0,0],"id":6,"left_children":[1,3,5,7,9,11,13,15,17,19,21,23,25,27,29,31,33,35,37,39,41,43,45,47,49,51,53,55,57,59,-1,61,63,-1,65,67,69,71,73,75,77,79,81,-1,83,85,87,89,91,93,95,97,99,-1,101,103,105,107,109,111,113,-1,-1,-1,-1,-1,-1,-1,-1,-1,-1,-1,-1,-1,-1,-1,-1,-1,-1,-1,-1,-1,-1,-1,-1,-1,-1,-1,-1,-1,-1,-1,-1,-1,-1,-1,-1,-1,-1,-1,-1,-1,-1,-1,-1,-1,-1,-1,-1,-1,-1,-1,-1,-1,-1],"loss_changes":[2.3812357E2,1.7858176E2,2.4721008E1,1.6399689E1,1.1029528E2,1.1633236E1,1.6004257E1,3.6810026E0,4.723053E0,1.1851105E2,3.4043648E1,4.4022684E0,3.4543E0,1.0217583E1,2.9789352E0,2.9403944E0,2.556522E0,3.9118786E0,4.086357E0,2.809673E1,2.9687927E1,6.5137286E0,8.076965E0,2.622663E0,2.8217535E0,2.8868332E0,1.9648573E0,4.715843E0,1.5853748E0,1.6101532E0,0E0,3.3233907E0,2.7213378E0,0E0,1.8192911E-1,6.397743E-1,3.8423629E0,1.458353E0,3.0566864E0,1.2374729E1,2.1678524E1,6.9367905E0,2.1250275E1,0E0,5.6006355E0,2.2983856E0,1.3592421E1,1.7754729E0,2.437994E0,1.595335E-1,2.0996203E0,1.0575163E0,1.7975597E0,0E0,1.6254508E-1,3.448616E0,4.655878E-1,1.3832636E0,2.2283225E0,2.850844E0,6.008377E-1,0E0,0E0,0E0,0E0,0E0,0E0,0E0,0E0,0E0,0E0,0E0,0E0,0E0,0E0,0E0,0E0,0E0,0E0,0E0,0E0,0E0,0E0,0E0,0E0,0E0,0E0,0E0,0E0,0E0,0E0,0E0,0E0,0E0,0E0,0E0,0E0,0E0,0E0,0E0,0E0,0E0,0E0,0E0,0E0,0E0,0E0,0E0,0E0,0E0,0E0,0E0,0E0,0E0,0E0],"parents":[2147483647,0,0,1,1,2,2,3,3,4,4,5,5,6,6,7,7,8,8,9,9,10,10,11,11,12,12,13,13,14,14,15,15,16,16,17,17,18,18,19,19,20,20,21,21,22,22,23,23,24,24,25,25,26,26,27,27,28,28,29,29,31,31,32,32,34,34,35,35,36,36,37,37,38,38,39,39,40,40,41,41,42,42,44,44,45,45,46,46,47,47,48,48,49,49,50,50,51,51,52,52,54,54,55,55,56,56,57,57,58,58,59,59,60,60],"right_children":[2,4,6,8,10,12,14,16,18,20,22,24,26,28,30,32,34,36,38,40,42,44,46,48,50,52,54,56,58,60,-1,62,64,-1,66,68,70,72,74,76,78,80,82,-1,84,86,88,90,92,94,96,98,100,-1,102,104,106,108,110,112,114,-1,-1,-1,-1,-1,-1,-1,-1,-1,-1,-1,-1,-1,-1,-1,-1,-1,-1,-1,-1,-1,-1,-1,-1,-1,-1,-1,-1,-1,-1,-1,-1,-1,-1,-1,-1,-1,-1,-1,-1,-1,-1,-1,-1,-1,-1,-1,-1,-1,-1,-1,-1,-1,-1],"split_conditions":[3E0,8E0,5.1E1,4.1E1,2E0,2E0,1E1,8E0,7.3E1,9.016732E-1,5.5E1,9.000143E-1,4.9E1,6E1,2.7569695E0,2.9E1,5E0,3.2E1,2.1393545E0,2.3333333E0,6.4E1,9E0,3E1,2.4164782E0,8E0,1E1,4.330127E-1,2.1602468E0,7.5555553E0,9.2331815E-1,-1.6415963E-2,9.354414E-1,9.153712E-1,-2.6336167E-2,4E0,3E0,6.857143E-1,1.5714285E0,9.427742E-1,5.6E1,1E0,1E0,2E0,-4.310182E-2,4E0,9.0721893E-1,5.2E0,1.7E1,9.982009E-1,9.983791E-1,9E0,3.6E1,9.3019396E-1,2.5836298E-2,9.2331815E-1,3.2E1,6.714286E0,9.8722744E-1,9.303043E-1,6.5E1,5.5E1,-2.4292383E-3,-3.9704386E-2,2.4133286E-2,-3.5756943E-3,9.746181E-3,4.086955E-2,-2.199223E-3,3.0139655E-2,8.3359815E-3,3.39659E-2,1.9830566E-2,-6.700478E-3,3.4050297E-2,-8.70049E-3,1.2043231E-3,-3.6094997E-2,1.6519421E-3,-1.8422239E-2,2.3510927E-2,-1.4764442E-2,-3.1018991E-2,-6.860944E-3,-1.8976832E-2,5.2408845E-4,6.5396787E-3,2.9419972E-2,-7.035177E-3,1.9511E-2,-3.3985045E-2,7.770398E-3,3.4352593E-2,-6.505479E-3,-3.897964E-2,-7.3707025E-3,2.5956526E-2,-2.371302E-3,8.816497E-3,-3.3319164E-2,3.1906523E-2,1.6931301E-2,-5.8105136E-3,-3.5819136E-2,3.625698E-2,2.2837982E-2,-2.6705999E-2,3.2482136E-3,-1.9550137E-2,2.8269617E-3,-4.7203186E-3,2.161856E-2,3.518495E-2,-7.2259093E-3,2.018678E-2,4.1222915E-2],"split_indices":[25,36,1,1,34,4,25,19,1,10,1,10,1,11,0,1,1,11,0,8,1,1,11,0,1,1,3,3,8,14,0,14,10,0,4,39,2,12,14,1,46,8,28,0,33,14,8,1,13,13,1,11,14,0,14,11,8,13,14,11,1,0,0,0,0,0,0,0,0,0,0,0,0,0,0,0,0,0,0,0,0,0,0,0,0,0,0,0,0,0,0,0,0,0,0,0,0,0,0,0,0,0,0,0,0,0,0,0,0,0,0,0,0,0,0],"split_type":[0,0,0,0,0,0,0,0,0,0,0,0,0,0,0,0,0,0,0,0,0,0,0,0,0,0,0,0,0,0,0,0,0,0,0,0,0,0,0,0,0,0,0,0,0,0,0,0,0,0,0,0,0,0,0,0,0,0,0,0,0,0,0,0,0,0,0,0,0,0,0,0,0,0,0,0,0,0,0,0,0,0,0,0,0,0,0,0,0,0,0,0,0,0,0,0,0,0,0,0,0,0,0,0,0,0,0,0,0,0,0,0,0,0,0],"sum_hessian":[5.08753E3,4.0327139E3,1.0548158E3,5.2586597E2,3.506848E3,2.912159E2,7.6359985E2,1.0079479E2,4.250712E2,2.9067717E3,6.000762E2,1.8774422E2,1.03471695E2,5.703517E2,1.9324818E2,9.006028E1,1.0734514E1,1.6017526E2,2.6489594E2,1.3807761E3,1.5259956E3,1.9772328E2,4.0235287E2,3.7309742E1,1.5043446E2,9.8161644E1,5.310047E0,5.1326764E2,5.7084007E1,1.9130688E2,1.9413072E0,5.581876E1,3.424152E1,1.0804763E0,9.654037E0,5.8074623E1,1.0210064E2,5.176581E1,2.1313013E2,1.15040596E2,1.2657355E3,5.6069727E2,9.6529834E2,1.0758315E1,1.8696497E2,1.492648E2,2.5308807E2,1.4808983E1,2.250076E1,5.3618164E0,1.4507265E2,4.3065987E0,9.385505E1,1.3238143E0,3.986233E0,5.0774854E2,5.5191236E0,2.6454887E1,3.062912E1,1.6912188E1,1.743947E2,5.0000977E1,5.8177853E0,1.8225565E1,1.6015955E1,1.281994E0,8.372044E0,1.4363079E0,5.6638313E1,8.512206E1,1.6978579E1,4.643723E1,5.3285813E0,2.0923611E2,3.8940132E0,2.9888203E1,8.51524E1,1.1137909E3,1.519446E2,1.12363205E1,5.4946094E2,8.628105E2,1.0248782E2,4.922559E1,1.3773938E2,1.2645901E1,1.366189E2,6.403039E1,1.890577E2,2.1278622E0,1.2681121E1,1.835374E1,4.1470194E0,4.3454843E0,1.016332E0,5.862767E0,1.3920988E2,2.3179598E0,1.9886391E0,5.6254456E1,3.760059E1,1.0094991E0,2.976734E0,5.6714783E1,4.5103375E2,4.040735E0,1.4783887E0,1.1488193E1,1.4966694E1,1.47599E1,1.5869219E1,1.1556937E1,5.355251E0,6.403526E0,1.6799117E2],"tree_param":{"num_deleted":"0","num_feature":"51","num_nodes":"115","size_leaf_vector":"1"}},{"base_weights":[-1.5608451E-3,-1.1154926E-1,4.179152E-1,-1.9036798E-1,4.052142E-1,1.7956538E-1,5.1107574E-1,-2.680265E-1,1.812532E-1,1.0729914E-1,5.4648626E-1,2.5815746E-2,4.429134E-1,4.2804062E-1,7.4305E-1,-6.713195E-2,-4.567485E-1,-1.5892597E-1,3.4717044E-1,2.9033678E-2,4.036883E-1,5.614979E-1,-4.2728957E-2,2.075762E-1,-8.045207E-2,-3.4093052E-2,4.7348562E-1,4.7172245E-1,-1.8688312E-2,6.29229E-1,7.8693056E-1,-1.2964262E-1,2.0820479E-1,-2.774602E-1,-5.647132E-1,-4.5836475E-1,-4.7171563E-2,4.8806244E-1,2.1003391E-1,-1.5674862E-1,1.5327275E-1,-3.2999333E-2,4.8552787E-1,4.4131136E-1,6.367067E-1,-4.3269205E-1,3.0107036E-1,4.9970573E-1,5.399226E-2,-5.5383123E-2,-3.163832E-2,4.9403605E-1,-3.0438965E-2,-1.4121465E-1,4.850602E-1,-2.5434452E-1,1.6171055E-1,6.5591085E-1,-9.3363235E-3,8.1694967E-1,5.334256E-1,-1.0774438E-2,1.1164141E-2,1.3314426E-2,-4.9797106E-3,2.1305354E-2,-1.4578787E-2,-3.0471137E-2,-9.482509E-3,-2.660708E-2,-1.2716243E-2,-3.8499635E-2,-7.942005E-4,1.407815E-2,2.9060608E-2,-1.3620041E-2,1.7079005E-2,2.8320297E-3,-1.9554567E-2,1.53543865E-2,1.3928041E-3,3.2765027E-2,-6.0470193E-3,1.2806751E-2,3.346667E-2,1.0515579E-2,3.2897793E-2,-3.3462748E-2,8.040818E-3,-4.6306676E-3,2.6510006E-2,2.966014E-2,2.051253E-3,-3.0980235E-2,4.7981744E-3,-7.4456492E-3,5.3026634E-3,3.1132195E-2,1.5860904E-2,1.6646493E-2,-1.761373E-2,3.7042897E-2,2.260729E-2,-1.630415E-2,1.2770968E-2,-6.673345E-3,2.0581687E-2,2.137471E-2,3.523327E-2,8.438702E-3,4.1235447E-2,1.0011843E-2,3.773458E-2],"categories":[],"categories_nodes":[],"categories_segments":[],"categories_sizes":[],"default_left":[0,0,0,0,0,0,0,0,0,0,0,0,0,0,0,0,0,0,0,0,0,0,0,0,0,0,0,0,0,0,0,0,0,0,0,0,0,0,0,0,0,0,0,0,0,0,0,0,0,0,0,0,0,0,0,0,0,0,0,0,0,0,0,0,0,0,0,0,0,0,0,0,0,0,0,0,0,0,0,0,0,0,0,0,0,0,0,0,0,0,0,0,0,0,0,0,0,0,0,0,0,0,0,0,0,0,0,0,0,0,0,0,0],"id":7,"left_children":[1,3,5,7,9,11,13,15,17,19,21,23,25,27,29,31,33,35,37,39,41,43,45,47,49,-1,51,53,55,57,59,61,63,65,67,69,71,73,75,77,79,-1,81,83,85,87,89,91,93,95,-1,97,-1,99,101,103,105,107,-1,109,111,-1,-1,-1,-1,-1,-1,-1,-1,-1,-1,-1,-1,-1,-1,-1,-1,-1,-1,-1,-1,-1,-1,-1,-1,-1,-1,-1,-1,-1,-1,-1,-1,-1,-1,-1,-1,-1,-1,-1,-1,-1,-1,-1,-1,-1,-1,-1,-1,-1,-1,-1,-1],"loss_changes":[2.2630917E2,1.5836165E2,2.2534103E1,9.737809E1,2.1599625E1,1.1645104E1,1.3783157E1,1.0574652E2,3.2991165E1,3.8569913E0,3.1094131E0,3.5481143E0,3.9698944E0,1.057486E1,4.6185303E-1,2.3306906E1,2.7686188E1,6.403139E0,7.4821014E0,3.094178E0,3.3465066E0,2.794426E0,1.4167639E0,3.0120153E0,1.5724094E0,0E0,2.6103306E0,4.101082E0,2.1323388E0,1.3918762E0,5.8628845E-1,3.3464012E1,4.5076103E0,5.512863E0,1.4922943E1,6.4842224E-1,3.174884E0,3.5462341E0,1.2828747E1,2.7124317E0,1.5388728E0,0E0,3.4620304E0,5.4957657E0,1.7373047E0,7.964865E-1,5.6231564E-1,9.7140646E-1,1.3462615E0,1.7091739E0,0E0,2.1324406E0,0E0,1.2460701E0,3.7315292E0,8.774911E-1,2.155467E0,3.2998657E-1,0E0,4.55307E-1,1.1096668E0,0E0,0E0,0E0,0E0,0E0,0E0,0E0,0E0,0E0,0E0,0E0,0E0,0E0,0E0,0E0,0E0,0E0,0E0,0E0,0E0,0E0,0E0,0E0,0E0,0E0,0E0,0E0,0E0,0E0,0E0,0E0,0E0,0E0,0E0,0E0,0E0,0E0,0E0,0E0,0E0,0E0,0E0,0E0,0E0,0E0,0E0,0E0,0E0,0E0,0E0,0E0,0E0],"parents":[2147483647,0,0,1,1,2,2,3,3,4,4,5,5,6,6,7,7,8,8,9,9,10,10,11,11,12,12,13,13,14,14,15,15,16,16,17,17,18,18,19,19,20,20,21,21,22,22,23,23,24,24,26,26,27,27,28,28,29,29,30,30,31,31,32,32,33,33,34,34,35,35,36,36,37,37,38,38,39,39,40,40,42,42,43,43,44,44,45,45,46,46,47,47,48,48,49,49,51,51,53,53,54,54,55,55,56,56,57,57,59,59,60,60],"right_children":[2,4,6,8,10,12,14,16,18,20,22,24,26,28,30,32,34,36,38,40,42,44,46,48,50,-1,52,54,56,58,60,62,64,66,68,70,72,74,76,78,80,-1,82,84,86,88,90,92,94,96,-1,98,-1,100,102,104,106,108,-1,110,112,-1,-1,-1,-1,-1,-1,-1,-1,-1,-1,-1,-1,-1,-1,-1,-1,-1,-1,-1,-1,-1,-1,-1,-1,-1,-1,-1,-1,-1,-1,-1,-1,-1,-1,-1,-1,-1,-1,-1,-1,-1,-1,-1,-1,-1,-1,-1,-1,-1,-1,-1,-1],"split_conditions":[3E0,4E0,5.1E1,2E0,5.9E1,2E0,1E1,9.016732E-1,5.5E1,2E0,5E1,1.5384616E-1,8E0,6.1E1,9.386128E-1,4E0,6.4E1,4E0,3.3E1,3.2E1,7E0,4.5454547E-1,1E1,9.000143E-1,8.5E1,-3.4093052E-2,3E0,3.3333333E0,7.5555553E0,9.382763E-1,9.6231854E-1,3E0,6.8333335E0,1E0,2E0,4.1E1,9E0,6.9E1,5.2E0,7.1E0,3.15E1,-3.2999333E-2,9.448303E-1,8.3E1,9.1084296E-1,2E0,9.372567E-1,9.982009E-1,8E0,5.5E1,-3.163832E-2,9.3019396E-1,-3.0438965E-2,9.141303E-1,3.2E1,9.982528E-1,9.303043E-1,9.262041E-1,-9.3363235E-3,9.169235E-1,9.3194336E-1,-1.0774438E-2,1.1164141E-2,1.3314426E-2,-4.9797106E-3,2.1305354E-2,-1.4578787E-2,-3.0471137E-2,-9.482509E-3,-2.660708E-2,-1.2716243E-2,-3.8499635E-2,-7.942005E-4,1.407815E-2,2.9060608E-2,-1.3620041E-2,1.7079005E-2,2.8320297E-3,-1.9554567E-2,1.53543865E-2,1.3928041E-3,3.2765027E-2,-6.0470193E-3,1.2806751E-2,3.346667E-2,1.0515579E-2,3.2897793E-2,-3.3462748E-2,8.040818E-3,-4.6306676E-3,2.6510006E-2,2.966014E-2,2.051253E-3,-3.0980235E-2,4.7981744E-3,-7.4456492E-3,5.3026634E-3,3.1132195E-2,1.5860904E-2,1.6646493E-2,-1.761373E-2,3.7042897E-2,2.260729E-2,-1.630415E-2,1.2770968E-2,-6.673345E-3,2.0581687E-2,2.137471E-2,3.523327E-2,8.438702E-3,4.1235447E-2,1.0011843E-2,3.773458E-2],"split_indices":[25,37,1,34,1,4,25,10,1,4,11,2,1,11,10,31,1,33,11,1,1,12,37,10,11,0,3,8,8,10,10,28,8,8,28,1,1,1,8,8,11,0,10,1,14,36,10,13,1,11,0,14,0,10,11,13,14,14,0,14,14,0,0,0,0,0,0,0,0,0,0,0,0,0,0,0,0,0,0,0,0,0,0,0,0,0,0,0,0,0,0,0,0,0,0,0,0,0,0,0,0,0,0,0,0,0,0,0,0,0,0,0,0],"split_type":[0,0,0,0,0,0,0,0,0,0,0,0,0,0,0,0,0,0,0,0,0,0,0,0,0,0,0,0,0,0,0,0,0,0,0,0,0,0,0,0,0,0,0,0,0,0,0,0,0,0,0,0,0,0,0,0,0,0,0,0,0,0,0,0,0,0,0,0,0,0,0,0,0,0,0,0,0,0,0,0,0,0,0,0,0,0,0,0,0,0,0,0,0,0,0,0,0,0,0,0,0,0,0,0,0,0,0,0,0,0,0,0,0],"sum_hessian":[4.9030923E3,3.885129E3,1.0179633E3,3.371523E3,5.1360596E2,2.8688928E2,7.3107404E2,2.788982E3,5.825411E2,1.6577612E2,3.478298E2,1.8183005E2,1.05059235E2,5.4046124E2,1.906128E2,1.3515802E3,1.4374016E3,1.909925E2,3.915486E2,1.3201404E2,3.376209E1,3.3923404E2,8.595751E0,6.673433E1,1.1509572E2,2.2163088E0,1.02842926E2,4.9227036E2,4.8190887E1,5.730644E1,1.3330637E2,1.1019335E3,2.496467E2,5.4159247E2,8.9580914E2,5.1065144E1,1.3992734E2,1.918677E2,1.996809E2,5.2798912E1,7.9215126E1,1.9073769E0,3.1854712E1,1.3321664E2,2.0601741E2,3.9063332E0,4.6894174E0,2.2218756E1,4.451557E1,1.1115097E2,3.944746E0,1.01459885E2,1.3830409E0,1.0279653E1,4.8199072E2,2.0717535E1,2.7473354E1,5.568178E1,1.6246581E0,1.172048E2,1.610156E1,8.866522E2,2.1528128E2,2.1012885E2,3.9517853E1,1.00781145E1,5.3151434E2,7.9983905E2,9.597008E1,3.632332E1,1.4741826E1,4.825935E0,1.3510141E2,6.0895E1,1.3097272E2,4.255247E1,1.5712843E2,2.8031824E1,2.4767088E1,3.4928795E1,4.4286327E1,2.4824818E1,7.0298934E0,7.468686E1,5.852978E1,1.0296667E1,1.9572075E2,2.7018101E0,1.2045232E0,1.9444048E0,2.7450128E0,1.8212963E1,4.005794E0,1.8037969E0,4.2711777E1,7.042632E1,4.0724648E1,5.7277763E1,4.418212E1,2.9885283E0,7.2911243E0,5.2496883E1,4.2949384E2,1.8477537E1,2.239997E0,1.28099E1,1.4663454E1,1.1512697E1,4.4169083E1,1.6555891E0,1.1554921E2,7.1858516E0,8.915709E0],"tree_param":{"num_deleted":"0","num_feature":"51","num_nodes":"113","size_leaf_vector":"1"}},{"base_weights":[-9.172803E-4,-1.0184106E-1,3.8746586E-1,3.9509308E-1,-1.7863317E-1,3.1148902E-1,6.527567E-1,2.1510078E-1,5.699513E-1,-2.5659138E-1,1.8499042E-1,3.5687572E-1,2.6941508E-2,2.6327145E-1,7.32804E-1,1.3799746E-1,4.9399936E-1,7.2390926E-1,4.4004747E-1,-5.724732E-2,-4.4115102E-1,-1.21836156E-1,3.3693752E-1,1.5872702E-1,4.4061232E-1,-7.396979E-2,3.1755084E-1,5.887965E-1,-7.404353E-2,3.7854502E-1,7.6140946E-1,-1.3916191E-1,2.3404253E-1,5.32188E-1,-2.630656E-2,-1.2073244E-2,7.374414E-1,2.2567594E-1,5.584854E-1,-3.177497E-1,1.515517E-2,-2.7740428E-1,-5.447409E-1,-4.3412736E-1,-1.5028938E-2,4.4709295E-1,1.5122788E-1,3.936246E-2,3.8589454E-1,6.814334E-1,4.0432405E-1,1.4417378E-2,-4.2384616E-1,3.774327E-1,-1.3805834E-2,3.6909636E-2,2.0675229E-1,-2.9873243E-1,3.7444398E-1,5.3437394E-1,-2.3203956E-2,4.932582E-1,3.9446022E-2,1.509766E-3,-1.7826196E-2,4.2508626E-3,1.8113708E-2,1.477133E-2,3.514793E-2,2.9624132E-2,4.0493738E-2,1.6551713E-2,-3.8627721E-3,1.7316401E-2,3.507578E-2,9.762179E-3,-1.975955E-2,-2.6191648E-3,1.09278755E-2,2.0407848E-2,-1.4421955E-2,-2.9574469E-2,-7.7757263E-3,-2.4103418E-2,-6.9857235E-3,-3.662164E-2,5.6808646E-4,2.7218917E-2,1.6859472E-2,1.442375E-2,-1.928421E-2,-4.2174184E-3,1.5679643E-2,2.4854366E-2,-1.5493572E-2,2.2193054E-2,3.9883222E-2,-2.4939065E-3,2.1647947E-2,-7.099816E-3,1.0244515E-2,-2.7632281E-2,-8.040163E-3,-1.9234419E-2,2.1256225E-2,2.3957595E-2,-2.8919343E-2,-2.2245929E-2,1.1215165E-3,-1.2159033E-2,2.6542572E-2,3.326731E-2,4.2945514E-3,3.695275E-2,-2.693278E-3],"categories":[],"categories_nodes":[],"categories_segments":[],"categories_sizes":[],"default_left":[0,0,0,0,0,0,0,0,0,0,0,0,0,0,0,0,0,0,0,0,0,0,0,0,0,0,0,0,0,0,0,0,0,0,0,0,0,0,0,0,0,0,0,0,0,0,0,0,0,0,0,0,0,0,0,0,0,0,0,0,0,0,0,0,0,0,0,0,0,0,0,0,0,0,0,0,0,0,0,0,0,0,0,0,0,0,0,0,0,0,0,0,0,0,0,0,0,0,0,0,0,0,0,0,0,0,0,0,0,0,0,0,0,0,0],"id":8,"left_children":[1,3,5,7,9,11,13,15,17,19,21,23,25,27,29,31,33,35,37,39,41,43,45,47,49,51,53,55,57,59,61,63,65,67,-1,-1,69,71,73,75,77,79,81,83,85,87,89,91,93,95,97,99,101,103,-1,-1,105,107,109,111,-1,113,-1,-1,-1,-1,-1,-1,-1,-1,-1,-1,-1,-1,-1,-1,-1,-1,-1,-1,-1,-1,-1,-1,-1,-1,-1,-1,-1,-1,-1,-1,-1,-1,-1,-1,-1,-1,-1,-1,-1,-1,-1,-1,-1,-1,-1,-1,-1,-1,-1,-1,-1,-1,-1],"loss_changes":[1.8514868E2,1.4314444E2,1.9434021E1,1.5681374E1,9.2123146E1,9.7962265E0,6.541046E0,5.287279E0,4.763321E0,9.839401E1,2.6802338E1,1.0793854E1,3.118246E0,4.25826E0,1.5217285E0,5.2631884E0,2.3661985E0,1.6768837E0,3.437786E0,2.4282516E1,2.3408325E1,6.359238E0,7.7912025E0,5.301186E0,3.7416687E0,2.4535372E0,1.0778749E0,9.6861887E-1,2.1009212E0,2.2613208E0,8.2271576E-1,1.895355E0,2.7649279E0,1.8994541E0,0E0,0E0,7.1077347E-1,1.6734188E0,2.4800339E0,1.12003765E1,1.386153E1,4.2045555E0,1.5368668E1,6.1863995E-1,2.7203846E0,2.3891754E0,1.0762481E1,4.4245667E0,5.369996E0,1.2679024E0,5.249344E0,1.9402249E0,4.530022E-1,1.0831728E0,0E0,0E0,1.7553055E0,6.5349853E-1,8.08392E-1,7.3024297E-1,0E0,2.4542518E0,0E0,0E0,0E0,0E0,0E0,0E0,0E0,0E0,0E0,0E0,0E0,0E0,0E0,0E0,0E0,0E0,0E0,0E0,0E0,0E0,0E0,0E0,0E0,0E0,0E0,0E0,0E0,0E0,0E0,0E0,0E0,0E0,0E0,0E0,0E0,0E0,0E0,0E0,0E0,0E0,0E0,0E0,0E0,0E0,0E0,0E0,0E0,0E0,0E0,0E0,0E0,0E0,0E0],"parents":[2147483647,0,0,1,1,2,2,3,3,4,4,5,5,6,6,7,7,8,8,9,9,10,10,11,11,12,12,13,13,14,14,15,15,16,16,17,17,18,18,19,19,20,20,21,21,22,22,23,23,24,24,25,25,26,26,27,27,28,28,29,29,30,30,31,31,32,32,33,33,36,36,37,37,38,38,39,39,40,40,41,41,42,42,43,43,44,44,45,45,46,46,47,47,48,48,49,49,50,50,51,51,52,52,53,53,56,56,57,57,58,58,59,59,61,61],"right_children":[2,4,6,8,10,12,14,16,18,20,22,24,26,28,30,32,34,36,38,40,42,44,46,48,50,52,54,56,58,60,62,64,66,68,-1,-1,70,72,74,76,78,80,82,84,86,88,90,92,94,96,98,100,102,104,-1,-1,106,108,110,112,-1,114,-1,-1,-1,-1,-1,-1,-1,-1,-1,-1,-1,-1,-1,-1,-1,-1,-1,-1,-1,-1,-1,-1,-1,-1,-1,-1,-1,-1,-1,-1,-1,-1,-1,-1,-1,-1,-1,-1,-1,-1,-1,-1,-1,-1,-1,-1,-1,-1,-1,-1,-1,-1,-1],"split_conditions":[1E0,8E0,9.090909E0,7.3E1,2E0,5.7E1,4.7E1,2E0,9.206145E-1,9.016732E-1,5.5E1,5E1,9.480115E-1,7E-1,9.233233E-1,3.2E1,1.7142857E0,2E0,5.4545456E-1,1.1764706E-1,6.4E1,4E0,3.7E1,2E0,3.2E1,7.2E1,2.6311398E0,5.7E1,1E0,2.6480575E0,6E1,7.1E0,9.957124E-1,5.4545456E-1,-2.630656E-2,-1.2073244E-2,8.3E1,2E0,9.307452E-1,9.99E2,4E0,1E0,2E0,5E1,9E0,9.1341805E-1,7E0,2.4359374E0,9.4100183E-1,1.8181819E-1,8E0,7.1E0,8.090909E0,-3.3333334E-1,-1.3805834E-2,3.6909636E-2,9.564095E-1,9.964695E-1,5.394848E-1,9.19896E-1,-2.3203956E-2,2.2349222E0,3.9446022E-2,1.509766E-3,-1.7826196E-2,4.2508626E-3,1.8113708E-2,1.477133E-2,3.514793E-2,2.9624132E-2,4.0493738E-2,1.6551713E-2,-3.8627721E-3,1.7316401E-2,3.507578E-2,9.762179E-3,-1.975955E-2,-2.6191648E-3,1.09278755E-2,2.0407848E-2,-1.4421955E-2,-2.9574469E-2,-7.7757263E-3,-2.4103418E-2,-6.9857235E-3,-3.662164E-2,5.6808646E-4,2.7218917E-2,1.6859472E-2,1.442375E-2,-1.928421E-2,-4.2174184E-3,1.5679643E-2,2.4854366E-2,-1.5493572E-2,2.2193054E-2,3.9883222E-2,-2.4939065E-3,2.1647947E-2,-7.099816E-3,1.0244515E-2,-2.7632281E-2,-8.040163E-3,-1.9234419E-2,2.1256225E-2,2.3957595E-2,-2.8919343E-2,-2.2245929E-2,1.1215165E-3,-1.2159033E-2,2.6542572E-2,3.326731E-2,4.2945514E-3,3.695275E-2,-2.693278E-3],"split_indices":[26,36,8,1,34,11,1,4,10,10,1,1,10,12,10,1,12,18,12,2,1,33,11,4,11,11,0,11,7,0,1,8,13,12,0,0,1,4,10,21,31,8,28,1,1,10,33,0,10,2,48,8,8,12,0,0,10,13,13,10,0,0,0,0,0,0,0,0,0,0,0,0,0,0,0,0,0,0,0,0,0,0,0,0,0,0,0,0,0,0,0,0,0,0,0,0,0,0,0,0,0,0,0,0,0,0,0,0,0,0,0,0,0,0,0],"split_type":[0,0,0,0,0,0,0,0,0,0,0,0,0,0,0,0,0,0,0,0,0,0,0,0,0,0,0,0,0,0,0,0,0,0,0,0,0,0,0,0,0,0,0,0,0,0,0,0,0,0,0,0,0,0,0,0,0,0,0,0,0,0,0,0,0,0,0,0,0,0,0,0,0,0,0,0,0,0,0,0,0,0,0,0,0,0,0,0,0,0,0,0,0,0,0,0,0,0,0,0,0,0,0,0,0,0,0,0,0,0,0,0,0,0,0],"sum_hessian":[4.7215234E3,3.7482542E3,9.732694E2,5.0114148E2,3.2471125E3,7.5827936E2,2.1499007E2,2.4804433E2,2.5309715E2,2.6740999E3,5.730128E2,6.537491E2,1.045303E2,3.7383347E1,1.7760672E2,1.9549365E2,5.2550682E1,1.1373241E2,1.3936475E2,1.286189E3,1.3879108E3,1.8984906E2,3.831638E2,1.9506224E2,4.5868683E2,7.8141785E1,2.6388515E1,1.8644743E1,1.8738605E1,1.4333198E1,1.6327353E2,5.0195225E1,1.4529842E2,5.1115482E1,1.4351981E0,1.3393645E0,1.1239304E2,5.0630135E1,8.873462E1,2.789924E2,1.00719653E3,5.392247E2,8.486861E2,4.760202E1,1.4224704E2,2.3962216E2,1.4354163E2,1.286413E2,6.6420944E1,5.773819E1,4.0094864E2,6.31479E1,1.4993882E1,2.4301514E1,2.087002E0,1.2733258E1,5.9114847E0,1.2706603E1,6.032002E0,1.2404938E1,1.9282595E0,1.6953747E1,1.4631978E2,2.869705E1,2.1498175E1,6.7969826E1,7.73286E1,2.2563183E1,2.8552301E1,4.0507072E1,7.188597E1,3.7496304E1,1.3133831E1,3.711022E1,5.1624393E1,3.6393078E1,2.4259933E2,7.5668616E2,2.505104E2,7.9718037E0,5.3125287E2,7.572198E2,9.146634E1,4.038801E1,7.2140093E0,4.0978417E0,1.381492E2,1.2501075E2,1.14611404E2,1.14687546E2,2.8854074E1,8.912682E1,3.9514477E1,5.7514854E1,8.906093E0,2.0551134E1,3.7187054E1,2.3734425E1,3.772142E2,3.48138E1,2.8334099E1,9.326281E0,5.6676016E0,1.0150319E0,2.3286482E1,4.67815E0,1.2333343E0,8.46719E0,4.239413E0,1.1067717E0,4.92523E0,9.226838E0,3.1780994E0,1.1456213E1,5.497534E0],"tree_param":{"num_deleted":"0","num_feature":"51","num_nodes":"115","size_leaf_vector":"1"}},{"base_weights":[3.749388E-3,-9.0412915E-2,3.661701E-1,-1.6529779E-1,3.9216754E-1,1.6358443E-1,4.4394702E-1,-2.4132946E-1,1.8558887E-1,1.3327484E-1,5.123455E-1,2.7816935E-2,4.2113551E-1,3.6160365E-1,6.841826E-1,-4.942424E-2,-4.2108402E-1,-1.2996577E-1,3.4797922E-1,6.590605E-2,4.801142E-1,3.872829E-2,5.505986E-1,5.64501E-1,-2.1535945E-3,-3.2093316E-2,4.512052E-1,3.9909434E-1,-1.6940933E-1,7.098955E-1,3.4203365E-2,2.3095235E-1,-1.2064201E-1,-2.6300508E-1,-5.426833E-1,-4.2785335E-1,-2.967132E-2,5.871035E-1,2.7052155E-1,-1.2808321E-1,1.8213461E-1,-2.5189072E-2,5.432981E-1,3.3901176E-1,-2.2299731E-1,5.6738156E-1,-1.4900997E-1,-4.834621E-4,3.2918137E-2,-4.0700078E-2,3.2868735E-2,5.018086E-1,-1.1799042E-1,6.057372E-1,3.559593E-1,-3.0440843E-1,2.771382E-1,-1.7730158E-2,7.238038E-1,-2.9205522E-2,2.810208E-2,1.4602802E-2,-5.1045874E-3,-9.834134E-3,1.0918594E-2,1.9219441E-2,-1.3873408E-2,-2.9300941E-2,-9.264231E-3,-2.5479196E-2,-1.1901392E-2,-1.2852142E-2,2.070891E-3,3.58088E-2,1.844021E-2,6.6422843E-3,1.990908E-2,-2.1564852E-2,-4.3530046E-4,1.3906728E-2,-1.5134091E-2,3.189462E-2,3.5298455E-3,2.973142E-2,7.097607E-3,-2.1874767E-2,2.2490552E-2,2.069408E-2,3.0649794E-2,2.2946538E-2,-2.2071812E-2,-1.8256184E-3,1.2387907E-2,2.64118E-2,-1.2439015E-2,-3.589135E-2,1.1038612E-2,3.135309E-2,-2.1451164E-2,1.905483E-2,-1.6471943E-3,-1.9339502E-2,1.9760704E-2,2.9387651E-2,1.1549228E-4,1.05198845E-2,3.7171047E-2],"categories":[],"categories_nodes":[],"categories_segments":[],"categories_sizes":[],"default_left":[0,0,0,0,0,0,0,0,0,0,0,0,0,0,0,0,0,0,0,0,0,0,0,0,0,0,0,0,0,0,0,0,0,0,0,0,0,0,0,0,0,0,0,0,0,0,0,0,0,0,0,0,0,0,0,0,0,0,0,0,0,0,0,0,0,0,0,0,0,0,0,0,0,0,0,0,0,0,0,0,0,0,0,0,0,0,0,0,0,0,0,0,0,0,0,0,0,0,0,0,0,0,0,0,0,0,0],"id":9,"left_children":[1,3,5,7,9,11,13,15,17,19,21,23,25,27,29,31,33,35,37,39,41,43,45,47,49,-1,51,53,55,57,59,61,63,65,67,69,71,73,75,77,79,-1,81,83,85,87,89,-1,-1,-1,91,93,95,97,99,101,103,-1,105,-1,-1,-1,-1,-1,-1,-1,-1,-1,-1,-1,-1,-1,-1,-1,-1,-1,-1,-1,-1,-1,-1,-1,-1,-1,-1,-1,-1,-1,-1,-1,-1,-1,-1,-1,-1,-1,-1,-1,-1,-1,-1,-1,-1,-1,-1,-1,-1],"loss_changes":[1.5590054E2,1.3110925E2,1.47721405E1,8.381027E1,1.5096634E1,9.182758E0,1.3207977E1,8.90152E1,2.8728388E1,3.6106014E0,6.003296E0,2.787927E0,3.1885796E0,1.0194473E1,2.8588257E0,2.4977112E1,2.5472717E1,5.691091E0,6.691269E0,2.9924092E0,1.8398905E0,2.1132166E0,3.6963196E0,5.004082E-1,4.7205873E0,0E0,2.6165524E0,4.022194E0,2.148934E0,2.7127686E0,2.8136928E0,5.1872234E0,2.574554E1,5.5498047E0,1.1542496E1,6.2359905E-1,2.3365893E0,2.2614002E0,4.8894405E0,1.8033592E0,3.9359782E0,0E0,1.0350227E0,5.437616E-1,2.283005E0,1.8511047E0,1.6245167E0,0E0,0E0,0E0,2.382887E0,1.7525787E0,1.7960032E0,2.0492802E0,3.8814392E0,1.6960146E0,7.220007E-1,0E0,1.4961548E0,0E0,0E0,0E0,0E0,0E0,0E0,0E0,0E0,0E0,0E0,0E0,0E0,0E0,0E0,0E0,0E0,0E0,0E0,0E0,0E0,0E0,0E0,0E0,0E0,0E0,0E0,0E0,0E0,0E0,0E0,0E0,0E0,0E0,0E0,0E0,0E0,0E0,0E0,0E0,0E0,0E0,0E0,0E0,0E0,0E0,0E0,0E0,0E0],"parents":[2147483647,0,0,1,1,2,2,3,3,4,4,5,5,6,6,7,7,8,8,9,9,10,10,11,11,12,12,13,13,14,14,15,15,16,16,17,17,18,18,19,19,20,20,21,21,22,22,23,23,24,24,26,26,27,27,28,28,29,29,30,30,31,31,32,32,33,33,34,34,35,35,36,36,37,37,38,38,39,39,40,40,42,42,43,43,44,44,45,45,46,46,50,50,51,51,52,52,53,53,54,54,55,55,56,56,58,58],"right_children":[2,4,6,8,10,12,14,16,18,20,22,24,26,28,30,32,34,36,38,40,42,44,46,48,50,-1,52,54,56,58,60,62,64,66,68,70,72,74,76,78,80,-1,82,84,86,88,90,-1,-1,-1,92,94,96,98,100,102,104,-1,106,-1,-1,-1,-1,-1,-1,-1,-1,-1,-1,-1,-1,-1,-1,-1,-1,-1,-1,-1,-1,-1,-1,-1,-1,-1,-1,-1,-1,-1,-1,-1,-1,-1,-1,-1,-1,-1,-1,-1,-1,-1,-1,-1,-1,-1,-1,-1,-1],"split_conditions":[1E0,4E0,5E1,2E0,5.9E1,2E0,1E1,9.016732E-1,5.5E1,8E-1,1.9423599E0,3.3333333E0,8E0,6.4E1,2.6480575E0,8E0,6.7E1,4E0,2.7E1,3E1,7E0,1.8324919E0,5E1,9.1808397E-1,8E0,-3.2093316E-2,5.9E1,3.5E1,9.496078E-1,1.6218348E0,9.294285E-1,6.8333335E0,3E0,1E0,2E0,3.8E1,2.0867105E0,9.1341805E-1,7.6E1,2.9E1,2.4359374E0,-2.5189072E-2,9.777778E0,9.21105E-1,9.29676E-1,7.3E1,7.2E1,-4.834621E-4,3.2918137E-2,-4.0700078E-2,2.4851635E0,4.9E1,3E0,2.8613808E0,7.713892E-1,9.3751717E-1,7.4E1,-1.7730158E-2,9.19522E-1,-2.9205522E-2,2.810208E-2,1.4602802E-2,-5.1045874E-3,-9.834134E-3,1.0918594E-2,1.9219441E-2,-1.3873408E-2,-2.9300941E-2,-9.264231E-3,-2.5479196E-2,-1.1901392E-2,-1.2852142E-2,2.070891E-3,3.58088E-2,1.844021E-2,6.6422843E-3,1.990908E-2,-2.1564852E-2,-4.3530046E-4,1.3906728E-2,-1.5134091E-2,3.189462E-2,3.5298455E-3,2.973142E-2,7.097607E-3,-2.1874767E-2,2.2490552E-2,2.069408E-2,3.0649794E-2,2.2946538E-2,-2.2071812E-2,-1.8256184E-3,1.2387907E-2,2.64118E-2,-1.2439015E-2,-3.589135E-2,1.1038612E-2,3.135309E-2,-2.1451164E-2,1.905483E-2,-1.6471943E-3,-1.9339502E-2,1.9760704E-2,2.9387651E-2,1.1549228E-4,1.05198845E-2,3.7171047E-2],"split_indices":[25,37,1,34,1,4,25,10,1,2,0,8,1,11,0,30,1,33,11,1,1,0,11,14,1,0,11,11,10,0,10,8,28,8,28,1,0,10,1,11,0,0,8,10,10,1,1,0,0,0,0,1,4,3,3,14,1,0,14,0,0,0,0,0,0,0,0,0,0,0,0,0,0,0,0,0,0,0,0,0,0,0,0,0,0,0,0,0,0,0,0,0,0,0,0,0,0,0,0,0,0,0,0,0,0,0,0],"split_type":[0,0,0,0,0,0,0,0,0,0,0,0,0,0,0,0,0,0,0,0,0,0,0,0,0,0,0,0,0,0,0,0,0,0,0,0,0,0,0,0,0,0,0,0,0,0,0,0,0,0,0,0,0,0,0,0,0,0,0,0,0,0,0,0,0,0,0,0,0,0,0,0,0,0,0,0,0,0,0,0,0,0,0,0,0,0,0,0,0,0,0,0,0,0,0,0,0,0,0,0,0,0,0,0,0,0,0],"sum_hessian":[4.5663604E3,3.6252239E3,9.411366E2,3.138813E3,4.8641086E2,2.6194666E2,6.7919E2,2.5800654E3,5.587477E2,1.54877E2,3.3153387E2,1.7225224E2,8.96944E1,5.0768173E2,1.7150826E2,1.2484744E3,1.3315911E3,1.8991234E2,3.6883533E2,1.3068353E2,2.4193462E1,2.4926575E1,3.066073E2,8.167163E0,1.6408508E2,1.9077299E0,8.778667E1,4.7443405E2,3.324769E1,1.6489297E2,6.615287E0,2.5243245E2,9.9604193E2,5.803281E2,7.5126294E2,4.7012657E1,1.4289969E2,8.863258E1,2.8020273E2,4.8924667E1,8.1758865E1,1.0391197E0,2.3154343E1,1.1470698E1,1.3455876E1,2.9960895E2,6.9983425E0,1.2735562E0,6.8936067E0,5.865907E0,1.5821918E2,8.072806E1,7.0586066E0,7.967933E1,3.947547E2,2.577405E1,7.473637E0,1.8107123E0,1.6308226E2,2.9974463E0,3.6178405E0,2.1340251E2,3.9029938E1,8.139035E2,1.8213838E2,1.212256E1,5.6820557E2,6.6945074E2,8.181222E1,3.1685696E1,1.532696E1,3.341366E1,1.0948602E2,5.426621E1,3.436637E1,1.3579463E2,1.444081E2,1.3082555E1,3.584211E1,6.8601234E1,1.3157625E1,1.9002258E1,4.152085E0,4.1151767E0,7.3555217E0,1.0468244E1,2.987633E0,7.0943954E1,2.28665E2,2.0880315E0,4.9103107E0,1.2023056E2,3.798862E1,7.8268555E1,2.4595058E0,2.1437562E0,4.91485E0,7.845649E1,1.2228454E0,3.7080716E2,2.3947561E1,2.3458876E1,2.315174E0,2.9738889E0,4.499748E0,6.433538E0,1.5664871E2],"tree_param":{"num_deleted":"0","num_feature":"51","num_nodes":"107","size_leaf_vector":"1"}},{"base_weights":[-3.765845E-3,-9.45762E-2,3.5024232E-1,-1.6931246E-1,3.883528E-1,1.361262E-1,4.3491083E-1,-2.4213529E-1,1.6112049E-1,2.015226E-1,5.682106E-1,-3.8848415E-3,3.9540344E-1,3.527573E-1,6.6924757E-1,-6.9453806E-2,-4.0249956E-1,-1.3693716E-1,3.1339726E-1,1.1973698E-1,5.0255454E-1,6.966185E-1,4.6393314E-1,-1.2317215E-1,2.08044E-1,-2.7060771E-2,4.1538143E-1,3.9283726E-1,-6.703117E-2,2.3210524E-1,6.842753E-1,6.292811E-2,-2.0951775E-1,-2.4111441E-1,-5.1585954E-1,-4.419477E-1,-4.049583E-2,5.773073E-1,2.2199321E-1,2.5065836E-1,1.5413041E-2,-2.7082652E-2,5.4015106E-1,3.9982602E-1,7.319264E-1,2.1433373E-1,6.270471E-1,1.3341307E-2,-4.386172E-1,4.9380657E-1,5.4541606E-2,6.17409E-1,2.917044E-1,6.5887934E-1,3.5503238E-1,-1.7108797E-1,1.3845645E-1,3.1543605E-2,-2.910302E-1,3.949989E-1,7.12907E-1,1.1115443E-2,-1.7109698E-3,-1.4359936E-2,1.5082696E-2,2.33206E-2,-1.2961991E-2,-7.846678E-3,-2.8004577E-2,-2.652135E-2,-1.2368794E-2,-3.5376173E-2,-8.55301E-4,1.8069228E-2,3.454599E-2,-1.7508476E-4,1.5528092E-2,1.5875276E-2,-2.8299403E-3,-2.313024E-2,2.8375292E-3,3.0064289E-2,-2.7906082E-3,3.158779E-2,-1.690589E-2,8.4243445E-3,3.7741728E-2,1.4317231E-2,-1.6530499E-2,9.196639E-3,3.2791387E-2,-5.5225505E-3,2.4266938E-2,-3.341835E-2,1.3827857E-4,2.8522113E-2,-9.500228E-3,-1.8164864E-2,8.054428E-3,1.2056026E-2,3.496554E-2,2.9357193E-2,6.879322E-3,6.7072124E-3,3.4315728E-2,1.9267641E-2,-2.5819058E-3,-2.6241293E-2,-4.6337345E-3,-9.895106E-3,2.194248E-2,-2.4561188E-4,-2.5878502E-2,2.9559985E-2,3.900876E-3,3.5938125E-2,-9.685025E-4],"categories":[],"categories_nodes":[],"categories_segments":[],"categories_sizes":[],"default_left":[0,0,0,0,0,0,0,0,0,0,0,0,0,0,0,0,0,0,0,0,0,0,0,0,0,0,0,0,0,0,0,0,0,0,0,0,0,0,0,0,0,0,0,0,0,0,0,0,0,0,0,0,0,0,0,0,0,0,0,0,0,0,0,0,0,0,0,0,0,0,0,0,0,0,0,0,0,0,0,0,0,0,0,0,0,0,0,0,0,0,0,0,0,0,0,0,0,0,0,0,0,0,0,0,0,0,0,0,0,0,0,0,0,0,0,0,0],"id":10,"left_children":[1,3,5,7,9,11,13,15,17,19,21,23,25,27,29,31,33,35,37,39,41,43,45,47,49,-1,51,53,55,57,59,61,63,65,67,69,71,73,75,77,79,-1,81,83,85,87,89,91,93,95,97,99,101,103,105,107,109,-1,111,113,115,-1,-1,-1,-1,-1,-1,-1,-1,-1,-1,-1,-1,-1,-1,-1,-1,-1,-1,-1,-1,-1,-1,-1,-1,-1,-1,-1,-1,-1,-1,-1,-1,-1,-1,-1,-1,-1,-1,-1,-1,-1,-1,-1,-1,-1,-1,-1,-1,-1,-1,-1,-1,-1,-1,-1,-1],"loss_changes":[1.4302055E2,1.2785399E2,1.6406296E1,7.383546E1,1.5840172E1,9.397539E0,1.2285446E1,6.957213E1,2.5206701E1,5.7116613E0,2.9087067E0,4.29958E0,1.9232645E0,8.164574E0,9.4296265E-1,2.2475191E1,2.3712646E1,5.517232E0,8.730915E0,2.5319738E0,2.2465715E0,8.1996155E-1,5.4103947E0,4.6911564E0,2.6602259E0,0E0,2.0546474E0,4.208412E0,9.4336516E-1,1.6620955E0,1.057106E0,9.662406E0,2.3469296E1,7.039276E0,1.2048935E1,6.452656E-1,2.2355695E0,2.0526161E0,5.481412E0,1.7077456E0,2.08907E0,0E0,1.8021908E0,2.5227737E0,1.0819969E0,2.2665281E0,9.2316437E-1,4.54739E0,3.3374639E0,1.2237139E0,1.8827655E0,8.5044765E-1,2.531551E0,6.822548E-1,4.8151894E0,7.557464E-1,1.6035903E0,0E0,2.4051845E-1,9.986644E-1,6.392212E-1,0E0,0E0,0E0,0E0,0E0,0E0,0E0,0E0,0E0,0E0,0E0,0E0,0E0,0E0,0E0,0E0,0E0,0E0,0E0,0E0,0E0,0E0,0E0,0E0,0E0,0E0,0E0,0E0,0E0,0E0,0E0,0E0,0E0,0E0,0E0,0E0,0E0,0E0,0E0,0E0,0E0,0E0,0E0,0E0,0E0,0E0,0E0,0E0,0E0,0E0,0E0,0E0,0E0,0E0,0E0,0E0],"parents":[2147483647,0,0,1,1,2,2,3,3,4,4,5,5,6,6,7,7,8,8,9,9,10,10,11,11,12,12,13,13,14,14,15,15,16,16,17,17,18,18,19,19,20,20,21,21,22,22,23,23,24,24,26,26,27,27,28,28,29,29,30,30,31,31,32,32,33,33,34,34,35,35,36,36,37,37,38,38,39,39,40,40,42,42,43,43,44,44,45,45,46,46,47,47,48,48,49,49,50,50,51,51,52,52,53,53,54,54,55,55,56,56,58,58,59,59,60,60],"right_children":[2,4,6,8,10,12,14,16,18,20,22,24,26,28,30,32,34,36,38,40,42,44,46,48,50,-1,52,54,56,58,60,62,64,66,68,70,72,74,76,78,80,-1,82,84,86,88,90,92,94,96,98,100,102,104,106,108,110,-1,112,114,116,-1,-1,-1,-1,-1,-1,-1,-1,-1,-1,-1,-1,-1,-1,-1,-1,-1,-1,-1,-1,-1,-1,-1,-1,-1,-1,-1,-1,-1,-1,-1,-1,-1,-1,-1,-1,-1,-1,-1,-1,-1,-1,-1,-1,-1,-1,-1,-1,-1,-1,-1,-1,-1,-1,-1,-1],"split_conditions":[1E0,4E0,5E1,2E0,7.3E1,2E0,1E1,9.016732E-1,5.5E1,2E0,9.153712E-1,2.4201841E0,7E0,6.1E1,9.19522E-1,5.9E1,6.5E1,4E0,2.7E1,3.15E1,7E0,9.1170883E-1,5.4545456E-1,2.2159402E0,5.2E0,-2.7060771E-2,9E0,3.2E1,8.545455E0,5.6E1,6E1,8.8359606E-1,3E0,1E0,9.99E2,3.8E1,9E0,6.9E1,5.2E0,2.4062486E0,1.5E1,-2.7082652E-2,5E1,3.8E1,1.9079695E0,9.5238096E-1,1.9423599E0,2.1920002E0,3.2E1,9.9869776E-1,1.7E1,8.3333336E-2,7E0,1.6218348E0,7.0710677E-1,5.9E1,9.308727E-1,3.1543605E-2,9.188295E-1,2.2437882E0,2.7569695E0,1.1115443E-2,-1.7109698E-3,-1.4359936E-2,1.5082696E-2,2.33206E-2,-1.2961991E-2,-7.846678E-3,-2.8004577E-2,-2.652135E-2,-1.2368794E-2,-3.5376173E-2,-8.55301E-4,1.8069228E-2,3.454599E-2,-1.7508476E-4,1.5528092E-2,1.5875276E-2,-2.8299403E-3,-2.313024E-2,2.8375292E-3,3.0064289E-2,-2.7906082E-3,3.158779E-2,-1.690589E-2,8.4243445E-3,3.7741728E-2,1.4317231E-2,-1.6530499E-2,9.196639E-3,3.2791387E-2,-5.5225505E-3,2.4266938E-2,-3.341835E-2,1.3827857E-4,2.8522113E-2,-9.500228E-3,-1.8164864E-2,8.054428E-3,1.2056026E-2,3.496554E-2,2.9357193E-2,6.879322E-3,6.7072124E-3,3.4315728E-2,1.9267641E-2,-2.5819058E-3,-2.6241293E-2,-4.6337345E-3,-9.895106E-3,2.194248E-2,-2.4561188E-4,-2.5878502E-2,2.9559985E-2,3.900876E-3,3.5938125E-2,-9.685025E-4],"split_indices":[25,37,1,34,1,4,25,10,1,4,10,0,1,11,14,1,1,33,11,11,1,14,12,0,8,0,27,11,8,11,1,10,28,8,27,1,1,1,8,0,1,0,11,11,0,2,0,0,1,13,1,12,25,0,3,1,14,0,14,0,0,0,0,0,0,0,0,0,0,0,0,0,0,0,0,0,0,0,0,0,0,0,0,0,0,0,0,0,0,0,0,0,0,0,0,0,0,0,0,0,0,0,0,0,0,0,0,0,0,0,0,0,0,0,0,0,0],"split_type":[0,0,0,0,0,0,0,0,0,0,0,0,0,0,0,0,0,0,0,0,0,0,0,0,0,0,0,0,0,0,0,0,0,0,0,0,0,0,0,0,0,0,0,0,0,0,0,0,0,0,0,0,0,0,0,0,0,0,0,0,0,0,0,0,0,0,0,0,0,0,0,0,0,0,0,0,0,0,0,0,0,0,0,0,0,0,0,0,0,0,0,0,0,0,0,0,0,0,0,0,0,0,0,0,0,0,0,0,0,0,0,0,0,0,0,0,0],"sum_hessian":[4.4468403E3,3.5395947E3,9.0724585E2,3.0657935E3,4.7380115E2,2.5783112E2,6.4941473E2,2.5123694E3,5.53424E2,2.3343605E2,2.403651E2,1.6806186E2,8.976926E1,4.826967E2,1.6671802E2,1.2104167E3,1.3019528E3,1.8716972E2,3.662543E2,1.8466362E2,4.8772438E1,1.0517343E2,1.3519167E2,1.07802444E2,6.0259407E1,1.3298943E0,8.843936E1,4.4068573E2,4.201096E1,6.087385E0,1.6063063E2,6.225563E2,5.878605E2,5.384766E2,7.6347614E2,4.4103394E1,1.4306633E2,9.285089E1,2.734034E2,8.127048E1,1.03393135E2,1.2290758E0,4.754336E1,1.249197E1,9.268146E1,5.434546E1,8.084621E1,7.5909294E1,3.189315E1,2.028311E1,3.9976295E1,3.2066444E1,5.637292E1,5.2786415E1,3.8789932E2,2.7999638E1,1.4011321E1,3.3374367E0,2.7499487E0,1.5799397E1,1.4483124E2,2.3527478E2,3.872815E2,5.106907E2,7.716973E1,1.2832372E1,5.256442E2,8.426284E1,6.792133E2,2.9130507E1,1.4972887E1,3.8558722E0,1.3921046E2,3.3453236E1,5.9397655E1,7.737299E1,1.9603043E2,6.67212E1,1.4549278E1,7.4183316E0,9.59748E1,4.311195E1,4.4314113E0,9.614202E0,2.8777683E0,3.9474056E0,8.8734055E1,4.8421413E1,5.9240437E0,5.38152E0,7.546468E1,6.074381E1,1.5165485E1,2.0636911E1,1.1256239E1,1.8388117E1,1.8949927E0,7.632933E0,3.234336E1,6.4368963E0,2.5629547E1,1.836262E1,3.80103E1,2.915377E0,4.9871037E1,3.610339E2,2.6865435E1,4.0474977E0,2.3952139E1,6.770921E0,7.2403994E0,1.6666574E0,1.0832914E0,9.224593E0,6.574805E0,1.4370062E2,1.1306041E0],"tree_param":{"num_deleted":"0","num_feature":"51","num_nodes":"117","size_leaf_vector":"1"}},{"base_weights":[-3.913472E-3,-9.231809E-2,3.4215087E-1,3.7879395E-1,-1.6316028E-1,1.727416E-1,4.387732E-1,1.0723004E-1,4.9452153E-1,-2.3284803E-1,1.5147513E-1,6.4617485E-2,3.680233E-1,3.4668255E-1,6.9904435E-1,6.165841E-1,6.435668E-2,6.038134E-1,3.8274357E-1,-6.237864E-2,-3.9534947E-1,-1.4893526E-1,2.989555E-1,3.2841748E-1,1.2646345E-2,5.173458E-1,2.159884E-1,4.2091963E-1,2.7580922E-2,-1.1919771E-2,7.1024245E-1,2.5582735E-3,3.546663E-2,2.231401E-1,-6.697385E-2,6.6129494E-1,2.8752506E-1,1.632435E-1,5.1524943E-1,-1.6911203E-2,-4.204425E-1,-2.6297787E-1,-5.0218236E-1,-4.0642968E-1,-7.0525855E-2,4.8096454E-1,1.372202E-1,1.5663518E-1,4.4412872E-1,-3.1007318E-2,3.0988902E-2,-2.8516263E-2,5.5377465E-1,8.384336E-2,5.006991E-1,6.302191E-1,3.6786175E-1,-8.3696246E-2,4.2534375E-1,7.2508794E-1,1.5515704E-1,1.49742365E-2,-9.798444E-3,-2.2589125E-2,3.2808676E-3,2.2999339E-2,3.7451264E-2,-6.5973424E-4,3.330767E-2,-5.5481936E-3,1.911634E-2,-4.266306E-3,2.8156206E-2,-2.053882E-2,8.6990016E-4,-7.6685683E-3,-2.9527774E-2,1.9999852E-2,-1.3841212E-2,-2.7516631E-2,-7.0438287E-3,-2.5656302E-2,-8.389275E-3,-1.34402355E-2,2.5793302E-4,3.136122E-2,1.3940248E-2,-1.3144371E-2,1.2364114E-2,1.4634103E-2,-2.247625E-2,8.915576E-3,2.9841697E-2,7.3617324E-3,-1.9605195E-3,2.9119281E-2,4.106305E-3,-3.924046E-3,3.0541806E-2,3.0127943E-2,-4.9992446E-3,-3.962779E-3,3.262224E-2,-8.991426E-3,1.9495508E-2,-1.1009491E-2,5.231221E-3,-5.570067E-3,3.0595614E-2,4.2266436E-3,3.655834E-2,-2.5867492E-2,2.8811052E-2],"categories":[],"categories_nodes":[],"categories_segments":[],"categories_sizes":[],"default_left":[0,0,0,0,0,0,0,0,0,0,0,0,0,0,0,0,0,0,0,0,0,0,0,0,0,0,0,0,0,0,0,0,0,0,0,0,0,0,0,0,0,0,0,0,0,0,0,0,0,0,0,0,0,0,0,0,0,0,0,0,0,0,0,0,0,0,0,0,0,0,0,0,0,0,0,0,0,0,0,0,0,0,0,0,0,0,0,0,0,0,0,0,0,0,0,0,0,0,0,0,0,0,0,0,0,0,0,0,0,0,0,0,0],"id":11,"left_children":[1,3,5,7,9,11,13,15,17,19,21,23,25,27,29,31,33,35,37,39,41,43,45,47,49,51,53,55,57,-1,59,-1,-1,61,63,65,67,69,71,73,75,77,79,81,83,85,87,89,91,-1,93,-1,95,97,99,101,103,105,107,109,111,-1,-1,-1,-1,-1,-1,-1,-1,-1,-1,-1,-1,-1,-1,-1,-1,-1,-1,-1,-1,-1,-1,-1,-1,-1,-1,-1,-1,-1,-1,-1,-1,-1,-1,-1,-1,-1,-1,-1,-1,-1,-1,-1,-1,-1,-1,-1,-1,-1,-1,-1,-1],"loss_changes":[1.3252458E2,1.15214615E2,1.4351891E1,1.4130569E1,6.581397E1,6.770485E0,1.3195358E1,2.9331927E0,3.631462E0,6.8021805E1,2.4172104E1,2.8519177E0,2.4867296E0,9.845417E0,1.6971436E0,5.118573E-1,2.656663E0,2.684887E0,4.541643E0,1.9529257E1,1.764981E1,3.605263E0,1.0696186E1,6.1115336E-1,2.05131E0,2.575427E0,2.1563776E0,3.5160484E0,3.558971E0,0E0,1.0747375E0,0E0,0E0,1.901E0,3.6065128E0,2.0051727E0,2.9792747E0,3.726911E0,2.8862019E0,1.4410019E1,6.050379E0,5.285206E0,1.2008652E1,9.783373E-1,2.0900502E0,4.899498E0,8.651232E0,1.3956429E0,7.020807E-1,0E0,1.401969E0,0E0,7.0363045E-1,3.5645812E0,1.1812735E0,1.1058578E0,3.3504028E0,1.6433762E0,1.8271964E0,4.835205E-1,1.721044E0,0E0,0E0,0E0,0E0,0E0,0E0,0E0,0E0,0E0,0E0,0E0,0E0,0E0,0E0,0E0,0E0,0E0,0E0,0E0,0E0,0E0,0E0,0E0,0E0,0E0,0E0,0E0,0E0,0E0,0E0,0E0,0E0,0E0,0E0,0E0,0E0,0E0,0E0,0E0,0E0,0E0,0E0,0E0,0E0,0E0,0E0,0E0,0E0,0E0,0E0,0E0,0E0],"parents":[2147483647,0,0,1,1,2,2,3,3,4,4,5,5,6,6,7,7,8,8,9,9,10,10,11,11,12,12,13,13,14,14,15,15,16,16,17,17,18,18,19,19,20,20,21,21,22,22,23,23,24,24,25,25,26,26,27,27,28,28,30,30,33,33,34,34,35,35,36,36,37,37,38,38,39,39,40,40,41,41,42,42,43,43,44,44,45,45,46,46,47,47,48,48,50,50,52,52,53,53,54,54,55,55,56,56,57,57,58,58,59,59,60,60],"right_children":[2,4,6,8,10,12,14,16,18,20,22,24,26,28,30,32,34,36,38,40,42,44,46,48,50,52,54,56,58,-1,60,-1,-1,62,64,66,68,70,72,74,76,78,80,82,84,86,88,90,92,-1,94,-1,96,98,100,102,104,106,108,110,112,-1,-1,-1,-1,-1,-1,-1,-1,-1,-1,-1,-1,-1,-1,-1,-1,-1,-1,-1,-1,-1,-1,-1,-1,-1,-1,-1,-1,-1,-1,-1,-1,-1,-1,-1,-1,-1,-1,-1,-1,-1,-1,-1,-1,-1,-1,-1,-1,-1,-1,-1,-1],"split_conditions":[1E0,8E0,6E1,5.1E1,2E0,2E0,1E1,3E0,9.206145E-1,9.016732E-1,5.5E1,8.983157E-1,9.296536E-1,5.5E1,1.6218348E0,4E0,8E0,3.7E1,5.4545456E-1,1E0,6.7E1,4E0,3.15E1,2.3341403E0,8E0,1E1,9.9766326E-1,3.5E1,9.5017564E-1,-1.1919771E-2,2.6908584E0,2.5582735E-3,3.546663E-2,9.2861253E-1,2.6E1,7.6E1,8.090909E0,7.857143E0,9.22804E-1,2.3333333E0,5.7E1,1E0,2E0,3.8E1,2.1E1,9.1341805E-1,5.2E0,2.267406E0,7E0,-3.1007318E-2,2.7E1,-2.8516263E-2,5.9E1,9.402298E-1,4.5833332E1,3.3333333E0,6E0,7.1E0,2.066022E0,9.016732E-1,9.294285E-1,1.49742365E-2,-9.798444E-3,-2.2589125E-2,3.2808676E-3,2.2999339E-2,3.7451264E-2,-6.5973424E-4,3.330767E-2,-5.5481936E-3,1.911634E-2,-4.266306E-3,2.8156206E-2,-2.053882E-2,8.6990016E-4,-7.6685683E-3,-2.9527774E-2,1.9999852E-2,-1.3841212E-2,-2.7516631E-2,-7.0438287E-3,-2.5656302E-2,-8.389275E-3,-1.34402355E-2,2.5793302E-4,3.136122E-2,1.3940248E-2,-1.3144371E-2,1.2364114E-2,1.4634103E-2,-2.247625E-2,8.915576E-3,2.9841697E-2,7.3617324E-3,-1.9605195E-3,2.9119281E-2,4.106305E-3,-3.924046E-3,3.0541806E-2,3.0127943E-2,-4.9992446E-3,-3.962779E-3,3.262224E-2,-8.991426E-3,1.9495508E-2,-1.1009491E-2,5.231221E-3,-5.570067E-3,3.0595614E-2,4.2266436E-3,3.655834E-2,-2.5867492E-2,2.8811052E-2],"split_indices":[25,36,1,1,34,4,25,18,10,10,1,10,14,11,0,4,37,11,12,46,1,33,11,0,1,1,13,11,10,0,0,0,0,10,1,1,8,8,10,8,1,8,28,1,1,10,8,0,24,0,1,0,11,14,11,8,48,8,0,10,10,0,0,0,0,0,0,0,0,0,0,0,0,0,0,0,0,0,0,0,0,0,0,0,0,0,0,0,0,0,0,0,0,0,0,0,0,0,0,0,0,0,0,0,0,0,0,0,0,0,0,0,0],"split_type":[0,0,0,0,0,0,0,0,0,0,0,0,0,0,0,0,0,0,0,0,0,0,0,0,0,0,0,0,0,0,0,0,0,0,0,0,0,0,0,0,0,0,0,0,0,0,0,0,0,0,0,0,0,0,0,0,0,0,0,0,0,0,0,0,0,0,0,0,0,0,0,0,0,0,0,0,0,0,0,0,0,0,0,0,0,0,0,0,0,0,0,0,0,0,0,0,0,0,0,0,0,0,0,0,0,0,0,0,0,0,0,0,0],"sum_hessian":[4.3297305E3,3.449312E3,8.8041833E2,4.5031265E2,2.9989995E3,3.2077942E2,5.596389E2,1.351348E2,3.151779E2,2.4554158E3,5.435836E2,2.0732051E2,1.1345891E2,4.150983E2,1.4454059E2,9.452577E0,1.2568221E2,1.5713545E2,1.5804242E2,1.1990044E3,1.2564114E3,1.7898663E2,3.6459695E2,3.324635E1,1.7407416E2,5.602785E1,5.743106E1,3.3649554E2,7.860276E1,1.4667232E0,1.4307385E2,1.5507089E0,7.901868E0,5.6578117E1,6.9104095E1,1.3204675E2,2.508869E1,6.0332214E1,9.771021E1,1.0648372E3,1.3416725E2,5.626812E2,6.9373016E2,4.0803986E1,1.3818265E2,1.7061801E2,1.9397896E2,1.4328401E1,1.8917948E1,3.979452E0,1.7009471E2,1.3407505E0,5.46871E1,4.01093E1,1.732176E1,6.585132E1,2.7064423E2,6.2037018E1,1.6565744E1,1.3904881E2,4.025052E0,4.810142E1,8.476697E0,1.7092012E1,5.2012085E1,4.197441E1,9.007235E1,1.4520866E1,1.0567822E1,2.7014294E1,3.331792E1,7.1561313E0,9.055408E1,8.4445145E1,9.8039197E2,5.294583E1,8.122142E1,1.0940763E1,5.517405E2,6.1168896E2,8.204122E1,2.7402378E1,1.3401606E1,3.7469124E1,1.00713524E2,9.777585E1,7.2842155E1,4.1548725E1,1.5243024E2,1.2124358E1,2.2040427E0,7.693461E0,1.1224486E1,6.362997E1,1.0646474E2,5.1338066E1,3.349035E0,3.1314795E1,8.794504E0,1.4807661E1,2.5141E0,1.9223163E0,6.3929E1,1.0196753E1,2.6044748E2,3.5869682E1,2.6167337E1,4.3768196E0,1.2188925E1,1.4472864E0,1.3760152E2,1.4617422E0,2.5633097E0],"tree_param":{"num_deleted":"0","num_feature":"51","num_nodes":"113","size_leaf_vector":"1"}},{"base_weights":[-8.08232E-3,-9.089233E-2,3.2600442E-1,3.5189697E-1,-1.5613586E-1,2.6187494E-1,5.4722583E-1,9.7699456E-2,4.7544932E-1,-2.2873425E-1,1.6778369E-1,2.972489E-1,-6.519564E-2,2.2910218E-1,6.5370196E-1,6.64436E-1,4.8161533E-2,6.1005354E-1,3.7275347E-1,-6.780417E-2,-3.822841E-1,-1.0514936E-1,3.0303282E-1,1.5278514E-1,3.65426E-1,-6.092791E-1,-2.4471767E-2,6.710196E-1,4.128123E-2,7.449489E-1,5.219315E-1,3.5154052E-2,1.19091645E-2,-1.8384302E-1,2.0251378E-1,-1.7656337E-2,6.2360066E-1,1.5088773E-1,5.008998E-1,-1.293304E-1,1.87729E-1,-2.3682207E-1,-4.8984468E-1,-3.9541027E-1,-2.2277953E-2,4.6553087E-1,1.32073E-1,5.2189816E-2,3.7113315E-1,5.0362784E-1,3.0564186E-1,-8.979654E-3,-3.4437396E-2,-2.0746103E-1,9.410107E-2,1.0705904E-2,3.5032097E-2,3.8584766E-1,-6.0325652E-2,4.1660517E-1,3.7846502E-2,-9.772575E-2,5.901421E-1,1.2819484E-2,-1.2692995E-2,1.361154E-2,-1.2519874E-2,1.8536715E-2,3.451832E-2,-5.8694803E-3,1.6859898E-2,-1.983177E-3,2.7607087E-2,-9.699224E-3,8.155987E-3,1.6165929E-2,2.597161E-3,1.893797E-2,-1.26274545E-2,-2.6678313E-2,-7.805243E-3,-2.5381396E-2,-8.245616E-3,-1.32165E-2,2.2970214E-3,2.7723266E-2,1.6206747E-2,-1.4796092E-2,1.2347926E-2,-1.7838258E-3,1.5117149E-2,-2.6951334E-3,2.4195848E-2,-1.5897252E-2,2.63199E-2,1.3392674E-2,3.2761443E-2,-3.749048E-3,-2.0795831E-2,1.0517441E-2,-1.2249491E-2,-2.3564525E-2,3.184232E-2,1.0209891E-2,-1.3395886E-2,2.991045E-2,-7.1356827E-3,2.5541937E-2,-1.97795E-2,-2.5287326E-3,3.2530837E-2],"categories":[],"categories_nodes":[],"categories_segments":[],"categories_sizes":[],"default_left":[0,0,0,0,0,0,0,0,0,0,0,0,0,0,0,0,0,0,0,0,0,0,0,0,0,0,0,0,0,0,0,0,0,0,0,0,0,0,0,0,0,0,0,0,0,0,0,0,0,0,0,0,0,0,0,0,0,0,0,0,0,0,0,0,0,0,0,0,0,0,0,0,0,0,0,0,0,0,0,0,0,0,0,0,0,0,0,0,0,0,0,0,0,0,0,0,0,0,0,0,0,0,0,0,0,0,0,0,0,0,0],"id":12,"left_children":[1,3,5,7,9,11,13,15,17,19,21,23,25,27,29,31,33,35,37,39,41,43,45,47,49,51,53,55,57,59,61,-1,-1,63,65,-1,67,69,71,73,75,77,79,81,83,85,87,89,91,93,95,-1,-1,97,99,-1,-1,101,103,105,-1,107,109,-1,-1,-1,-1,-1,-1,-1,-1,-1,-1,-1,-1,-1,-1,-1,-1,-1,-1,-1,-1,-1,-1,-1,-1,-1,-1,-1,-1,-1,-1,-1,-1,-1,-1,-1,-1,-1,-1,-1,-1,-1,-1,-1,-1,-1,-1,-1,-1],"loss_changes":[1.1708901E2,9.803318E1,1.1783279E1,1.3642475E1,6.956744E1,7.582142E0,6.2188225E0,4.0056643E0,3.8234177E0,5.9669243E1,2.003598E1,5.755623E0,1.4168131E0,4.0134687E0,1.2984467E0,2.1680832E-2,4.8120155E0,1.8544846E0,4.7234516E0,1.8587954E1,1.9222534E1,4.328241E0,1.0012047E1,4.173714E0,3.1522064E0,2.8525352E-2,1.3465197E0,4.563093E-2,1.2567685E0,1.625061E-3,2.62562E0,0E0,0E0,1.7231704E0,2.6113482E0,0E0,1.8353806E0,3.1999936E0,2.9736729E0,1.8036133E1,4.209203E0,5.2012196E0,1.027153E1,9.5053005E-1,2.3456335E0,2.1530533E0,8.830343E0,2.908934E0,2.9045525E0,2.398878E0,3.5479908E0,0E0,0E0,6.415291E-1,1.5415316E0,0E0,0E0,2.055393E0,1.5963137E0,5.994094E-1,0E0,1.4496796E0,2.1590576E0,0E0,0E0,0E0,0E0,0E0,0E0,0E0,0E0,0E0,0E0,0E0,0E0,0E0,0E0,0E0,0E0,0E0,0E0,0E0,0E0,0E0,0E0,0E0,0E0,0E0,0E0,0E0,0E0,0E0,0E0,0E0,0E0,0E0,0E0,0E0,0E0,0E0,0E0,0E0,0E0,0E0,0E0,0E0,0E0,0E0,0E0,0E0,0E0],"parents":[2147483647,0,0,1,1,2,2,3,3,4,4,5,5,6,6,7,7,8,8,9,9,10,10,11,11,12,12,13,13,14,14,15,15,16,16,17,17,18,18,19,19,20,20,21,21,22,22,23,23,24,24,25,25,26,26,27,27,28,28,29,29,30,30,33,33,34,34,36,36,37,37,38,38,39,39,40,40,41,41,42,42,43,43,44,44,45,45,46,46,47,47,48,48,49,49,50,50,53,53,54,54,57,57,58,58,59,59,61,61,62,62],"right_children":[2,4,6,8,10,12,14,16,18,20,22,24,26,28,30,32,34,36,38,40,42,44,46,48,50,52,54,56,58,60,62,-1,-1,64,66,-1,68,70,72,74,76,78,80,82,84,86,88,90,92,94,96,-1,-1,98,100,-1,-1,102,104,106,-1,108,110,-1,-1,-1,-1,-1,-1,-1,-1,-1,-1,-1,-1,-1,-1,-1,-1,-1,-1,-1,-1,-1,-1,-1,-1,-1,-1,-1,-1,-1,-1,-1,-1,-1,-1,-1,-1,-1,-1,-1,-1,-1,-1,-1,-1,-1,-1,-1,-1],"split_conditions":[1E0,8E0,1E1,5.9E1,2E0,6E1,6E1,3E0,9.153712E-1,9.016732E-1,5.5E1,5E1,1.7E1,3E0,2.3341403E0,9.4E0,3.2E1,2E0,4.5454547E-1,4E0,6.5E1,4E0,3.3E1,1.6666667E-1,9.139234E-1,2.101382E0,7.5555553E0,9.169235E-1,4.9E1,9.201256E-1,9.2281085E-1,3.5154052E-2,1.19091645E-2,8.8325256E-1,2.4359374E0,-1.7656337E-2,7.3E1,2.1969755E0,1.9423599E0,3E0,3.6E1,1E0,2E0,3.8E1,2.0867105E0,9.131348E-1,5.2E0,2.4851635E0,1.1111111E-1,9.0105546E-1,9.5362335E-1,-8.979654E-3,-3.4437396E-2,6.8E1,2.5094461E0,1.0705904E-2,3.5032097E-2,2.0200088E0,2.2214844E0,6.9E1,3.7846502E-2,5.6E1,4.2E1,1.2819484E-2,-1.2692995E-2,1.361154E-2,-1.2519874E-2,1.8536715E-2,3.451832E-2,-5.8694803E-3,1.6859898E-2,-1.983177E-3,2.7607087E-2,-9.699224E-3,8.155987E-3,1.6165929E-2,2.597161E-3,1.893797E-2,-1.26274545E-2,-2.6678313E-2,-7.805243E-3,-2.5381396E-2,-8.245616E-3,-1.32165E-2,2.2970214E-3,2.7723266E-2,1.6206747E-2,-1.4796092E-2,1.2347926E-2,-1.7838258E-3,1.5117149E-2,-2.6951334E-3,2.4195848E-2,-1.5897252E-2,2.63199E-2,1.3392674E-2,3.2761443E-2,-3.749048E-3,-2.0795831E-2,1.0517441E-2,-1.2249491E-2,-2.3564525E-2,3.184232E-2,1.0209891E-2,-1.3395886E-2,2.991045E-2,-7.1356827E-3,2.5541937E-2,-1.97795E-2,-2.5287326E-3,3.2530837E-2],"split_indices":[25,36,25,1,34,11,1,18,10,10,1,1,1,48,0,8,1,18,12,31,1,33,11,5,10,0,8,14,11,10,14,0,0,13,0,0,1,0,0,28,1,8,28,1,0,10,8,0,12,14,10,0,0,11,0,0,0,0,0,11,0,11,11,0,0,0,0,0,0,0,0,0,0,0,0,0,0,0,0,0,0,0,0,0,0,0,0,0,0,0,0,0,0,0,0,0,0,0,0,0,0,0,0,0,0,0,0,0,0,0,0],"split_type":[0,0,0,0,0,0,0,0,0,0,0,0,0,0,0,0,0,0,0,0,0,0,0,0,0,0,0,0,0,0,0,0,0,0,0,0,0,0,0,0,0,0,0,0,0,0,0,0,0,0,0,0,0,0,0,0,0,0,0,0,0,0,0,0,0,0,0,0,0,0,0,0,0,0,0,0,0,0,0,0,0,0,0,0,0,0,0,0,0,0,0,0,0,0,0,0,0,0,0,0,0,0,0,0,0,0,0,0,0,0,0],"sum_hessian":[4.230206E3,3.3905251E3,8.396809E2,4.3486005E2,2.955665E3,6.526649E2,1.8701599E2,1.4281734E2,2.920427E2,2.414753E3,5.4091205E2,5.890482E2,6.361667E1,4.7688E1,1.3932799E2,1.0482304E1,1.3233504E2,1.2424865E2,1.6779405E2,1.1797456E3,1.2350074E3,1.7930225E2,3.6160983E2,1.8990027E2,3.9914795E2,3.457826E0,6.015884E1,1.3455757E1,3.4232243E1,7.957285E1,5.9755135E1,9.015492E0,1.4668114E0,5.2792446E1,7.954259E1,1.3756443E0,1.2287301E2,6.222993E1,1.0556412E2,9.512109E2,2.2853477E2,5.263659E2,7.086415E2,3.8984806E1,1.4031744E2,1.8450958E2,1.7710025E2,1.3085359E2,5.904667E1,1.18285484E2,2.8086246E2,1.0485045E0,2.4093215E0,2.3359423E1,3.679942E1,1.3202461E0,1.213551E1,7.1586328E0,2.707361E1,4.0606885E0,7.551217E1,5.88255E0,5.3872585E1,6.8789673E0,4.591348E1,6.9277565E1,1.0265023E1,2.7034842E1,9.5838165E1,2.565621E1,3.657372E1,9.159915E0,9.64042E1,7.792689E2,1.7194193E2,1.1365895E2,1.1487582E2,1.2537661E1,5.1382825E2,6.260297E2,8.261176E1,2.5411123E1,1.3573682E1,3.0219177E1,1.1009826E2,1.1147396E2,7.303562E1,3.7144867E1,1.3995538E2,9.747343E1,3.3380173E1,1.2491904E1,4.6554768E1,2.840318E0,1.1544517E2,2.5505829E2,2.5804174E1,1.5113816E1,8.245606E0,2.7687283E1,9.112136E0,1.4226729E0,5.7359595E0,1.191162E1,1.516199E1,3.0129046E0,1.047784E0,1.698122E0,4.1844277E0,4.6603904E0,4.9212196E1],"tree_param":{"num_deleted":"0","num_feature":"51","num_nodes":"111","size_leaf_vector":"1"}},{"base_weights":[4.042285E-4,-8.029247E-2,3.2807618E-1,-1.4202116E-1,3.384867E-1,2.617605E-1,5.643757E-1,-2.1688211E-1,1.9060397E-1,7.886261E-2,4.655976E-1,5.1498514E-1,2.0673642E-1,2.0662795E-1,6.375618E-1,-4.8521984E-2,-3.7930635E-1,-9.625577E-2,3.408568E-1,6.2424964E-1,2.8499924E-2,5.9270275E-1,3.25769E-1,5.663094E-1,2.0459627E-1,2.4603903E-1,-7.214708E-2,-9.510612E-2,5.082759E-1,7.043263E-1,5.2064055E-1,-1.13820255E-1,2.0590666E-1,-2.4435969E-1,-4.7914767E-1,-3.71129E-1,-1.4649885E-2,5.1927E-1,1.9299719E-1,3.711535E-2,1.7336528E-1,-3.6878776E-2,5.0776675E-2,3.708988E-1,6.469467E-1,3.5292765E-1,-1.5047531E-1,5.8101326E-1,-2.0050203E-2,5.587673E-1,-1.1308509E-1,1.7064746E-1,3.8323247E-1,-1.6482845E-1,2.0808175E-1,1.9746965E-2,-2.0568244E-1,6.383209E-1,7.695407E-2,5.0104034E-1,7.320362E-1,1.9522907E-1,6.1640024E-1,-8.506845E-3,7.282079E-3,1.3647854E-2,-3.4485136E-3,1.0858352E-2,-1.2620277E-2,-8.905005E-3,-2.5991386E-2,-2.4653113E-2,-7.526555E-3,-3.455778E-2,4.6419702E-4,3.1611934E-2,1.6004851E-2,1.3951087E-2,-3.6229999E-3,-1.3415647E-2,2.3790365E-2,7.722066E-3,-3.5710838E-3,-8.297621E-3,2.0862183E-2,5.807038E-3,3.375348E-2,6.689548E-3,2.1334527E-2,2.5929594E-2,-2.0329002E-2,2.0729627E-2,3.3514913E-2,1.0188561E-3,3.3908974E-2,-2.1043587E-2,2.1938311E-2,1.6968654E-2,6.7758868E-3,1.530921E-2,2.5774805E-2,-1.1913165E-2,1.324175E-2,-1.6243443E-2,1.7429492E-2,-1.3954212E-2,9.604648E-3,5.4139653E-3,3.3968043E-2,2.3510525E-2,-3.0397711E-2,3.062796E-2,-2.2959914E-3,1.6673652E-2,3.7101537E-2,-3.835921E-3,2.8339947E-2,-7.538391E-3,3.2743808E-2],"categories":[],"categories_nodes":[],"categories_segments":[],"categories_sizes":[],"default_left":[0,0,0,0,0,0,0,0,0,0,0,0,0,0,0,0,0,0,0,0,0,0,0,0,0,0,0,0,0,0,0,0,0,0,0,0,0,0,0,0,0,0,0,0,0,0,0,0,0,0,0,0,0,0,0,0,0,0,0,0,0,0,0,0,0,0,0,0,0,0,0,0,0,0,0,0,0,0,0,0,0,0,0,0,0,0,0,0,0,0,0,0,0,0,0,0,0,0,0,0,0,0,0,0,0,0,0,0,0,0,0,0,0,0,0,0,0,0,0],"id":13,"left_children":[1,3,5,7,9,11,13,15,17,19,21,23,25,27,29,31,33,35,37,39,41,43,45,47,49,51,53,55,57,59,61,63,65,67,69,71,73,75,77,-1,79,-1,81,83,85,87,89,91,-1,93,95,97,99,101,103,-1,105,107,109,111,113,115,117,-1,-1,-1,-1,-1,-1,-1,-1,-1,-1,-1,-1,-1,-1,-1,-1,-1,-1,-1,-1,-1,-1,-1,-1,-1,-1,-1,-1,-1,-1,-1,-1,-1,-1,-1,-1,-1,-1,-1,-1,-1,-1,-1,-1,-1,-1,-1,-1,-1,-1,-1,-1,-1,-1,-1,-1],"loss_changes":[1.09353745E2,8.5830475E1,1.2658485E1,7.207355E1,1.4041294E1,8.81097E0,4.5345383E0,6.4567055E1,2.296184E1,3.8664815E0,4.893135E0,1.6934109E0,5.7988224E0,2.9379115E0,7.845268E-1,1.930967E1,1.6077072E1,4.1138763E0,9.1153145E0,5.051179E-1,2.2646625E0,1.5490074E0,1.8443451E0,1.6111183E0,2.0525143E0,4.718418E0,1.746416E0,9.869115E-1,8.5022354E-1,1.4604187E-1,1.6694927E0,1.3532419E1,4.394991E0,1.9603577E0,8.355026E0,1.0554628E0,2.3160028E0,3.3463745E0,4.418774E0,0E0,6.3199663E-1,0E0,1.6293987E0,8.544955E-1,1.6849747E0,2.0655289E0,1.6112313E0,1.1463242E0,0E0,5.344846E-1,1.9090415E0,1.7338858E0,1.5055046E0,1.6437373E0,1.3732326E0,0E0,4.709673E-1,1.9143677E-1,1.5925628E0,8.875582E-1,6.3056946E-2,1.510984E0,1.3949909E0,0E0,0E0,0E0,0E0,0E0,0E0,0E0,0E0,0E0,0E0,0E0,0E0,0E0,0E0,0E0,0E0,0E0,0E0,0E0,0E0,0E0,0E0,0E0,0E0,0E0,0E0,0E0,0E0,0E0,0E0,0E0,0E0,0E0,0E0,0E0,0E0,0E0,0E0,0E0,0E0,0E0,0E0,0E0,0E0,0E0,0E0,0E0,0E0,0E0,0E0,0E0,0E0,0E0,0E0,0E0,0E0],"parents":[2147483647,0,0,1,1,2,2,3,3,4,4,5,5,6,6,7,7,8,8,9,9,10,10,11,11,12,12,13,13,14,14,15,15,16,16,17,17,18,18,19,19,20,20,21,21,22,22,23,23,24,24,25,25,26,26,27,27,28,28,29,29,30,30,31,31,32,32,33,33,34,34,35,35,36,36,37,37,38,38,40,40,42,42,43,43,44,44,45,45,46,46,47,47,49,49,50,50,51,51,52,52,53,53,54,54,56,56,57,57,58,58,59,59,60,60,61,61,62,62],"right_children":[2,4,6,8,10,12,14,16,18,20,22,24,26,28,30,32,34,36,38,40,42,44,46,48,50,52,54,56,58,60,62,64,66,68,70,72,74,76,78,-1,80,-1,82,84,86,88,90,92,-1,94,96,98,100,102,104,-1,106,108,110,112,114,116,118,-1,-1,-1,-1,-1,-1,-1,-1,-1,-1,-1,-1,-1,-1,-1,-1,-1,-1,-1,-1,-1,-1,-1,-1,-1,-1,-1,-1,-1,-1,-1,-1,-1,-1,-1,-1,-1,-1,-1,-1,-1,-1,-1,-1,-1,-1,-1,-1,-1,-1,-1,-1,-1,-1,-1,-1],"split_conditions":[1E0,4E0,9.090909E0,2E0,5.9E1,3.5E1,4.7E1,9.019382E-1,5.5E1,1E1,9.206145E-1,9.3562543E-1,6E1,3E0,2.3341403E0,4E0,6.5E1,4E0,3.1E1,3E0,2E0,7.3E1,5E1,2.6246693E0,9.315339E-1,7.5E1,9.5017564E-1,9.2199993E-1,1E1,6E1,7.1E1,3E0,6.8333335E0,1E0,9.99E2,3.8E1,9E0,9.131348E-1,7E0,3.711535E-2,3.1E1,-3.6878776E-2,9.1838217E-1,2.4E1,1.9079695E0,7.857143E0,2.2274773E0,5E1,-2.0050203E-2,5E0,8E0,9.000143E-1,7.1E0,9.3800306E-1,9.2331815E-1,1.9746965E-2,9.988022E-1,9.169235E-1,2.1920002E0,2.2437882E0,9.201256E-1,9.3245834E-1,9.19522E-1,-8.506845E-3,7.282079E-3,1.3647854E-2,-3.4485136E-3,1.0858352E-2,-1.2620277E-2,-8.905005E-3,-2.5991386E-2,-2.4653113E-2,-7.526555E-3,-3.455778E-2,4.6419702E-4,3.1611934E-2,1.6004851E-2,1.3951087E-2,-3.6229999E-3,-1.3415647E-2,2.3790365E-2,7.722066E-3,-3.5710838E-3,-8.297621E-3,2.0862183E-2,5.807038E-3,3.375348E-2,6.689548E-3,2.1334527E-2,2.5929594E-2,-2.0329002E-2,2.0729627E-2,3.3514913E-2,1.0188561E-3,3.3908974E-2,-2.1043587E-2,2.1938311E-2,1.6968654E-2,6.7758868E-3,1.530921E-2,2.5774805E-2,-1.1913165E-2,1.324175E-2,-1.6243443E-2,1.7429492E-2,-1.3954212E-2,9.604648E-3,5.4139653E-3,3.3968043E-2,2.3510525E-2,-3.0397711E-2,3.062796E-2,-2.2959914E-3,1.6673652E-2,3.7101537E-2,-3.835921E-3,2.8339947E-2,-7.538391E-3,3.2743808E-2],"split_indices":[25,37,8,34,1,11,1,10,1,45,10,14,11,4,0,31,1,33,11,18,1,1,11,3,10,1,10,14,46,1,1,28,8,8,27,1,1,10,33,0,1,0,10,11,0,8,0,1,0,24,25,10,8,14,14,0,13,14,0,0,10,14,14,0,0,0,0,0,0,0,0,0,0,0,0,0,0,0,0,0,0,0,0,0,0,0,0,0,0,0,0,0,0,0,0,0,0,0,0,0,0,0,0,0,0,0,0,0,0,0,0,0,0,0,0,0,0,0,0],"split_type":[0,0,0,0,0,0,0,0,0,0,0,0,0,0,0,0,0,0,0,0,0,0,0,0,0,0,0,0,0,0,0,0,0,0,0,0,0,0,0,0,0,0,0,0,0,0,0,0,0,0,0,0,0,0,0,0,0,0,0,0,0,0,0,0,0,0,0,0,0,0,0,0,0,0,0,0,0,0,0,0,0,0,0,0,0,0,0,0,0,0,0,0,0,0,0,0,0,0,0,0,0,0,0,0,0,0,0,0,0,0,0,0,0,0,0,0,0,0,0],"sum_hessian":[4.1336045E3,3.3173792E3,8.1622534E2,2.8917861E3,4.255929E2,6.3900195E2,1.772234E2,2.3608083E3,5.309779E2,1.4041518E2,2.8517773E2,1.12573135E2,5.264288E2,3.0747435E1,1.4647597E2,1.1598596E3,1.2009486E3,1.8264154E2,3.4833633E2,1.0906925E1,1.2950826E2,1.476888E2,1.3748892E2,9.5892365E1,1.668077E1,4.6150708E2,6.492171E1,1.5713831E1,1.5033604E1,9.0038284E1,5.643768E1,9.234197E2,2.3643996E2,5.121578E2,6.887909E2,4.099848E1,1.4164307E2,1.5671992E2,1.916164E2,8.131482E0,2.7754433E0,2.7522273E0,1.2675602E2,3.056126E1,1.1712754E2,1.3031635E2,7.1725817E0,9.484993E1,1.0424356E0,7.528564E0,9.152206E0,2.9928537E2,1.6222173E2,4.9095825E1,1.582588E1,2.4195173E0,1.3294313E1,1.1182211E1,3.851392E0,1.30898485E1,7.694844E1,1.3522872E1,4.291481E1,7.590178E2,1.6440187E2,1.9008075E2,4.63592E1,8.330157E0,5.038276E2,8.263547E1,6.061554E2,2.5608517E1,1.5389965E1,3.8873289E0,1.3775574E2,9.861327E1,5.810666E1,1.4468002E2,4.693638E1,1.1739228E0,1.6015205E0,6.843589E1,5.8320133E1,2.2235208E0,2.8337738E1,6.151449E0,1.1097609E2,3.3527054E1,9.678929E1,1.7017862E0,5.470795E0,3.5089363E1,5.976057E1,1.5791839E0,5.94938E0,6.0276966E0,3.1245098E0,5.0082424E1,2.4920294E2,1.0460217E2,5.7619553E1,4.2309986E1,6.7858405E0,3.0281038E0,1.2797776E1,1.1475178E1,1.8191357E0,1.0650599E0,1.0117151E1,2.6457443E0,1.2056478E0,1.0773354E1,2.3164954E0,2.723079E0,7.422536E1,8.2663555E0,5.2565165E0,1.9101427E0,4.1004665E1],"tree_param":{"num_deleted":"0","num_feature":"51","num_nodes":"119","size_leaf_vector":"1"}},